// fc3 (Q16.16)
#ifndef FC3_Q16_H
#define FC3_Q16_H

#include <stdint.h>

#define FC3_OUT_DIM 32
#define FC3_IN_DIM 32

static const int32_t fc3_weights[32][32] = {
    { 13619, -13102, 9117, 3994, -8503, -735, 5054, -8525, 6210, 6859, -9514, 1876, 7233, -2849, 6352, -1678, 462, 2653, -10366, -7071, -4464, 8303, -10367, 10001, 6201, 6112, -4761, 9258, -9251, 5978, -6435, 2043 },
    { -12941, 6080, -9486, 14952, 4414, -10036, -3774, 5591, 5184, -2718, 5751, 4490, -13705, 4040, -4731, -4262, 5122, 10548, -5256, 11371, 10624, 12822, 2664, -3821, 10658, -12951, -9235, -5612, -12871, -9558, -6479, -16359 },
    { 1978, 7286, 1070, -12522, 6687, 12286, -4667, 3916, 5963, 1283, 7004, 1841, -12721, 1554, 9215, -2161, -4267, -1814, -9142, 2957, 1116, 11845, 7485, 2968, -11646, -8455, -9007, 5599, -10849, -1071, 4981, -2405 },
    { -4786, -2799, -11190, 14447, -9697, -5623, 7363, -8871, 2516, 4061, 10809, 7973, -2825, -9310, 3200, 5493, 11938, 2304, -730, 9836, -6482, -8483, -4362, -13669, -6916, 725, 10373, -4034, 4561, 6775, -4710, 905 },
    { -5854, -2493, 2821, -4702, 10198, 8726, -12254, -1462, -1256, -14152, 6515, 4379, -5700, 5526, -17062, 8771, -8782, 9329, -3118, -12492, -10383, 2180, 10683, 13380, 792, 8412, 7183, 11290, -12640, 2240, -10683, -2270 },
    { -8657, -11615, 5740, -2178, 9482, -6017, 1606, 5628, 7701, 8993, 12977, -8270, -7638, -6648, 10642, -4008, -4571, 9439, 4506, 11283, -1988, -3684, 13422, -10397, 4109, 10, 3975, -10570, -13328, -551, 5185, -1341 },
    { 11311, 2036, 5818, 4081, -7497, 8208, -2434, 3365, 9547, 1371, 12078, 2381, -10301, 4721, 8152, 3705, -13455, 3481, -1361, -1929, -13253, -4928, 3438, -10646, 207, 2328, -1428, -4388, 949, 6946, 5356, 11914 },
    { 5504, -1202, 6798, -8449, -3739, 4374, 7316, 6320, 438, -3313, -10678, -856, 10677, -3656, 10701, 12447, 13076, -12970, -882, 10350, 6504, 6842, 4596, -10588, 14485, -1357, -3751, 9661, -4465, -6730, 3994, 6440 },
    { -11151, -17865, 844, -12167, 2955, 2138, -6, 11443, -2606, 3456, -591, -10810, -2490, -7105, 2847, -5396, -9894, -6548, -12141, -8324, -14952, 8647, 7076, -5637, -5826, -95, -5961, -2192, -3836, -6293, 7350, 8575 },
    { -14820, -8948, -8807, 8969, -6121, 10046, 1462, 4010, 3678, 10906, 7856, 6842, -4633, -7602, 5586, 8446, -381, 13574, 11637, 6723, 13276, 1768, 8265, -12742, 7927, 2382, 5939, 3160, -5791, 4517, 13656, -12794 },
    { -7314, 6737, 734, -3471, 566, -12943, -7140, 5806, 6090, 9510, -872, 5291, -6533, 975, 12211, 6806, 3927, -552, 3399, 8355, 11276, -9915, 75, -14583, -799, -297, -7040, -5944, -9564, 1523, 5552, -2360 },
    { 6186, 15492, -7185, 10889, -9188, -10047, -6098, -2292, -11933, 3187, 2298, -7284, 8584, -2204, 12433, 8116, -6796, -261, 16524, 4391, 12567, 5573, 7866, -13589, -5686, 6916, -5350, -13037, -198, 6282, 2106, 8836 },
    { 1441, -8135, -44, -6111, 3257, -8433, -8115, 1574, 9068, 7977, -12097, -13943, 10851, -6035, -12305, 778, 11284, -4483, 164, -13524, 10617, 5287, 6151, 7488, -3279, -11032, 2515, 8387, -3463, -1367, -3507, -3874 },
    { 3617, 13346, -290, 4895, 4938, 2641, -901, -4050, 750, -7377, 2881, -7121, -14358, 100, 4666, 487, -1714, 3293, 2172, 3153, -3511, 4827, 9610, -2938, -3314, 4852, 3918, -2623, -12352, -7123, 3946, -12398 },
    { -5936, -5197, -2260, -4286, 5053, 10587, 11356, -3332, -9184, 5118, 12620, 14229, 4596, 9647, -4094, -8394, -12114, -3805, -553, -5178, -1350, 3631, -9010, 1174, 8351, 9581, -3609, -6610, -5952, 6729, -8326, 14158 },
    { -2274, -4523, -8856, -1918, -12317, -8035, -12142, 2033, -5990, 5677, -8150, -7364, -3606, -3154, -2484, -8835, 4796, -16086, 13234, 8710, 10169, 7104, -13612, 1920, 4978, 7532, -9035, -1039, 9346, 3790, -12827, 8404 },
    { 12313, 12317, -7830, -9980, 5960, 10755, 13728, -11369, 7442, -3006, -2190, 12778, 2757, 6181, -3767, 7791, -8919, 4765, 1453, -7089, -6204, 5788, 3228, -5382, 3114, 170, -13191, -8822, -5194, 14011, 13096, 8841 },
    { 12936, 16613, -333, 11661, 7850, 2096, 13266, -5633, -11114, -8220, 9881, -5059, 1582, -619, -7762, -5329, 5305, 4177, 8413, -931, -2254, 1622, -6356, -5440, -2331, 3304, -7619, 4624, -2860, 2741, 509, 8542 },
    { -2350, -3794, -9858, 2841, -788, -11504, -13772, 5318, 986, -2922, -9364, 6061, -4548, 3722, -6819, 7304, 2594, -1806, 8539, -7395, -5963, -4152, -3740, -350, 7452, 9003, -2702, 7272, 7811, 3369, -8552, -13992 },
    { -11022, 3535, -13600, 13362, 11779, 2439, -6622, -12830, 4702, -5280, 5494, 7445, -9669, 2564, 1642, 3669, 9494, 2439, 4419, 743, 7597, 4208, 12388, 7599, 8116, 6743, -11428, -6143, -11490, -8674, 11892, -15384 },
    { 9330, -6786, 3755, -10249, -3674, 5248, 1115, -7976, 2144, -7238, -5568, -6799, 4690, 3914, -3956, 8031, 1644, 695, 3404, 927, 4727, 5970, 4518, 6628, -14126, 8301, 5871, -4440, -12191, 9987, -536, -840 },
    { -4069, 11270, -6287, 13540, 6116, 2616, 5300, -8928, -11663, 10790, 5281, -11464, -5857, 2721, 3000, 8108, -5812, 1663, 3371, -9038, 14637, -1825, -6016, -8480, -1541, -7278, 1593, -6113, -8453, -13267, -6271, -6316 },
    { 3573, 6492, 4484, -4926, 9670, 7151, -7185, -10134, -7936, 1245, -8551, 5537, 2072, 7630, 9922, -7183, -7063, 10247, 2326, -3749, 8355, 7932, 8651, -7735, -3774, 5427, -16600, -13713, -8896, 7533, -8054, 5177 },
    { -10084, -3228, 212, 9172, 7713, 6540, -11106, 3699, 3827, 8354, -7869, 1823, 2059, -10996, 1774, 2303, 8388, 4932, 1251, -420, 3255, -5947, -7939, -5766, 14310, -3024, 8739, 1191, 9935, -6046, -10905, 6065 },
    { -8822, 6777, -4831, 14838, 4430, -3008, 5300, 6971, -10010, 9725, 13080, -6063, -5925, -3786, 3505, -6630, -6220, 7097, 5066, -2700, 7514, 8942, 4252, -1904, 8921, -12817, -9953, 1249, -7598, 6727, -1130, -13878 },
    { -3105, -3578, -938, 2234, 4818, -4294, 5326, 5285, 3137, -14947, 7492, -8915, -7049, 8477, -9705, 624, 3254, 15663, 27, 1738, 906, -3186, 4481, -8826, -7139, -8181, -8290, -3814, -2274, -3701, 14622, 10079 },
    { 6816, 1598, -5550, -5379, -6706, -5325, 3735, -5667, 6392, 9468, 6230, 2098, -8864, 7945, 6023, 12105, 13096, -2995, 8492, -5990, 14001, -10143, 3994, -3987, 13676, -2034, -4479, 7357, 4154, 4011, -7240, -7333 },
    { 1918, -5637, 9142, 2360, 550, 9807, 14048, -8266, 10230, -9785, -5252, -8550, -1570, 11887, -9867, -11096, 4697, -455, 1672, 774, 6135, 4681, 17135, -6510, -6531, -2401, 7121, -1274, -13289, 8651, 11033, -5223 },
    { 3455, -6434, -1313, 6045, 13284, -1701, 7077, -6631, -5235, -9639, 5241, 10876, -9611, 6334, 920, -10446, -1962, -6853, 9806, 591, 12023, 3229, -7268, 6415, -5903, -6624, 7830, -1764, 632, -5848, -237, 12009 },
    { -10670, -6303, 6024, 841, -5120, 2495, 3727, -7741, -5144, 10523, -6710, 6831, 9984, 4003, 6214, -4058, -3609, -15665, 3868, 10351, 8593, 931, -15996, 3697, 217, -820, -5458, 4502, 5829, -5666, -4362, 897 },
    { 5414, 9243, -11924, 5173, -8667, -6450, 464, -12785, 9031, -2684, 2706, 7426, -207, 12193, 10925, 1261, -17068, 7180, 1833, 3720, 3898, -2691, -338, -11378, 320, -1168, -7588, -2568, -639, 7308, 13383, 12745 },
    { 6792, -2619, -18546, 11529, 6956, 1532, -11764, -2603, 7577, -1894, -10596, -174, 11556, -8888, -2308, -650, -3019, -5813, 7354, 3841, -3888, -6923, -19861, -11237, 6108, -4647, -9293, 2043, 8190, 5670, 3224, -13606 }
};

static const int32_t fc3_biases[32] = { 1500, -9641, 7065, 9097, -11043, -970, 5020, 1979, -11643, 10869, -4393, 4527, 6570, -9543, -3542, -3035, 11938, -4317, -7459, -9513, -1703, 10212, -8017, -10122, -9187, 8581, 7157, 4165, 8946, 5280, 8841, -677 };

#endif // FC3_Q16_H
