{
  "fc1": {
    "weight": [
      [
        -0.33210684141987307,
        0.007573550610383195
      ],
      [
        -0.30360932609410507,
        0.20892668685464238
      ],
      [
        -0.432461428596348,
        0.5122182348461815
      ],
      [
        -0.46743307396232214,
        -0.502901755319853
      ],
      [
        -0.46389789886461524,
        0.3325649541319781
      ],
      [
        -0.33262199180470825,
        0.24461857891430444
      ],
      [
        -0.5913514064356173,
        -0.3211672741272725
      ],
      [
        -0.35515864294832067,
        -0.12970164617744004
      ],
      [
        -0.5424585850809015,
        0.4604358976060417
      ],
      [
        -0.26853635314923,
        0.2088173573984404
      ],
      [
        0.48304344473491945,
        0.11846169816954037
      ],
      [
        0.18897449428731952,
        0.6587921113756118
      ],
      [
        -0.37070754513971704,
        0.22375058306525955
      ],
      [
        -0.33258378988846554,
        0.5042882395906811
      ],
      [
        0.5295211048396391,
        -0.5856335618482067
      ],
      [
        0.5972139362281301,
        0.3296864722782085
      ],
      [
        0.21570596931066613,
        0.38620866576130014
      ],
      [
        0.5721918758861775,
        -0.057494017649443015
      ],
      [
        -0.5933513537378646,
        -0.12060295926116067
      ],
      [
        -0.47799316728411345,
        0.015955192994671002
      ],
      [
        -0.0761353403667348,
        -0.48992373999206035
      ],
      [
        -0.07863946094312958,
        0.6223636525430641
      ],
      [
        0.012515654068369264,
        -0.07392713481970901
      ],
      [
        -0.0791604720487872,
        0.1781044695513221
      ],
      [
        0.45632440276382397,
        0.43581741239353317
      ],
      [
        0.2361299694815175,
        0.22556930089729033
      ],
      [
        0.1443930863524268,
        0.2877105777889497
      ],
      [
        -0.14493066162853876,
        -0.6564255707326427
      ],
      [
        -0.41676467609159484,
        0.5114675626636621
      ],
      [
        -0.03521736364290476,
        -0.5851439250012909
      ],
      [
        0.12663878994013097,
        0.5862881990295417
      ],
      [
        -0.6714443457858582,
        -0.2932498926790284
      ]
    ],
    "bias": [
      -0.3283993626514686,
      0.057097660318586846,
      -0.020297867829248657,
      -0.1406750537096573,
      -0.6642586126363464,
      0.4755494282746701,
      0.683035137870071,
      0.4596701500419232,
      -0.4676970116976398,
      -0.6819114664279267,
      0.36760936801620375,
      0.1448768520138882,
      0.4618994137931831,
      -0.6756779920511118,
      -0.09414836876767864,
      0.5761339765924585,
      0.5358250694554794,
      -0.06843109971354812,
      0.30799573846463346,
      0.1945371275556269,
      -0.46550172317476246,
      -0.31231965380396437,
      -0.5406886849663075,
      0.8135862230472237,
      0.5461165315034157,
      0.36546814166996744,
      -0.5707324151780562,
      0.5284017653573798,
      0.4525561413431123,
      0.46363494167766145,
      -0.21342452440667328,
      0.4894087031277665
    ]
  },
  "fc2": {
    "weight": [
      [
        0.17244549614938345,
        0.17114684301543592,
        0.15225895959200064,
        -0.03916080296651368,
        0.09529490497829894,
        -0.06398332963392914,
        0.10636807188066466,
        -0.009370777652895505,
        -0.06416734743988961,
        -0.11204644470226091,
        0.015593203854681926,
        0.18805931817196034,
        0.16118195035043334,
        -0.055547725578995386,
        0.12415821979098225,
        -0.06525356749098259,
        0.1208327014134201,
        -0.046348568054186426,
        0.02321523918031672,
        0.06390337031744253,
        -0.1925061335873879,
        -0.014732655039356272,
        -0.0063377099393344,
        0.22524540400218587,
        -0.03670879300020248,
        0.08007752528825314,
        0.07503424154572239,
        0.019387763796983346,
        0.20975095060609766,
        -0.005765743669298871,
        0.05600915079347173,
        0.1186979162497107
      ],
      [
        -0.04583592743196839,
        0.13219276554335457,
        -0.0633582675533465,
        0.0084685945285086,
        -0.1399953922131413,
        -0.11260431548826497,
        -0.08567296421976725,
        -0.17206261937968093,
        0.03421452672837785,
        -0.05099931735001724,
        0.08677220993154759,
        -0.016331083055346588,
        0.00567308383811161,
        -0.04956372009703837,
        0.034539258695833276,
        0.2329389973578583,
        0.08467083162209971,
        -0.0006858883579197106,
        -0.15290364606740015,
        -0.0595759113648242,
        -0.18335291604255283,
        -0.09838501413768155,
        -0.16577711922691235,
        -0.020219531856919673,
        0.06489960295815175,
        0.18569576512924588,
        0.11154808267064045,
        0.097379608464738,
        -0.0812811638769941,
        -0.022393440334984995,
        -0.11864483101943285,
        0.06842865791197107
      ],
      [
        0.13766888242055494,
        0.19696727202005296,
        -0.10919044886624707,
        0.15791975220327642,
        0.28830234438905333,
        0.14291795554245465,
        0.01012282088346594,
        0.15146944217752356,
        0.1791966018101151,
        0.2722803640538697,
        -0.08312431955160052,
        -0.14993713417234875,
        0.0006805410084885308,
        0.16357377156464079,
        -0.1336631768819683,
        -0.20494664263862905,
        -0.3051027679472967,
        -0.08379324136227816,
        0.15780048643056585,
        0.04978210964768829,
        0.0727051823156044,
        0.07314137838088051,
        0.19102150651584038,
        -0.19758464319110344,
        -0.21329524203864442,
        -0.17911276105720608,
        -0.07177508127210477,
        0.030515019479529767,
        0.1270405733535708,
        -0.25659823456291825,
        -0.11424994623735267,
        -0.18546695764080567
      ],
      [
        0.03488966268218577,
        0.09482521737903893,
        -0.15946950015751732,
        -0.10489816059292256,
        0.04178448391715896,
        -0.16211132203424022,
        0.09300983149018854,
        -0.019068333752364417,
        -0.06377776911844821,
        0.008066668493829785,
        0.08429198279925369,
        -0.041342747635419216,
        -0.19092298198351126,
        0.0080950621999875,
        0.022028013281564018,
        0.026120537968204537,
        -0.000506051986351145,
        0.14926919570009442,
        -0.08999214941684557,
        -0.0583314485889277,
        0.05484429267204065,
        -0.06172566517758494,
        0.04798500206149286,
        -0.059219841566108856,
        0.1075763824697839,
        -0.06638049145966149,
        0.059787610763858245,
        -0.04070900972899782,
        -0.16236595760095204,
        -0.193358963288291,
        0.10664129311589483,
        -0.08644155554161205
      ],
      [
        0.17060003409667468,
        -0.12851802560170456,
        -0.06072447014883716,
        -0.12480052757347855,
        0.18765748979404415,
        -0.01819214585644078,
        -0.13397245021149462,
        -0.11736577590870541,
        -0.05699114775665387,
        0.19429777936236392,
        -0.04350020467424872,
        -0.12603944302562073,
        0.05646254126139641,
        0.15387068076858026,
        -0.16894018019822934,
        0.03970940319616609,
        0.06081790143495091,
        -0.05662578506944859,
        -0.12861329538569916,
        0.022868803473509232,
        0.1525559355372388,
        0.20255855682466767,
        -0.06650588245797473,
        -0.1336737172679381,
        0.09136150182900692,
        0.05440840693653984,
        0.2798162400251676,
        -0.19095743205650154,
        0.1410516203417527,
        -0.2481545083703173,
        0.031234108336702655,
        -0.005252814834624687
      ],
      [
        0.1157880139352153,
        -0.0818857368819598,
        0.18764080431914848,
        0.2024087520562574,
        -0.04408666206503924,
        0.041400911499643,
        -0.07566619640904212,
        0.21416891047715766,
        0.15231599727241524,
        0.2126662069503709,
        -0.01070418829708018,
        -0.013940160835107266,
        0.14172980288209333,
        0.06867740517098463,
        -0.0847441389162277,
        0.03314451798534617,
        0.027203048130622846,
        -0.10773596285033855,
        0.006765225165074575,
        -0.08793455090907154,
        -0.05041114166856067,
        -0.06243722991819797,
        -0.05059435259195245,
        -0.17551021344369794,
        0.09277987903978498,
        -0.20044165345316506,
        0.24378209054336203,
        -0.09923195007107098,
        0.008025476801300398,
        0.12823030369221727,
        0.06442925654487745,
        -0.011030070587044381
      ],
      [
        -0.1032651715191499,
        -0.018534378482419768,
        0.17405741816850387,
        -0.09566567156214444,
        0.1713528373175014,
        0.04543938871909441,
        -0.05496108845897767,
        0.04882250432442684,
        -0.004084170498741574,
        0.03527220306316598,
        0.10246650342298537,
        0.10849816254140397,
        0.06803873882127248,
        0.09261218035549558,
        0.11903081849876215,
        0.05189597271211749,
        0.0044726857466748675,
        0.010021862312501842,
        0.039594853801136476,
        -0.08383045209881887,
        -0.1453682895591665,
        0.11722372666057246,
        0.015455013148185997,
        0.1416257221029862,
        -0.08751474629349103,
        0.20494403911768783,
        -0.028568630119416093,
        0.002595100955881657,
        -0.027584971007866495,
        -0.12145416690806732,
        0.12224403260202275,
        -0.047073213470542746
      ],
      [
        -0.09504329847461225,
        -0.126962852496648,
        0.08785964258688066,
        0.11972317860515665,
        0.10893455051936325,
        -0.23527669630793038,
        0.08089322070337297,
        0.03938377448877107,
        -0.13233523795207147,
        -0.009265327211004506,
        0.008776734140962026,
        -0.14123262761508415,
        -0.1561946385079794,
        0.12701234956674093,
        0.029910501218631712,
        -0.044763921101514885,
        -0.18553287977240612,
        -0.0715371638500041,
        0.13056508170230444,
        0.03136336808801002,
        0.0654114710106243,
        0.06803377899915429,
        -0.01248743950066659,
        -0.2463164266555329,
        -0.20972153691848547,
        0.010286182582915243,
        -0.10380976003070132,
        0.13715118223472297,
        0.0760947099900162,
        0.09196260201625196,
        0.11240615094518105,
        -0.059057909683479355
      ],
      [
        0.13865403165187393,
        -0.10878703583186536,
        -0.045932688400155776,
        0.09561621164848562,
        -0.10299419994775598,
        0.10049219418753977,
        0.005262642093429741,
        -0.04320366859067257,
        0.13511874470306437,
        0.12563593166133696,
        -0.055325006385580855,
        0.027049831128869127,
        -0.010864355038084117,
        0.13510102210872832,
        0.12419346487275051,
        0.1581108573333076,
        0.12017696974523517,
        -0.13056426667427176,
        0.09110959459521624,
        -0.06937794736005191,
        0.14521806247285018,
        0.09639032972536168,
        -0.10402368496936382,
        -0.049959729933195134,
        0.044047110718767275,
        0.06438747297120812,
        -0.12726909874345324,
        0.0008979812479732777,
        0.06123569212341108,
        0.10631628341659609,
        0.09036521648077074,
        0.0007896415913604281
      ],
      [
        -0.1859922547980004,
        0.08248388784651134,
        -0.16035771344128294,
        -0.06958491708750796,
        -0.031681420564929605,
        0.017965708720856736,
        0.1513380108397242,
        0.004286697836068031,
        -0.11652280229390283,
        -0.06026205757395647,
        0.02528297946972614,
        -0.1361182917300118,
        -0.18755688147587327,
        0.05205352778723478,
        -0.09356479372525192,
        -0.13027101661936405,
        0.10982852030524562,
        -0.0961396531045668,
        -0.11682345609404111,
        0.11071182770344686,
        -0.043508089620533257,
        -0.01986717983707293,
        0.20106619645559895,
        -0.10202477244348701,
        0.133601771327832,
        0.1032563330852933,
        0.0863121859704605,
        0.08681854280504618,
        -0.10826973070163645,
        0.14547758425990875,
        -0.15685697909522792,
        -0.0675310338654459
      ],
      [
        -0.10115823939344933,
        0.10998933906489815,
        0.016109590627029567,
        0.09775222081325048,
        0.09770267579490641,
        0.043660260304837564,
        0.06426483195752815,
        -0.15727988168996862,
        -0.1958131429000943,
        -0.1459360301455999,
        0.11381045245588661,
        0.183609187996452,
        -0.013695783425317656,
        0.08848188402545229,
        -0.13224026187616172,
        0.008491959783825555,
        0.020603104705449415,
        -0.0342457422520896,
        -0.1036828041642873,
        0.06484976371055731,
        -0.042727604013478776,
        -0.014545271757530329,
        0.11055317804988034,
        -0.1160084554978598,
        0.12711171072303387,
        0.17907693063542976,
        -0.07714064860922477,
        -0.1927479614174988,
        0.05210485924401167,
        -0.15857697640023402,
        0.09752226767176804,
        -0.15637094137407667
      ],
      [
        -0.17166004621986586,
        0.017942500040273906,
        -0.07617947302779014,
        -0.18605470698907994,
        0.039387841647670084,
        0.0349535802565168,
        -0.0129604678507116,
        0.08226509039810471,
        -0.10311731505318418,
        0.13798708946595972,
        -0.10007679258863933,
        0.20747572597376004,
        0.10088756725207157,
        -0.183043584741201,
        0.01757044267214126,
        -0.059903801368782816,
        0.21378945913255185,
        0.026165168879568962,
        0.07299434431396525,
        0.12016363793059552,
        -0.18884733487291125,
        0.09240594995581974,
        -0.1739340908340198,
        -0.037206746835683306,
        -0.037487288190593424,
        -0.12763256933809616,
        -0.15416684367556333,
        -0.16609807634560284,
        -0.16133738266547698,
        -0.08659816767831308,
        -0.043288314101322015,
        0.07113848015140058
      ],
      [
        -0.008743671359567764,
        -0.14379176210254638,
        -0.10041029145762173,
        0.14791636949822937,
        -0.16664423944773446,
        -0.0033145176217331306,
        -0.08866010155207726,
        0.16873551017315766,
        0.1321630649793993,
        0.008382509782813373,
        -0.10887257691316604,
        -0.069369097302186,
        0.07719269109860741,
        0.06404859901204953,
        -0.03707721814428461,
        -0.09484747056401725,
        -0.013412522574459351,
        -0.02234506168450486,
        0.03690228349907062,
        0.10819785654068095,
        -0.043903187027033504,
        -0.04732583999529515,
        -0.0026606148573790045,
        0.09688249002307846,
        -0.12301062878864638,
        -0.16305713754483694,
        -0.2246078885784799,
        0.14099828142699586,
        0.20679763513206886,
        0.24009990474171758,
        0.014650414904254616,
        -0.005913991110555508
      ],
      [
        0.0019900819997070926,
        -0.13292732533023036,
        0.02476364175889171,
        -0.09126716208907042,
        -0.03863053231060018,
        0.16785268363605443,
        -0.09401928172664936,
        -0.1598337987717341,
        -0.005213978540950631,
        -0.06640667072023138,
        -0.048744970512340585,
        -0.008783630877097022,
        -0.031327022990810464,
        0.15591265658893738,
        -0.009952921166355698,
        -0.05876423001031955,
        0.159513665289299,
        0.05180922118201007,
        0.08073943899824143,
        0.11835211981996535,
        0.11708309144173035,
        -0.01016261329891493,
        -0.039303439807862585,
        -0.048168943050456575,
        0.1959130783238659,
        0.10079215361871081,
        0.008033594743510892,
        0.008396173998877909,
        0.22394024182819608,
        0.03453822233198161,
        0.12803463429354073,
        0.13919698501039082
      ],
      [
        -0.09124629621104495,
        -0.05274516589488754,
        0.0064331995572451,
        -0.17970182281791544,
        -0.05435565104406877,
        -0.03048764949819186,
        -0.031609706058940895,
        -0.020278531057937994,
        0.07320859046088828,
        -0.0352803668746807,
        -0.08780827076116442,
        0.1601111063511995,
        0.07308474355898548,
        0.009014378955876711,
        0.10299182268398145,
        0.09050918307502626,
        -0.01828643047921353,
        0.1564094435005138,
        -0.16068503409838228,
        -0.15363609030746342,
        -0.06801661629405803,
        -0.1599262742822501,
        0.1007027155670607,
        0.18700722175712514,
        0.14149785107402973,
        0.18993171158185757,
        -0.1672524754464045,
        0.16494474164474718,
        0.024108561276591858,
        -0.08989576824532651,
        -0.13116647549126031,
        0.02984286559989745
      ],
      [
        0.06685638774123946,
        -0.09045217363832551,
        -0.07268150978564707,
        -0.05069164821031935,
        -0.2016149216671007,
        0.07806547661430062,
        -0.028752829801807784,
        -0.18386940161074228,
        -0.1648732211941107,
        0.010895795054261125,
        -0.13586056493224577,
        0.09255480390038688,
        -0.19202753099077063,
        -0.042864618819114186,
        0.08444437462382014,
        -0.04980726854193037,
        -0.09276383358967623,
        0.014426031776078195,
        0.0011691404980639208,
        -0.06598430208460104,
        0.09230012431194573,
        0.042824949221440256,
        0.04164430795287169,
        0.16196446193470737,
        -0.07767946827146359,
        -0.11444149851633965,
        0.009079339878209226,
        0.09153860295768575,
        0.1287355576921743,
        0.22325597147964948,
        0.016574752041676438,
        0.08212648861187126
      ],
      [
        0.07130483190933848,
        -0.060514393186500336,
        -0.1910572399880851,
        -0.021474914826824128,
        -0.1484730603126113,
        0.05484862168286749,
        -0.16386690200850046,
        -0.23655504013688491,
        -0.03210497539722281,
        0.12545941082053025,
        0.04130466506910495,
        0.011030378554020762,
        -0.07915798613861519,
        -0.1662454133779273,
        -0.07550495005906235,
        -0.27729149983022683,
        -0.1454851088297858,
        0.15951170563856634,
        -0.1927462882247113,
        -0.09319801418192218,
        0.2544178714271801,
        0.09275003269272965,
        0.18762929526458774,
        0.017017999613433435,
        -0.1247919887593982,
        -0.20410222953917007,
        0.1062776525922762,
        0.06689789534327877,
        -0.10671905106826456,
        0.15831433290985894,
        -0.16283157976583099,
        -0.02762712595048545
      ],
      [
        0.1546332249717571,
        0.1114708493834536,
        -0.11424892437983257,
        0.012841723711661581,
        0.14044825629456043,
        0.09295289831610348,
        0.001094484882201946,
        -0.2169518628776065,
        0.03697590299125114,
        0.3042693570960811,
        -0.12161949210684336,
        -0.008122298257299113,
        -0.06910145572435127,
        0.07958982867020355,
        -0.04886638529414006,
        0.0976486885720435,
        0.13387081863505704,
        -0.03514726753246524,
        -0.022681039041747137,
        -0.19821922167249215,
        -0.10209424993580982,
        0.04884488013537542,
        0.04689750709144508,
        -0.010020687085835863,
        0.012399057271364025,
        -0.025439889284425806,
        0.23627210273528193,
        -0.14254915174598462,
        0.16779300190175236,
        0.016773354342647286,
        0.055786318290067596,
        -0.09962777915085938
      ],
      [
        0.032315215810098365,
        -0.05041480925248269,
        -0.13422418562080268,
        0.057791442942921684,
        -0.05716795745341351,
        0.1221131528256378,
        -0.20639977765178263,
        -0.00021815720066777072,
        -0.2111056574001434,
        -0.1468960083617636,
        0.04960761814806118,
        0.1720826498747702,
        -0.12282124396482505,
        -0.1581982755371074,
        0.029869526712966853,
        0.05283087704852563,
        -0.06871293047363035,
        0.0528698367081343,
        0.05445061778463332,
        -0.12772414422037448,
        -0.19647375990599933,
        -0.1242864992156037,
        0.05929482327272744,
        -0.014764596256882864,
        0.18874956255472558,
        0.058058921971054625,
        0.028300893662255133,
        0.12927230420588945,
        0.017832568525321883,
        -0.12598910289262463,
        0.06356893530407128,
        -0.03126964841016434
      ],
      [
        -0.15484012929113755,
        0.10010627344308409,
        0.03586883961065274,
        -0.08283896422470004,
        -0.19331013577093675,
        0.0036704957507044914,
        -0.1990486157024438,
        -0.012878353636637726,
        -0.1488501210998052,
        -0.0015845675078816847,
        0.06662484399990434,
        0.053042302831233304,
        -0.1161351322715695,
        -0.03844632992697981,
        -0.04301425304010918,
        0.03634617255644475,
        0.03145708962851031,
        0.19233938016470833,
        0.13428618098081235,
        -0.07281801781119282,
        -0.06711914570090009,
        -0.08220960678760054,
        -0.12474047707165899,
        -0.1136137900143064,
        -0.09723326230221313,
        -0.08694871635808914,
        0.1566909691456035,
        0.07119459876872065,
        -0.1321428801539284,
        -0.13650986498181863,
        0.037195734328583606,
        -0.13291630984893507
      ],
      [
        -0.21168246792578818,
        -0.22250636270131666,
        0.02762764134666064,
        0.014928215440516798,
        -0.020023758403666228,
        -0.2475023461843142,
        -0.011548271302494742,
        -0.22562801618923564,
        0.0016943047483038026,
        0.0014571406309596864,
        -0.08926820926982845,
        -0.007800080681543733,
        -0.20988714049383758,
        0.1313486055062761,
        -0.039430757050045076,
        0.10306036957015836,
        -0.13056531308316846,
        0.09735014320556694,
        -0.21784909495967064,
        -0.06944047402488612,
        0.0442728214162282,
        -0.026016778743645073,
        0.1044974353806147,
        0.1018258926648553,
        -0.102837285488009,
        0.15633464489091867,
        -0.06977045634809714,
        -0.16740025907499706,
        -0.08646238400036227,
        0.15246824085082164,
        0.16277466877571092,
        -0.057372635595745125
      ],
      [
        -0.06114278369941556,
        -0.027295297898969072,
        -0.04235767556478353,
        0.11718933846579525,
        0.03508218877424782,
        0.008145604519868996,
        -0.133773250674063,
        0.03679917461492805,
        0.14218945499078178,
        0.14853665103732194,
        -0.01764404038117912,
        0.1948642172325144,
        0.0005914887513869859,
        0.17360656770239785,
        0.06883817579751941,
        0.12322886419414686,
        0.0757492300571593,
        -0.18943508819999377,
        0.11404950620779279,
        -0.09583071194695428,
        -0.13816609472060246,
        -0.07443789902539093,
        -0.06822997817270497,
        -0.14564045070737666,
        0.1230082709579083,
        -0.09570388201284619,
        0.1350279130897828,
        0.09826461533198569,
        0.1489767304939725,
        0.08145820363273383,
        0.07146228065084004,
        -0.15323813079332757
      ],
      [
        0.15180909014453284,
        -0.10595453077291922,
        0.07138896306200146,
        -0.08148465008190704,
        0.18674786477598565,
        0.1611779253664224,
        -0.13754322161313567,
        -0.13341599744133206,
        0.19446534681786537,
        0.01437949651316204,
        -0.17049743777102663,
        -0.07047081062987301,
        -0.13426790882289685,
        0.21482441526210402,
        0.10591131886472617,
        -0.0844454381139002,
        0.0906655200585714,
        0.07732409717225412,
        -0.0714539384418379,
        0.05227757897876698,
        -0.08708273599353007,
        -0.016258470137419344,
        -0.09402331390049705,
        -0.06397676014867743,
        -0.04216870611821412,
        -0.01766258412805256,
        -0.019684010681362545,
        -0.2694049218704639,
        0.0013003792362492113,
        -0.026984956906510493,
        0.1382717097313596,
        -0.14241845408686007
      ],
      [
        0.14404607299655608,
        -0.08148811914692272,
        -0.050771415884628454,
        0.17172756555845273,
        0.09002520985820063,
        0.10300890848300702,
        -0.13296515610957765,
        -0.11269036643885308,
        0.010249490445229827,
        0.20034031524487267,
        -0.2184043271583155,
        0.07576351783923098,
        -0.043616522161174294,
        -0.08636529001658215,
        0.10189614011487712,
        -0.17704250966432555,
        0.01782749354937601,
        -0.08295001764039692,
        0.16105872096493923,
        -0.12814311411970614,
        0.1439541349686417,
        0.13462349254696782,
        0.06308016332429936,
        0.15841900037208761,
        0.11010186148899895,
        0.04941625008058435,
        0.1040917006779701,
        0.15145124753028863,
        0.16369166599732068,
        0.07319046248691945,
        -0.1276216877249166,
        0.12277309955426573
      ],
      [
        0.01707430622984621,
        0.03356039488741049,
        -0.00932484541183059,
        0.14484334902880083,
        -0.11730504030255051,
        -0.17730851053413071,
        -0.13272233784449472,
        0.08512552318606412,
        -0.10429420767008453,
        0.06431974480587589,
        -0.09633188347354843,
        -0.22788871572280112,
        -0.21437909653024667,
        -0.11351282218049354,
        -0.13477162700128084,
        -0.2156261019312774,
        -0.09845402543064134,
        0.18179920696200827,
        -0.13823396921217432,
        -0.08936301829233467,
        0.001075588727950924,
        0.022189431698558117,
        0.1650173934368349,
        -0.14653648828446184,
        -0.14699881471420911,
        -0.006760425048509641,
        -0.09625593931872996,
        0.09329156504462648,
        -0.1078781508989785,
        0.07783168224799707,
        0.10478545451457888,
        -0.008775259967561715
      ],
      [
        -0.12366186472029272,
        -0.03325200582813413,
        0.13527008517032704,
        -0.13258089547444044,
        0.13064581886585525,
        -0.10508284046383634,
        0.047125233527228604,
        0.18906685895527323,
        -0.1842569494560314,
        -0.19416737786555777,
        -0.08511667763051417,
        -0.1320777859289106,
        0.01637078588509545,
        0.08775271679516546,
        0.10321924830889406,
        -0.17424826977264912,
        -0.04090757131183477,
        -0.15154077484357067,
        -0.04564858562591324,
        0.12160685400466884,
        0.01741943568628713,
        0.14975170543760352,
        0.03485555503480949,
        -0.09852908580718929,
        0.032331002238950315,
        -0.12423794212798746,
        -0.2318548051365899,
        -0.10399068416110761,
        0.16971856123341791,
        -0.052626679413240965,
        0.11576400062629322,
        -0.004905104520596404
      ],
      [
        0.20171487651427272,
        -0.07029686312860942,
        0.0834410503912991,
        -0.12916578553461494,
        -0.03560261381231454,
        -0.01703912249824752,
        0.023195206732052536,
        -0.041502199534364674,
        -0.004668018993832062,
        0.01787908470236989,
        0.07950760624491282,
        -0.1518533166025437,
        -0.09646157190552515,
        0.0983234566348971,
        -0.06075774527637808,
        -0.08646157180913285,
        -0.06603773563977781,
        0.12330953404192196,
        -0.13080129802982907,
        0.16832212379537353,
        0.1170072945741004,
        -0.07637444088333802,
        -0.006916152002214575,
        -0.057100123219828464,
        -0.10539100504433752,
        -0.1585301759571245,
        0.15294354354700448,
        0.14300141441435746,
        0.06975797979403732,
        0.06803421331368331,
        0.16316584937438575,
        0.12415790524261881
      ],
      [
        0.19924492397290794,
        0.031633155407574325,
        -0.19999985406607224,
        0.19628141392426185,
        0.03759283446692227,
        -0.16923432125452748,
        0.04213297032824349,
        -0.10485212079960918,
        -0.05859347396937514,
        0.033369957044221694,
        -0.08394887505260323,
        -0.17936267778620724,
        -0.06425017947236586,
        0.16976795961083743,
        0.04406958489307533,
        -0.017917682942114,
        -0.06654868735649058,
        -0.10795651931834518,
        0.022242109611941646,
        -0.1307614259200363,
        0.18468308997804386,
        0.129903524504597,
        0.207130656344756,
        -0.07843313787019665,
        -0.19333158972276168,
        -0.02236225535763447,
        0.11360481133643714,
        0.05349344436050368,
        -0.30796444504485365,
        0.19087197075527054,
        -0.20065695090186852,
        0.03881165677581636
      ],
      [
        0.17063120956975156,
        -0.1357907513573431,
        -0.06885348477436247,
        0.0662412711412409,
        -0.1313915861244017,
        0.057058154263221895,
        0.15276534800123917,
        0.09090306281970663,
        -0.0555820547581141,
        -0.1416634307377163,
        -0.0428075613689006,
        -0.16573621936138577,
        0.1458788382886519,
        -0.11544307119237886,
        0.08917208512135816,
        0.05099460274349769,
        0.08602577078206738,
        -0.06929026564183201,
        -0.08771793853761883,
        0.009426617864107662,
        -0.11110080473218982,
        -0.10769617490472719,
        -0.07807601193319859,
        -0.1944027358225762,
        0.05436102393224596,
        0.14189599997317406,
        -0.12119686966179107,
        0.21480400319341042,
        0.08540742501607734,
        0.21827488490139335,
        -0.03460181483593679,
        0.16148600012079645
      ],
      [
        -0.16011422254599628,
        -0.11140863796634423,
        0.07833954727729038,
        -0.1759429170179485,
        0.11353779056888706,
        0.1220597014749439,
        0.06995154005255892,
        0.259215705201919,
        0.14626093752630823,
        0.01801255504838625,
        0.1635938348493347,
        0.03894696144603847,
        0.18902405075919895,
        0.006601273178805568,
        -0.09299333052832989,
        0.061681281526387625,
        0.3318376425144882,
        -0.1911647547751173,
        0.12044314868801391,
        -0.0352587576016771,
        -0.27381270285775505,
        -0.057161504329301636,
        -0.18504900939442495,
        0.20372725813207496,
        0.1590789796108325,
        0.32071005343867226,
        -0.08670206302277574,
        0.018104095892271042,
        0.18395583658201056,
        -0.023156044406195266,
        0.1392939927831476,
        0.16973261298971257
      ],
      [
        0.023788548747825704,
        -0.08196994901341484,
        0.1531572676331407,
        -0.1536618664087978,
        0.1096548837903818,
        -0.1285568654503081,
        -0.037578395276442925,
        -0.05072501968259791,
        0.09758766737367462,
        -0.051225496862332694,
        -0.1257970484207721,
        -0.01856542460939928,
        -0.04005152569097094,
        -0.12724344183600408,
        0.100321506699025,
        0.03751812223079421,
        0.11846970077225355,
        0.04372338265042782,
        -0.09076043103345154,
        -0.028722524585215174,
        -0.17449913248512208,
        0.18136073016362378,
        0.11301077251638005,
        -0.014629186071437438,
        -0.02712214612544973,
        0.18112383574773414,
        0.014501719639685605,
        -0.10298291093009931,
        0.09061954924391885,
        -0.10637897063418994,
        0.039301105937247345,
        0.11219566005091212
      ],
      [
        -0.12579453586486228,
        0.15465746333985553,
        -0.08549494094107049,
        -0.0335300646533638,
        0.06335977643185972,
        0.12793690161882876,
        0.26593836377478425,
        0.10232008076560094,
        0.12904274917631328,
        -0.16166126461669933,
        0.04783179553067618,
        -0.05525236821662037,
        0.015992493574639624,
        0.0873215456162381,
        -0.19155124256782288,
        0.11489803649051858,
        0.09305832874269783,
        -0.09071369302027522,
        0.1707787130433681,
        0.18879561382268809,
        -0.18339527530174674,
        0.1086406497874238,
        -0.18724039935376036,
        0.013403796863147042,
        0.15041829089675604,
        0.12415258646003452,
        -0.1589834732612382,
        -0.08985496452526409,
        0.14664550178727673,
        0.1025214435139929,
        0.030646972262791925,
        0.17240647538131015
      ]
    ],
    "bias": [
      0.14847938333539554,
      0.18546809599171446,
      -0.02552499551729724,
      -0.025489983357280643,
      -0.03695140123729161,
      -0.07316939609972133,
      0.12455154349515644,
      -0.09628770794744165,
      -0.11526710893179255,
      -0.02163593451947701,
      -0.05663875018899212,
      0.16362606916901523,
      0.17652904777754225,
      -0.12471805576939533,
      0.12423113842524033,
      -0.08758714884162068,
      -0.06417995616632766,
      -0.21288682061863717,
      0.16558249028492025,
      -0.1469955087324395,
      -0.14105059406350334,
      0.10015874519275803,
      -0.012052537656314834,
      -0.044196193185473895,
      0.06540429863309653,
      -0.05093781841564233,
      -0.10603886408893483,
      -0.060977052743107524,
      0.10737065191141915,
      -0.048619049223086325,
      -0.07376754296807077,
      -0.011480256424894258
    ]
  },
  "fc3": {
    "weight": [
      [
        0.20781098663277198,
        -0.19984976512250943,
        0.1390922757984612,
        0.06096413921891716,
        -0.12975677697346122,
        -0.011294580944988903,
        0.07714779820790826,
        -0.13013728958668294,
        0.09466207101205452,
        0.10471412418297439,
        -0.14508889385417398,
        0.028687239555542816,
        0.11033208120442613,
        -0.0434819583848558,
        0.09700927208407031,
        -0.025519002439457834,
        0.0070387820607903575,
        0.0404664337487945,
        -0.15810167569215852,
        -0.10783056160062501,
        -0.0681113264522559,
        0.12659915080433212,
        -0.15821215468073885,
        0.15243368196335477,
        0.09465389640034577,
        0.09297472987823953,
        -0.07271462884034552,
        0.14124016524751737,
        -0.14113745189751653,
        0.09123825513479099,
        -0.09815430974154223,
        0.03118515818760982
      ],
      [
        -0.19751417441703917,
        0.09268520203490115,
        -0.14470850188377218,
        0.22816910391238737,
        0.06740383145928931,
        -0.1530230181324741,
        -0.05760333310322556,
        0.08535657385753394,
        0.07915861328540173,
        -0.04150649412258493,
        0.08773843540956892,
        0.06840969576546609,
        -0.20913422842091045,
        0.061645370501365045,
        -0.07227464179909958,
        -0.06505989371126294,
        0.0782099522336204,
        0.1610051365513644,
        -0.08026596203232814,
        0.17350283059477684,
        0.16215895002102468,
        0.19569169077093454,
        0.040698733105766126,
        -0.05821674432274526,
        0.16264890958335385,
        -0.19745626350128986,
        -0.14080401915416252,
        -0.08558961618621422,
        -0.19645220278915151,
        -0.14590920224784068,
        -0.0988526686495958,
        -0.24966792128790805
      ],
      [
        0.030172856368120855,
        0.11114406494332461,
        0.01633622651445759,
        -0.1910778755058621,
        0.10202713252592685,
        0.18745235749001737,
        -0.07129627730198931,
        0.05976870133431989,
        0.09091013300370171,
        0.01970240253007522,
        0.10682010227579582,
        0.028094226295794607,
        -0.19409004826003928,
        0.02346069982994822,
        0.14061310782141098,
        -0.03285517972705856,
        -0.06510838867888072,
        -0.027688620554687415,
        -0.13951357856044458,
        0.04509904280744711,
        0.01702604189911684,
        0.1806480467008793,
        0.11422322364717756,
        0.04528063346621246,
        -0.1776677444441647,
        -0.12916536937786732,
        -0.13747221946874433,
        0.08542825051507208,
        -0.16553620133719257,
        -0.016344412089704014,
        0.07590555809158271,
        -0.03670584561217084
      ],
      [
        -0.07298479456852006,
        -0.04274005392531544,
        -0.17075705778362613,
        0.22040754170060997,
        -0.14798746539611404,
        -0.08574874825151033,
        0.11235842898217627,
        -0.13534842752452692,
        0.03845394099379588,
        0.06192466610297061,
        0.16484361136944442,
        0.12164580084538879,
        -0.043034357417892424,
        -0.14197999578716766,
        0.04878408457666476,
        0.08369795418228669,
        0.18213247986821055,
        0.03513906664565597,
        -0.01117167067098686,
        0.1500228521976437,
        -0.0989593338029315,
        -0.12932356714005086,
        -0.06657688683838155,
        -0.2084114201887851,
        -0.10558686897702782,
        0.011266451468002972,
        0.15833040281596045,
        -0.06157367468796143,
        0.0696180781221201,
        0.10339441664913986,
        -0.0718968972000532,
        0.013832623029099706
      ],
      [
        -0.08939225873781562,
        -0.03807072987748001,
        0.04308511224832757,
        -0.07169604390447826,
        0.15566549693426573,
        0.13313688581023503,
        -0.18704978267765357,
        -0.022286635587559063,
        -0.019195868672101195,
        -0.2158976770464745,
        0.09946299571033286,
        0.06678197236065848,
        -0.08706095238192416,
        0.08419851579062461,
        -0.26034385602471166,
        0.1339508838947223,
        -0.13394921271712096,
        0.1423933032363436,
        -0.04759654616184696,
        -0.19052903901032833,
        -0.1583603050362379,
        0.03314542769024748,
        0.16306686246931257,
        0.20406622032464236,
        0.012152294589912049,
        0.12822054400290836,
        0.10960674547172929,
        0.1723209888680655,
        -0.19291939060237367,
        0.03412854269499128,
        -0.16296874286285049,
        -0.034701580899468454
      ],
      [
        -0.13215215053682336,
        -0.1773023464664678,
        0.08763963438842101,
        -0.03316722419645549,
        0.14472237332432691,
        -0.09175125520071203,
        0.024437912752452894,
        0.08595282187944016,
        0.11758962906113214,
        0.1372622528744692,
        0.1979867754999688,
        -0.12626028667525846,
        -0.1165541704435939,
        -0.10161926016291789,
        0.16232420194497255,
        -0.06110456344522594,
        -0.06968086421840705,
        0.1440665187431565,
        0.06866872994555154,
        0.17217443974143598,
        -0.03025974151710286,
        -0.05621549759683262,
        0.2048794198328822,
        -0.15857663016227788,
        0.06275548897194083,
        0.00017490392444517247,
        0.060706479147817155,
        -0.16123992831661052,
        -0.20343726370598159,
        -0.008457571313861791,
        0.07907578403003827,
        -0.02054004656498006
      ],
      [
        0.17256844629641563,
        0.031063237500156785,
        0.08877746906691782,
        0.062298394622864,
        -0.11439316287463937,
        0.12518099475127428,
        -0.03722346668463252,
        0.05133137648260784,
        0.14558320942564423,
        0.02101391984394739,
        0.18428127948747758,
        0.03632764350794106,
        -0.15719405460091643,
        0.07181068587653257,
        0.12442462939556413,
        0.056684783345755614,
        -0.20527478740085894,
        0.05311604538749939,
        -0.020748790502460993,
        -0.029380025549100953,
        -0.2021789290154039,
        -0.07539707084335658,
        0.052461244197069296,
        -0.16250288041419708,
        0.0032024724999193143,
        0.03539623145429495,
        -0.021808220923733284,
        -0.06694738914740024,
        0.01447777945793035,
        0.10595510840311911,
        0.08167613423240402,
        0.18177083512222292
      ],
      [
        0.08402734444158239,
        -0.018312429112702467,
        0.1036924640577393,
        -0.12896137285316958,
        -0.05707009020608236,
        0.06676330446642806,
        0.1117724908615014,
        0.09638907384803531,
        0.006720109979482694,
        -0.050620349623808486,
        -0.1629273846421777,
        -0.013031365056539127,
        0.1629697108048548,
        -0.055584811479692735,
        0.16332902059575713,
        0.1897724452385458,
        0.19948392774017717,
        -0.1979554144869199,
        -0.01344043992000055,
        0.15785750520197184,
        0.09917565823275915,
        0.10464370969145459,
        0.07007651663025884,
        -0.1615384128032934,
        0.2209677568864165,
        -0.020616950407990976,
        -0.057243053967787665,
        0.14738633165715817,
        -0.0680993176637314,
        -0.10265726291160074,
        0.0609863955535256,
        0.09830048265863338
      ],
      [
        -0.1701534949988621,
        -0.27259587121480744,
        0.01284121108256836,
        -0.1856288506503395,
        0.04507538573530582,
        0.032528959925252725,
        -5.6194266795885444e-05,
        0.1745340721394739,
        -0.03996098089545667,
        0.05283813456617562,
        -0.008970623193980549,
        -0.1648758043883086,
        -0.038028355844291144,
        -0.10844432060395108,
        0.04353188202615442,
        -0.08226118446122266,
        -0.15099706367012816,
        -0.09992973823598492,
        -0.18518491256531888,
        -0.12695800669887766,
        -0.22815088610598955,
        0.13183933154781818,
        0.10793752841203642,
        -0.08616043344324592,
        -0.08888844273671093,
        -0.0017715898068441348,
        -0.09104428246809933,
        -0.03348325782579391,
        -0.058507898072312034,
        -0.09597762130777886,
        0.11219682937975985,
        0.13084950383439944
      ],
      [
        -0.22617419200147232,
        -0.13661305883596872,
        -0.13435189808729775,
        0.13687612655685258,
        -0.09335127930137642,
        0.15341435671835635,
        0.022301055840066666,
        0.06124901140075447,
        0.05620538588019974,
        0.16635892955997886,
        0.11984250059697796,
        0.10430756355118513,
        -0.07071092185603366,
        -0.11596510632565737,
        0.08515074639305807,
        0.12879138445560734,
        -0.005771038450895749,
        0.20718487454961768,
        0.1774850602671554,
        0.10257130721285651,
        0.20260926543839133,
        0.027054624199218516,
        0.12619221043412512,
        -0.19430130582707159,
        0.12095693251479205,
        0.03658648476579762,
        0.0907251016855225,
        0.04826869568548475,
        -0.0884263472204019,
        0.0688802178296935,
        0.20838514715104867,
        -0.19526475862351134
      ],
      [
        -0.11159699200528597,
        0.10273823024313347,
        0.011213720091082676,
        -0.05298370542231954,
        0.008664791868565632,
        -0.19740266815253252,
        -0.10894658338078768,
        0.08862853027759088,
        0.09299257043649423,
        0.14506818736612306,
        -0.013391111107654365,
        0.08068732527893879,
        -0.09966041209453835,
        0.014934613781284599,
        0.186239766901255,
        0.10373177648208178,
        0.05992767701430264,
        -0.008398951190735466,
        0.05181136434323033,
        0.1274346645230849,
        0.17205270854774282,
        -0.15118810241545766,
        0.0011586640159191735,
        -0.22235355561213443,
        -0.012228049064345171,
        -0.004320509509773958,
        -0.10735407817297149,
        -0.09067342554822305,
        -0.14595659943736486,
        0.02322382664767676,
        0.08470698865457016,
        -0.03601796307754102
      ],
      [
        0.09440873319549016,
        0.236368832640765,
        -0.10963715486963321,
        0.1661214924644009,
        -0.14020765607802477,
        -0.15325712582353396,
        -0.09305125556772531,
        -0.034957481775324754,
        -0.182011398144477,
        0.04861239954692946,
        0.03504601494500484,
        -0.11117128390053192,
        0.13101251559360905,
        -0.03362429701735854,
        0.1896779696713821,
        0.1238085516787461,
        -0.10371775861450586,
        -0.003977224373678709,
        0.2520964729860044,
        0.06696025590220349,
        0.19173433398624434,
        0.08508404286170125,
        0.12003235262981421,
        -0.20730121626812384,
        -0.08681245021072703,
        0.10564840011333342,
        -0.0815893646697307,
        -0.1989305065362345,
        -0.003016166399361707,
        0.09585715114165,
        0.0321065541484053,
        0.13482767299181386
      ],
      [
        0.022010976432512316,
        -0.12406024731375404,
        -0.0006969888974200681,
        -0.0932642358599298,
        0.04968039681272517,
        -0.12873530459466487,
        -0.1237724877819217,
        0.02396370485911075,
        0.13830019813160144,
        0.12170159721603481,
        -0.18455681946514624,
        -0.2126931123798349,
        0.16555023862466905,
        -0.09197949320502,
        -0.1877009906764885,
        0.011857673911266844,
        0.1721426154116614,
        -0.06843257868532582,
        0.0025884584346647166,
        -0.20632790790229355,
        0.16197856230359975,
        0.08066200708466235,
        0.09382658591426914,
        0.11419262742806194,
        -0.05005198326469462,
        -0.16838534082255868,
        0.038326512970474486,
        0.12795257435147755,
        -0.05280021870748896,
        -0.020838167473661205,
        -0.053470174137576224,
        -0.059075319103977765
      ],
      [
        0.055158197303399534,
        0.20357285198772737,
        -0.004376146149624765,
        0.07471789796315487,
        0.07539203642910043,
        0.04036680394215509,
        -0.013792971236591277,
        -0.06172882469158006,
        0.01150977349459283,
        -0.11257356190775117,
        0.04392015115455249,
        -0.10873159863961407,
        -0.21908263921636018,
        0.0014309530028606607,
        0.07112394966239777,
        0.007436363720940106,
        -0.026095093754609014,
        0.050287853183855855,
        0.033056571781689276,
        0.0481026873791407,
        -0.05351993778449699,
        0.07367509593027922,
        0.14669024079008539,
        -0.044724402179189465,
        -0.05053778985055866,
        0.0741701263248699,
        0.05985021312541465,
        -0.039977762607319445,
        -0.18852132923191492,
        -0.1088643245023678,
        0.06018271974658117,
        -0.18924736153364935
      ],
      [
        -0.09059141440789051,
        -0.07927059720648111,
        -0.0345013832455785,
        -0.06537472270912628,
        0.07708098572472054,
        0.16146303633027734,
        0.17321353161614228,
        -0.05086422520654124,
        -0.14020111884638295,
        0.07815280082066953,
        0.19257942643910017,
        0.21713545179768642,
        0.07010756098029049,
        0.1470740501630215,
        -0.062407809506932685,
        -0.127918796040294,
        -0.1848406475755686,
        -0.05808418764959714,
        -0.008390710652259777,
        -0.07894230485673161,
        -0.02056676923279515,
        0.05521247276968369,
        -0.13749553104340026,
        0.01778636809320758,
        0.12745886274352977,
        0.14606048997477597,
        -0.055126176502076275,
        -0.10087660662812015,
        -0.0908062945059759,
        0.10267270168593073,
        -0.12708423800645546,
        0.21603024223638637
      ],
      [
        -0.034659022131131444,
        -0.06898368342164748,
        -0.13518187980872437,
        -0.029313043214267538,
        -0.18796718252501066,
        -0.12258645137469182,
        -0.18520681014803092,
        0.03100451530886541,
        -0.09135826589979776,
        0.08657082056807623,
        -0.12436673458933128,
        -0.11233896808298485,
        -0.05497197740407961,
        -0.047963998478929876,
        -0.037887616868238876,
        -0.13494046370559415,
        0.07313032725543184,
        -0.24546618810157897,
        0.20197028127854044,
        0.13284090751888347,
        0.1550880953371301,
        0.10864663168726725,
        -0.20771642082596178,
        0.02932746590035817,
        0.07590735541161281,
        0.11503142932644522,
        -0.13785696706235473,
        -0.015872260201288693,
        0.1426431060684134,
        0.05786308410115923,
        -0.19571036634952246,
        0.12827198456223382
      ],
      [
        0.18789126179044985,
        0.18800984997390355,
        -0.1195064749992381,
        -0.1523018794489384,
        0.09093025378148809,
        0.16406657056392265,
        0.20945342517237522,
        -0.1734754401836818,
        0.11355066873764377,
        -0.04580638160027073,
        -0.033425984551344885,
        0.1949920110114121,
        0.04208874234373199,
        0.0942288096925174,
        -0.05743731539340167,
        0.11892694616153374,
        -0.1361049110696201,
        0.07268636742593694,
        0.022216659074914016,
        -0.10817802238474554,
        -0.09469194171577391,
        0.08830025660425718,
        0.04923273621790351,
        -0.08213856084710687,
        0.04751121836426814,
        0.0025563703003749854,
        -0.20131161093499092,
        -0.1346211103488087,
        -0.07923598869262842,
        0.21380800812472403,
        0.19979838426058077,
        0.13490603981996238
      ],
      [
        0.19731617277985047,
        0.25340694880618164,
        -0.005024952687883783,
        0.1779636529036674,
        0.11983696791398336,
        0.03207688773229069,
        0.20235322118312746,
        -0.08587285897476536,
        -0.16950402608202145,
        -0.12543741846996898,
        0.15072930397469325,
        -0.07730670675084382,
        0.024133722224254178,
        -0.009567628312239227,
        -0.11853403221273393,
        -0.08131381056652522,
        0.0810290021013708,
        0.06378724605256061,
        0.12826167175058453,
        -0.014227500877213138,
        -0.03431687401761943,
        0.024778906076195876,
        -0.09691785921834103,
        -0.08289834380164597,
        -0.03551803696509188,
        0.05054644357913413,
        -0.1161654568088265,
        0.07061843625173052,
        -0.04371304254442005,
        0.041656781657848856,
        0.007737798962587737,
        0.13023649225059733
      ],
      [
        -0.035819605281959814,
        -0.05785265702711116,
        -0.15046062488457124,
        0.0433173285044223,
        -0.012049584126757077,
        -0.1755340248901189,
        -0.21003437225449884,
        0.08110370060479606,
        0.015090848121132457,
        -0.0446554538415619,
        -0.1428780641880539,
        0.09252076266248786,
        -0.0693645586052286,
        0.05699643122916802,
        -0.10399907011338214,
        0.11132331598204157,
        0.03953513832270972,
        -0.02759017564931031,
        0.13033707501391661,
        -0.11288717978519207,
        -0.09105764850207002,
        -0.06315947390511156,
        -0.057120059456283574,
        -0.005322545711692673,
        0.11365657533351595,
        0.13745880426530752,
        -0.04123534575034306,
        0.11093319927394685,
        0.11921850551640965,
        0.05145130411477621,
        -0.13045280852276284,
        -0.21346660490727626
      ],
      [
        -0.16822020588377393,
        0.05386743109360207,
        -0.20747922768049504,
        0.20390515120280775,
        0.17978629391470227,
        0.03731428759708014,
        -0.10106526077531618,
        -0.1957156054182991,
        0.07180628798411709,
        -0.08059009376053829,
        0.08380165173033295,
        0.11351612431409899,
        -0.147555991293704,
        0.03911540798358777,
        0.0249718723599273,
        0.055948369660998226,
        0.14491545898910527,
        0.037272103804526856,
        0.06736002965609142,
        0.011326530781621207,
        0.11597392329917025,
        0.06425895224641298,
        0.1890880909244693,
        0.11605680071559563,
        0.12386832047798374,
        0.10304366159433612,
        -0.17428218008799995,
        -0.09368200716898095,
        -0.17538147258329742,
        -0.13240993601127657,
        0.18146324978665215,
        -0.23479453496312735
      ],
      [
        0.14234132785578235,
        -0.1035292027413623,
        0.057296321820224275,
        -0.15634857675683797,
        -0.05605838585161837,
        0.08000850113827272,
        0.01693110985750787,
        -0.12172310053558752,
        0.03262332814598438,
        -0.11035027865993789,
        -0.08493483535966488,
        -0.10373165313876123,
        0.0715277980864522,
        0.05950441802708727,
        -0.060332502408672266,
        0.1227449722584531,
        0.025113055175406032,
        0.010598742169834047,
        0.05198228460451617,
        0.01422948536614995,
        0.07215996163181349,
        0.09078922851356822,
        0.06894260895479902,
        0.10102882556712031,
        -0.21549494684240908,
        0.1264397504693552,
        0.08953817914691725,
        -0.06775397056330595,
        -0.18601653004940497,
        0.15238048616054697,
        -0.008213989718350634,
        -0.01283199570354742
      ],
      [
        -0.06206204123931017,
        0.17197265643474724,
        -0.09596372119741663,
        0.20658837877149278,
        0.09333288331599796,
        0.03997280651388159,
        0.08104312236163255,
        -0.13625171708670816,
        -0.1778967687426955,
        0.16454678101108003,
        0.08062080801568122,
        -0.17491157989331324,
        -0.08936159864182153,
        0.041781465142311104,
        0.045751611351391865,
        0.1234843478586693,
        -0.08872115154422902,
        0.02537471360389677,
        0.05143204371734073,
        -0.13795506212654832,
        0.2233048708547215,
        -0.027448922604748942,
        -0.09178398383407287,
        -0.12935944792255896,
        -0.023580404199827126,
        -0.11091130119634061,
        0.024322453502561306,
        -0.09330192014391754,
        -0.12897811143984353,
        -0.20241053321411182,
        -0.09560816730026449,
        -0.09635075946536777
      ],
      [
        0.054451323787671625,
        0.09895074944366498,
        0.06847785964564856,
        -0.0751037184156392,
        0.1476086582907539,
        0.10920256476198385,
        -0.10970991356460942,
        -0.15455254297211615,
        -0.12105904901490054,
        0.019025776732704856,
        -0.13050905460016377,
        0.08440606473356467,
        0.031588597920873,
        0.11627745914391321,
        0.1513217547148559,
        -0.10955860737144313,
        -0.10769520724468845,
        0.1564190768321787,
        0.03538816821782873,
        -0.05720837201253981,
        0.1275769182555075,
        0.12102115512647091,
        0.13206138297792266,
        -0.11794259250020131,
        -0.05750575014340458,
        0.08280640135189009,
        -0.25322954349569105,
        -0.20917629142266517,
        -0.13580936211686503,
        0.11484160089224409,
        -0.12292998577920566,
        0.078890697531586
      ],
      [
        -0.153865513091708,
        -0.04925586806067427,
        0.0032679547026428844,
        0.1399471372839586,
        0.11770629181868045,
        0.09985485136410079,
        -0.169407019380871,
        0.05644011771879054,
        0.05846605442000383,
        0.12738719078727592,
        -0.12005378282378518,
        0.027816492246274978,
        0.031403275767917384,
        -0.16756201070218923,
        0.027023223283556167,
        0.035049033033962236,
        0.12797757206826313,
        0.07527369775716072,
        0.019064498226296463,
        -0.0064077128011853805,
        0.049652462163373094,
        -0.09062574911815148,
        -0.12111422031936736,
        -0.08794374073786586,
        0.21834178351757078,
        -0.04605226551154728,
        0.1333832592690997,
        0.018170905757177135,
        0.15157646744195702,
        -0.09225261750362082,
        -0.16633923518409738,
        0.09254437114857691
      ],
      [
        -0.13463850274160613,
        0.10332161945284687,
        -0.07367956667908128,
        0.22641380209081652,
        0.06764785571846157,
        -0.04578422749775217,
        0.08083653961311936,
        0.10642710050746859,
        -0.15264558753329596,
        0.14834658475231924,
        0.19954384264580324,
        -0.09258066946222311,
        -0.0904077303876737,
        -0.0577666128958928,
        0.053392509501862855,
        -0.10122383187354592,
        -0.09486980293044933,
        0.10836225853214902,
        0.0772256691412538,
        -0.04121782902684771,
        0.11468805089690408,
        0.136528296603726,
        0.06498032544675546,
        -0.02891946166850768,
        0.13600605671329397,
        -0.19527061919233746,
        -0.15178323347583034,
        0.019102800746820997,
        -0.11601310631073998,
        0.10260060357363043,
        -0.017240156268142844,
        -0.2118506712766231
      ],
      [
        -0.04740831158275591,
        -0.05465495142576883,
        -0.014305386161071465,
        0.03411272987631474,
        0.07352496310741295,
        -0.06551275338231627,
        0.08118602194056723,
        0.08068629045757056,
        0.04785252099048071,
        -0.22800428906193537,
        0.11428551951622802,
        -0.13606654203262944,
        -0.10756142687877081,
        0.1291279498757992,
        -0.14810696435597007,
        0.009611219643705145,
        0.049682691272146716,
        0.23899673894923623,
        0.0003561711636246893,
        0.02650596764466721,
        0.013861586918605425,
        -0.04869988991906045,
        0.0683852485057726,
        -0.13464023576958145,
        -0.1088983402311121,
        -0.12487697137895054,
        -0.12648067941790167,
        -0.05817792800342291,
        -0.03471673193199031,
        -0.05649204018118145,
        0.2230437801961299,
        0.15376502671276937
      ],
      [
        0.10403504517153417,
        0.02438907162818526,
        -0.08470954961198178,
        -0.08211422776499265,
        -0.1023355215731256,
        -0.08119223998447715,
        0.057102541711456116,
        -0.08648562487722981,
        0.09759451496525973,
        0.14438872772209652,
        0.09505671977162168,
        0.03202678397911667,
        -0.13521419860133374,
        0.12143503117540975,
        0.09187626530704861,
        0.18453048621693427,
        0.1997918558674903,
        -0.04571467031977282,
        0.12955958362397246,
        -0.09148372712548551,
        0.21357949622442654,
        -0.15446521317763695,
        0.06092442924429227,
        -0.06076893009001817,
        0.20862892578646533,
        -0.030886455741771197,
        -0.06832940983552922,
        0.11223391986844719,
        0.06339785181789334,
        0.06123609537744633,
        -0.11043274557999792,
        -0.11186119441264086
      ],
      [
        0.029222971933802945,
        -0.08610220339111573,
        0.1395398637164867,
        0.036074397653523826,
        0.008426588253662742,
        0.14966838677348757,
        0.21430118971579917,
        -0.1260744873562553,
        0.1560534775786541,
        -0.14923443128169872,
        -0.08014245468245937,
        -0.13051535858872107,
        -0.02400274673670161,
        0.18116069037047794,
        -0.15061063695721313,
        -0.1692429711327458,
        0.07173186119755111,
        -0.006905873165297518,
        0.025438895038267684,
        0.011855451774093188,
        0.09371096094446524,
        0.07135921998132322,
        0.26146557313220326,
        -0.09931623030795561,
        -0.09959592057682681,
        -0.03670142611341675,
        0.10867864303146275,
        -0.01939862678114379,
        -0.20282623878010875,
        0.13195648293065315,
        0.16833443476974835,
        -0.07975015761713938
      ],
      [
        0.05266904680061583,
        -0.09825472713622099,
        -0.019984317906628395,
        0.09227977882617225,
        0.2027352147487836,
        -0.02587604370645937,
        0.10792593742732612,
        -0.10109876086240593,
        -0.07978304456177311,
        -0.14707541867554472,
        0.07993093306606543,
        0.1658706258710861,
        -0.14665309731204493,
        0.09650727360625627,
        0.01395198484069291,
        -0.1593799742114624,
        -0.029881250559094713,
        -0.10452178046329164,
        0.14952662085090443,
        0.008990592214320496,
        0.18351063622929456,
        0.04928397927690841,
        -0.11085252104835584,
        0.09797073427971816,
        -0.09003155117898795,
        -0.1010109630729061,
        0.11955473753844446,
        -0.026870960691896824,
        0.009586617550761345,
        -0.08929186089298861,
        -0.003649895097754061,
        0.1831887556722645
      ],
      [
        -0.16277349140643932,
        -0.09615484635146544,
        0.09189359641316601,
        0.01279527726898815,
        -0.07812868368356572,
        0.038115464730978495,
        0.05696699988137114,
        -0.11813017475745745,
        -0.07843929760459024,
        0.16050520436260127,
        -0.10238742956128602,
        0.10425029740400968,
        0.15239745466024393,
        0.061241351309074106,
        0.09481732548853519,
        -0.06208111344970212,
        -0.055116718078376044,
        -0.23904589966164347,
        0.059022432351270096,
        0.15786431756367927,
        0.13106048567293996,
        0.01438255979342292,
        -0.2441129918519589,
        0.05647308934672165,
        0.0032527973319098967,
        -0.01238380772604392,
        -0.08327036269891905,
        0.06866566004516217,
        0.08895855458678131,
        -0.08642637687560703,
        -0.06651016670012198,
        0.013725886190769072
      ],
      [
        0.08261806958710091,
        0.1410666298477422,
        -0.181973246916045,
        0.07887682241180517,
        -0.1322620791225794,
        -0.09842321125354762,
        0.0070605759928491175,
        -0.19507660889369238,
        0.1378973003019963,
        -0.04092589705623281,
        0.041282497529794675,
        0.1132900188528129,
        -0.0031312850431340737,
        0.1860176436358476,
        0.1667210211155055,
        0.019233990204883176,
        -0.2604710468339592,
        0.10953060015802886,
        0.027977790279705345,
        0.056740562394869624,
        0.059431390209082086,
        -0.041048991200943546,
        -0.005190617136288537,
        -0.17360686512802465,
        0.004864952816389952,
        -0.017811149785311692,
        -0.11577907146210266,
        -0.039199977912282566,
        -0.009733033973991967,
        0.11153918183259265,
        0.20418698635585514,
        0.19448845645910787
      ],
      [
        0.1036746907635141,
        -0.03996086861863592,
        -0.2829918557040056,
        0.1758612776625808,
        0.10613290268218889,
        0.023406276651579207,
        -0.1794586201667824,
        -0.039706686641382265,
        0.11574972596418324,
        -0.0290520555326137,
        -0.16170798581686746,
        -0.0026630799480626727,
        0.1763750928388464,
        -0.13537303839106066,
        -0.03524974906867758,
        -0.01010507251539041,
        -0.04610232850481949,
        -0.08871234738649282,
        0.11222611617714887,
        0.05853967589513473,
        -0.05937478567145169,
        -0.10532864991676483,
        -0.3031247859398363,
        -0.1713773593309588,
        0.09314472214277436,
        -0.07069293061955874,
        -0.14175801482707157,
        0.031161644635369176,
        0.12498213960020768,
        0.0865467780268253,
        0.04919266271710955,
        -0.20757924806358177
      ]
    ],
    "bias": [
      0.022912346620366966,
      -0.1471765454746625,
      0.10781071900511843,
      0.13881575023564507,
      -0.16855696825364083,
      -0.014855930543645918,
      0.07658324175806953,
      0.03024842530530304,
      -0.1776403828407457,
      0.16579727395118612,
      -0.0670516684237365,
      0.06907835811871808,
      0.10028947621719943,
      -0.14565272893256248,
      -0.05403879886272303,
      -0.04627241736259262,
      0.18216817047160772,
      -0.06593616520918938,
      -0.11376379195402549,
      -0.14520389015461677,
      -0.025994087650757367,
      0.1558300504843677,
      -0.12239751102574399,
      -0.15446280401525644,
      -0.1402399197454357,
      0.1309033744903799,
      0.10922235805958888,
      0.06350388148095609,
      0.13645285948672473,
      0.08059603812754382,
      0.13490817473451716,
      -0.010315913591989167
    ]
  },
  "fc4": {
    "weight": [
      [
        0.07254481673353315,
        -0.058903003187573126,
        -0.11227561653070679,
        -0.0002799601128444283,
        -0.10557868497624734,
        -0.16670230153377122,
        -0.12087098250696336,
        0.13410037149488663,
        0.04230882824400764,
        -0.04350566063522069,
        -0.008457324337288958,
        -0.09523286693542198,
        0.1747726228771801,
        -0.14860876177292145,
        -0.153253081118677,
        0.17082866677081118,
        -0.20918456314687323,
        -0.12736975660933259,
        0.13628050346954473,
        -0.07499579298526221,
        -0.13325075423359362,
        0.15990562914946185,
        -0.08592331634799838,
        0.22823368670482486,
        -0.05374092434687962,
        -0.14555962125460797,
        0.18729918546864255,
        -0.17706271561044265,
        -0.1810610158430409,
        0.1749502970955214,
        -0.17328198802461425,
        0.08968391038426056
      ],
      [
        -0.20095436487392523,
        0.23321165539262054,
        0.0027008828335148625,
        0.22938101040412495,
        -0.24605050037656215,
        0.09627155014969492,
        -0.05503602108044318,
        0.05866865425584419,
        -0.16583806285776978,
        0.2402586292159176,
        0.18771817012174055,
        0.17977362405941721,
        -0.123607696027224,
        0.16009647353270184,
        -0.1812658575292675,
        0.12244255985878334,
        0.07022377093117357,
        0.11477558985008286,
        0.033833966423623754,
        0.20205229043513365,
        -0.16785793121082768,
        0.1820134730760833,
        0.03388582779230439,
        0.0493391744237739,
        0.1349233642223933,
        0.02297722105907686,
        0.21106404709310073,
        -0.011192618164865773,
        0.13400761917508186,
        0.1436862298876543,
        0.138764895227393,
        0.09724148667956803
      ]
    ],
    "bias": [
      0.0069047009731757324,
      -0.11953013372616593
    ]
  }
}