{
  "fc1": {
    "weight": [
      [
        -0.33890865430187983,
        -0.010710049475478977
      ],
      [
        -0.2540633395684229,
        0.11527571495196051
      ],
      [
        -0.4370796014827783,
        0.48164585250879777
      ],
      [
        -0.4059343073761998,
        -0.4280465065166942
      ],
      [
        -0.35959925269254434,
        0.28337366708814204
      ],
      [
        -0.23383082360356874,
        0.19968124569282317
      ],
      [
        -0.47049770009192204,
        -0.1604673444882454
      ],
      [
        -0.3359352694802885,
        -0.15278575727892998
      ],
      [
        -0.4716315224192679,
        0.37956878013681045
      ],
      [
        -0.2693980775411221,
        0.1999497005218779
      ],
      [
        0.45663778182525255,
        0.04303267274100694
      ],
      [
        0.14853105860353655,
        0.4941751281676536
      ],
      [
        -0.3029549661332449,
        0.13068413637049708
      ],
      [
        -0.22617424493422458,
        0.4254257151523144
      ],
      [
        0.5557454003422083,
        -0.5967733084708293
      ],
      [
        0.4297885908859278,
        0.19988848618942473
      ],
      [
        0.12990355587286553,
        0.3692295119848331
      ],
      [
        0.4956990376547992,
        -0.04442407622691014
      ],
      [
        -0.46716441229125866,
        -0.11511691227436587
      ],
      [
        -0.356402722951069,
        -0.06607155384894188
      ],
      [
        -0.04598240660115809,
        -0.37888699698469286
      ],
      [
        -0.05964384979593841,
        0.5421930791875037
      ],
      [
        0.002933436285470922,
        -0.23818926577728175
      ],
      [
        -0.36028298659013436,
        0.11241724798517294
      ],
      [
        0.2845232482354262,
        0.32198036524206414
      ],
      [
        0.2050047902836955,
        0.226626879978134
      ],
      [
        0.1617655424130303,
        0.28617154601887607
      ],
      [
        -0.1463567061145329,
        -0.524570499553656
      ],
      [
        -0.3775232941714088,
        0.4079373229557432
      ],
      [
        -0.0527737127693504,
        -0.5203929333287387
      ],
      [
        0.12285086191124119,
        0.501275581557606
      ],
      [
        -0.5258233023014254,
        -0.2870333329725272
      ]
    ],
    "bias": [
      -0.5027555247549652,
      0.15555941391909828,
      -0.0009594391927857381,
      -0.2958903500099021,
      -0.73756609668819,
      0.7687916370599476,
      0.9236137282015465,
      0.6425322806744539,
      -0.5000722111978465,
      -0.8566418519482201,
      0.5479344772212236,
      0.3101722175193192,
      0.5675507912644123,
      -0.7637335380506793,
      -0.04823092626664712,
      0.7334665944308036,
      0.8171718763187971,
      -0.21877756102236015,
      0.5285060021276116,
      0.20894944566018037,
      -0.6683878477115759,
      -0.44712442653899953,
      -0.6354841643114335,
      1.166464560061866,
      0.729356473308157,
      0.5345025590016346,
      -0.6560053905066632,
      0.6264376702392809,
      0.4376104976263166,
      0.5079618692456418,
      -0.2695203055736763,
      0.4146615998196769
    ]
  },
  "fc2": {
    "weight": [
      [
        0.1780929079761792,
        0.16909174325887774,
        0.11516566369572664,
        -0.02961279949830062,
        0.08730746409103173,
        -0.018744251044226,
        0.1460345410114511,
        0.06570998615911985,
        -0.08434802795280644,
        -0.12186022517169125,
        0.01530983358189124,
        0.13934308313969185,
        0.18867154149808898,
        -0.09135627689744479,
        0.15986358665130948,
        -0.0750199327328237,
        0.12003829304075092,
        -0.042155931851651327,
        0.03638737614396133,
        0.06781919363191469,
        -0.1779031382220788,
        -0.07683541271483284,
        -0.0689643909743745,
        0.34879901657806966,
        -0.04113280501839666,
        0.06131960844928544,
        -0.03315383052453965,
        0.07151689136791084,
        0.17514717022382523,
        0.059008883302774894,
        -0.009512559359098153,
        0.11131727116204208
      ],
      [
        -0.1169648839474054,
        0.11227490978363137,
        -0.04318099843606167,
        0.020751251192923047,
        -0.19766531877867355,
        -0.10362225311068443,
        -0.08032414471399041,
        -0.17840823872744613,
        0.0700160653566001,
        -0.13591939711312503,
        0.11077845743533193,
        -0.02426777046878435,
        -0.007451017958905784,
        -0.06398827053088593,
        0.02235670783605642,
        0.23889888566061787,
        0.11211211116915083,
        -0.016153302043295566,
        -0.1412136543982841,
        -0.061162418552273806,
        -0.20942945520744632,
        -0.11171920303579035,
        -0.26449271216033365,
        -0.014657971497330582,
        0.06734899626360258,
        0.21724988380096322,
        0.11841304551217206,
        0.11230703972159999,
        -0.0717252115067372,
        -0.007068304961929632,
        -0.13138246499887596,
        0.08312769007622639
      ],
      [
        0.16720424877860504,
        0.17228931995521496,
        -0.1698881704330797,
        0.1323815173878557,
        0.2669883834801249,
        0.10214466099529015,
        -0.030788074379249745,
        0.11315552188555385,
        0.12746930440741788,
        0.45734473564516587,
        -0.0932582506009759,
        -0.17096225488230687,
        -0.028217685196446907,
        0.17564576252452754,
        -0.06499315382516549,
        -0.20541582325576688,
        -0.37155754410467257,
        -0.057379936547469965,
        0.12642535354717074,
        0.03750473433291374,
        0.19439396950081506,
        0.09333341091089149,
        0.31570043115847873,
        -0.22895324709135495,
        -0.22717999293420404,
        -0.21947597518764003,
        -0.01228791018295913,
        -0.07182187198066965,
        0.07428627633651852,
        -0.3425848187348536,
        -0.06786493171273102,
        -0.22299363115541146
      ],
      [
        0.016175973168492248,
        0.08074229915011683,
        -0.1531056358863588,
        -0.10175452462475171,
        0.030075497619764916,
        -0.20248364373004765,
        0.08831389813602829,
        -0.0383675962339873,
        -0.06127685241095784,
        -0.024469513738862903,
        0.09446309238024658,
        -0.04005975458327864,
        -0.2182324383821794,
        0.021371957856378035,
        0.02110863753173881,
        0.03308296657663408,
        0.003324371214359299,
        0.15458964200791955,
        -0.09286580222155585,
        -0.06407474076436069,
        0.04802987832910464,
        -0.0656301691535184,
        0.0512648488956897,
        -0.12930859059213048,
        0.109071774896777,
        -0.056272740505912563,
        0.08977782039277626,
        -0.0310751420340409,
        -0.15608996915751722,
        -0.18525710108154356,
        0.10260262955280722,
        -0.0773772625471877
      ],
      [
        0.2638811678821085,
        -0.13079758322817936,
        -0.08905852432502612,
        -0.07066970178508566,
        0.2486222687742568,
        -0.010171494897182743,
        -0.16492483094876773,
        -0.15376327892018873,
        -0.07823561772728704,
        0.4455619673301873,
        -0.1117190636547492,
        -0.17466283129276935,
        0.07348558977230307,
        0.16266867193386855,
        -0.14971163673293011,
        -0.04896844308182198,
        -0.00694889785621343,
        -0.03360273441247401,
        -0.16590109716984094,
        0.02129590030909848,
        0.18725815590632755,
        0.17655508851427987,
        -0.021950993958842778,
        -0.12393001195917834,
        0.009401561660279587,
        -0.011215300571452218,
        0.33570097769566865,
        -0.16202539487169182,
        0.13454429155774061,
        -0.21083548287571122,
        -0.001235712448958382,
        -0.020800150836501937
      ],
      [
        0.14584863787112426,
        0.02098977094585282,
        0.126507401405186,
        0.19060033902458667,
        -0.02982443511180154,
        0.16288118294299084,
        -0.05586935228167965,
        0.2316605512262417,
        0.08041465668364241,
        0.26083085377189114,
        -0.004903541244995253,
        -0.014174534887034193,
        0.28938818000065536,
        0.02851812892220667,
        -0.008943802076608266,
        0.033311634021204926,
        0.04115767227559481,
        -0.14619728323807696,
        0.01507050543376256,
        -0.05357279123779351,
        -0.06418673543212965,
        -0.08899407959424965,
        -0.14630302978690315,
        0.027754576630567844,
        0.09332157582717523,
        -0.1873349389810547,
        0.19517395569729468,
        -0.08419933028748287,
        0.05151361872370174,
        0.1467055234985195,
        0.055760482961030866,
        -0.02780466881550323
      ],
      [
        -0.13262488677616507,
        -0.020611240955315416,
        0.15840192440656312,
        -0.09772896729489035,
        0.15730936094622322,
        0.06017718455393814,
        -0.045555162447764926,
        0.032565695277120596,
        -0.018959356176483963,
        0.030728093436207554,
        0.1354888278253554,
        0.11224295444324835,
        0.0713913395368702,
        0.08601591845158404,
        0.14151241748861532,
        0.05803860987634829,
        0.04754292383617574,
        0.014484464404969977,
        0.032280318579916784,
        -0.09510057017908777,
        -0.1682697007896344,
        0.1131622466318956,
        -0.02159744718038489,
        0.2660526671566048,
        -0.0773087137798747,
        0.24635757825577206,
        -0.004745412968170542,
        -0.0021325566631021147,
        -0.02819921709957288,
        -0.12358151312194662,
        0.12371741177912238,
        -0.049154399241516114
      ],
      [
        -0.012933665816619007,
        -0.11540960331956136,
        0.09514332690497528,
        0.11469957707866825,
        0.1208126815955881,
        -0.24910825781068252,
        0.06907737116397412,
        0.052604815898422815,
        -0.12602568361151792,
        -0.0043551053386785025,
        -0.03801586202560359,
        -0.14722424269422385,
        -0.1514224071420569,
        0.1296413160664543,
        0.02247666000618959,
        -0.0473997982615873,
        -0.26653218277862323,
        -0.06818493731751728,
        0.09049975190985922,
        0.026661092222280906,
        0.11417222554353965,
        0.0775739814685499,
        0.25373023772722786,
        -0.3517807229753485,
        -0.22503759652893016,
        -0.0682628892929737,
        -0.14354215126414413,
        0.13832565013103176,
        0.09458247416010858,
        0.09127177418786415,
        0.11315225120758048,
        -0.0813906899729664
      ],
      [
        0.15611807164111582,
        -0.0886173391057022,
        -0.03733130103102005,
        0.10688550328509477,
        -0.08107199991054476,
        0.1305640179806062,
        0.011767200837215715,
        -0.032881711188302555,
        0.14711036788559717,
        0.17106745983352206,
        -0.06606355827349678,
        0.05114967799722718,
        0.01289735361686164,
        0.1672592645274401,
        0.11698830135196282,
        0.14911717873210703,
        0.1283447692277043,
        -0.13586242579767904,
        0.09676150246557627,
        -0.06039550392159429,
        0.10398967116303963,
        0.135552871772996,
        -0.111653062521592,
        -0.016538868803701447,
        0.03988474421033348,
        0.0628164773072974,
        -0.04591145327283418,
        -0.08108255365805764,
        0.07978568944013707,
        0.06772476101361574,
        0.18642577138240835,
        0.008610223620646491
      ],
      [
        -0.24338748581332914,
        0.07381096463990858,
        -0.15865902844190374,
        -0.07118787143050048,
        -0.0516806481045691,
        0.009903095125974358,
        0.17229451443798202,
        0.05359271137749017,
        -0.12161372461532577,
        -0.09279852348714851,
        0.05744216896262807,
        -0.13279001206292726,
        -0.19390598394729894,
        0.039234240606677885,
        -0.0985420381842321,
        -0.11300899804380155,
        0.11073238513895585,
        -0.09627629288147468,
        -0.08474986012352453,
        0.10749839089011658,
        -0.04122035482480898,
        -0.021520590953644163,
        0.20978733264349347,
        -0.11627559441567772,
        0.14247529621545307,
        0.10621731007242215,
        0.06382394633311948,
        0.09420636892719426,
        -0.11117953613315769,
        0.15133289578759393,
        -0.15832530092835606,
        -0.04377159213760179
      ],
      [
        -0.12634327067127885,
        0.10565091801075474,
        -0.026037587662087826,
        0.09504728785434043,
        0.06497659493416748,
        0.06497834372542892,
        0.0634201807165705,
        -0.19107954390414678,
        -0.23286397533711503,
        -0.18628862943862942,
        0.12621986036486707,
        0.18867108236299837,
        0.001668201898341137,
        0.09239838140105408,
        -0.08082721206520908,
        0.01362490963119916,
        0.03473456252843757,
        -0.036146312863045066,
        -0.10179900677638036,
        0.06035360276988854,
        -0.059538114542590455,
        -0.02031261227932288,
        0.08114359581639469,
        -0.08364810425835281,
        0.12953230430480364,
        0.19619679792228345,
        -0.030068703458950064,
        -0.19940250457771688,
        0.054148988890885895,
        -0.16094270761202525,
        0.10154941619098563,
        -0.15538044490894648
      ],
      [
        -0.1978007654030872,
        0.02161444967957597,
        -0.06362954280503944,
        -0.1926465624721944,
        0.0320099496518934,
        0.059344889028526505,
        -0.006739790929096317,
        0.06402499287752776,
        -0.1015770988740134,
        0.12901707628837883,
        -0.07890656763779882,
        0.2559240247120251,
        0.11039696320226439,
        -0.1824437860063723,
        0.0007544468771646884,
        -0.04087763860463156,
        0.2674020483105731,
        0.028828803897530637,
        0.07744254797943141,
        0.11594117622325832,
        -0.299595595027979,
        0.10302878607105494,
        -0.22407659286445902,
        0.03974770155171908,
        -0.017076102010018836,
        -0.08456121048969638,
        -0.08119925718169829,
        -0.18350520391946834,
        -0.13929782937074034,
        -0.09831585879371202,
        0.0036530138228913246,
        0.07554512869581564
      ],
      [
        -0.011318664842129412,
        -0.14255339342705653,
        -0.11169777035351561,
        0.14667777042889033,
        -0.18934652699449656,
        0.12715628564142997,
        -0.07488641049823005,
        0.2109500736382439,
        0.10228558607921907,
        -0.018549074280451543,
        -0.10334482271846177,
        -0.07272119767058495,
        0.0985153462303072,
        0.007806606131013029,
        -0.04136238744076569,
        -0.09153650486896678,
        -0.015908828229352294,
        -0.012992123582111376,
        0.03981861488228312,
        0.10596133062085965,
        -0.03874269118486346,
        -0.04559930501023969,
        -0.009320663830536209,
        0.1675125408138161,
        -0.12044237103360311,
        -0.17055040677839342,
        -0.31431049405857614,
        0.1458950812593144,
        0.22486650817756176,
        0.27068461800223287,
        0.012950052694820469,
        -0.014166059973256572
      ],
      [
        0.008632697035792633,
        -0.12498657878660475,
        0.017346085897689382,
        -0.08506426996049356,
        0.008842404547491071,
        0.18328221290700966,
        -0.10105011988740785,
        -0.1781173902183009,
        0.015010683858479056,
        0.05424639712639798,
        -0.05324640994247688,
        -0.013254262155781996,
        -0.03859647781452874,
        0.2078497889457317,
        0.012675716772042482,
        -0.06988215563870606,
        0.17125561874345124,
        0.049249076376480384,
        0.07764155014843872,
        0.11841953846012597,
        0.1043859646574355,
        -0.008850215867671408,
        -0.09322323969133967,
        -0.0004509435229611269,
        0.18936342306617118,
        0.11087242662552284,
        0.04024294481993655,
        -0.0010231057404211025,
        0.22170613226362515,
        0.025183442991818183,
        0.12696201690195155,
        0.1365433045347614
      ],
      [
        -0.2046343027047706,
        -0.07133797228065425,
        0.039414770656413654,
        -0.18168502142705462,
        -0.1404739150643206,
        0.007213025495801088,
        -0.04009805479340891,
        -0.04638665587599854,
        0.06914828887423687,
        -0.20429758693778316,
        -0.0320452264826708,
        0.1783683081790798,
        0.07744624858575991,
        -0.058383936032449804,
        0.05864632119467331,
        0.11650189424982893,
        0.04535585453493353,
        0.15408700599141914,
        -0.15388722998825186,
        -0.17108457092879806,
        -0.13253240652626774,
        -0.1838484808918056,
        -0.07312526706323784,
        0.2048172654774852,
        0.16545741359640903,
        0.2551640768594063,
        -0.14262389531553302,
        0.18394733157909082,
        0.06418050118670487,
        -0.06862540244317486,
        -0.13663301431421168,
        0.04079502410890602
      ],
      [
        0.06009678689805616,
        -0.10998266842858162,
        -0.06967168552521925,
        -0.024963618417443073,
        -0.20650842765485566,
        0.035441274211619946,
        -0.02382527602124341,
        -0.1793768561653062,
        -0.15807482044857027,
        -0.013243772671223487,
        -0.1351673100047951,
        0.045931561444144155,
        -0.22004173859951665,
        -0.05160882026231177,
        0.07509644038609634,
        -0.054787644577577566,
        -0.133328428969706,
        0.018270462604113136,
        0.0008208405124102553,
        -0.07151412962564613,
        0.17779449562663938,
        0.026251738314649293,
        0.10299375107079584,
        0.020059705271648933,
        -0.0924826746770803,
        -0.13773843045967016,
        -0.035770248606039806,
        0.10527133804402083,
        0.10181664315723286,
        0.25469657823585085,
        0.0018674592622891964,
        0.09235683144278736
      ],
      [
        0.09256512914660549,
        -0.0625442260864377,
        -0.18463446574280135,
        -0.04044718041999002,
        -0.13822876323148597,
        0.029486582301960603,
        -0.22301238071788007,
        -0.31177731250459045,
        -0.023442418870345455,
        0.14328273025736496,
        0.019635417981309536,
        0.030536002528677105,
        -0.0925646630264223,
        -0.15557404834127195,
        -0.08251293038748124,
        -0.32673318271634105,
        -0.18959513349589943,
        0.15754784087271295,
        -0.2188494580635033,
        -0.09879659373933115,
        0.26364044636887085,
        0.10702263682709766,
        0.2847349639708324,
        -0.06954211233194132,
        -0.14865442050055805,
        -0.2614205839668107,
        0.151777824915563,
        0.04247196002270548,
        -0.10087855088683319,
        0.1402403470658583,
        -0.13833960919793406,
        -0.05095146536706814
      ],
      [
        0.1786987536089575,
        0.108888121704411,
        -0.14852242081437889,
        0.03298835941079554,
        0.08971978902083422,
        0.12251194259741371,
        -0.0061326897807592855,
        -0.25734465079876945,
        -0.014548348734963478,
        0.3946553566704054,
        -0.13299899603596227,
        -0.027481917083136298,
        -0.021286078541971527,
        0.05509345113089492,
        -0.0023166152407800866,
        0.07855184629835839,
        0.14291505872031326,
        -0.02330533171462056,
        -0.03241759481832732,
        -0.20358230793750914,
        -0.11641591571844552,
        0.014874056735089894,
        -0.051938246074539215,
        0.07960478462226758,
        -0.009232060112510073,
        -0.012160274669345227,
        0.29119684540743007,
        -0.10983758355830676,
        0.1604511017774229,
        0.05110538955360494,
        0.02753610070591963,
        -0.08882282959294363
      ],
      [
        -0.01228242234189543,
        -0.04796496776718249,
        -0.10018811744224343,
        0.05438631554218279,
        -0.06722190582440267,
        0.13340589598601763,
        -0.19648503247794807,
        -0.0007749883299799051,
        -0.18583125187186877,
        -0.26746789957439043,
        0.07564532793707866,
        0.20024129286461645,
        -0.11615134081861911,
        -0.1727933506895409,
        -0.011576043393132028,
        0.07384937011378037,
        -0.01329004165567101,
        0.048373616756198556,
        0.06211593218533693,
        -0.13207439876012692,
        -0.3153126434801777,
        -0.1089775186234495,
        -0.04791472304528428,
        -0.03059834056346033,
        0.2081275204330762,
        0.10862576441255532,
        0.0340987682330474,
        0.14586727031338517,
        0.04848018662313746,
        -0.12273906451441428,
        0.06638044943882378,
        -0.021666954184128572
      ],
      [
        -0.17351868874156356,
        0.09888373335411825,
        0.048773999799190344,
        -0.07722000510175045,
        -0.19988411612578094,
        0.003653536223366089,
        -0.1921311369679183,
        -0.01941817441098491,
        -0.1405103051862299,
        -0.029740626859057574,
        0.0797012713114063,
        0.048939462527766625,
        -0.11474543749468594,
        -0.0411425277807187,
        -0.0564744833343484,
        0.048658511065286375,
        0.043671795263198,
        0.19009048062084677,
        0.1372690975195667,
        -0.07441728658941288,
        -0.0844027396804221,
        -0.08400627353476393,
        -0.13927715046989347,
        -0.20923798207355948,
        -0.09121931334528294,
        -0.07007434431286434,
        0.1692202008779283,
        0.13689774986931924,
        -0.11678697070228305,
        -0.10721479488056172,
        0.0021899520116872534,
        -0.11560134043927163
      ],
      [
        -0.21010350972950162,
        -0.2254114032810128,
        0.0392774461628333,
        0.032866224492500075,
        -0.014276667181966596,
        -0.2771435997920386,
        -0.018618655751455635,
        -0.2509721146845049,
        0.01080832503652951,
        0.008839055036340545,
        -0.0947764973775087,
        -0.006539898918218655,
        -0.2177437918476659,
        0.15117378154700678,
        -0.04985044551754248,
        0.09238441861038259,
        -0.1465009943556038,
        0.0927175812715901,
        -0.21473586729586733,
        -0.06559641136338513,
        0.0596093032768362,
        0.00776837916833668,
        0.14728420050108343,
        -0.0754070715662405,
        -0.11803266215929896,
        0.1502996009226962,
        0.03219961543888367,
        -0.22170832133643562,
        -0.07634435528050443,
        0.11232846009842432,
        0.16919819599334796,
        -0.035505406024801824
      ],
      [
        -0.04109152309132672,
        -0.004725513940722395,
        -0.044559032561966944,
        0.11595004491075935,
        0.05797855642265667,
        0.04144876288356169,
        -0.1405016087476915,
        0.03052212813246462,
        0.14399255932960173,
        0.2039277094187626,
        -0.03135480511996497,
        0.21734855599817093,
        0.02495025414702057,
        0.20123673637001363,
        0.08158852272853576,
        0.10951439997626822,
        0.09574411929998274,
        -0.20049136232584705,
        0.11793842432834453,
        -0.08396812359288851,
        -0.19781053395709466,
        -0.06186650709083982,
        -0.1267076652734068,
        -0.05106608656033725,
        0.11808211018818093,
        -0.08617394536083135,
        0.1754671765797116,
        0.06544732287917855,
        0.17309669159917723,
        0.03825794188734487,
        0.07152184547911336,
        -0.15032126412134875
      ],
      [
        0.2698616634422432,
        -0.11512922168187245,
        0.04764956527200261,
        -0.06641119917832909,
        0.3971590072320583,
        0.09175053015361273,
        -0.25260427408385433,
        -0.38166488795259285,
        0.23741339818846224,
        0.34816097880428326,
        -0.21431318655555437,
        -0.10530349155273161,
        -0.20775022437024998,
        0.3528853339578756,
        0.13795961983075963,
        -0.10723954383845359,
        0.061892691836301535,
        0.16299272842102905,
        -0.20990170058800967,
        -0.03409433980894623,
        -0.03610122857683209,
        -0.013227166743825543,
        0.008365697235582427,
        -0.1603359110190018,
        -0.0536776007152654,
        -0.02217282888031472,
        0.21222250976760923,
        -0.2785715852033892,
        -0.028949756541464547,
        -0.04809358677332525,
        0.12033416236168454,
        -0.17877352013855322
      ],
      [
        0.1774663854949483,
        -0.06886628204648201,
        -0.051556810325551684,
        0.16978983250089183,
        0.11808879079415004,
        0.10954047169944536,
        -0.13772800425045262,
        -0.10855680625573019,
        0.01659408100698232,
        0.2743747179277187,
        -0.23963171411655945,
        0.0773814268679219,
        -0.034589222216520554,
        -0.04976406042382856,
        0.10346747071554045,
        -0.19251313839556067,
        -0.005696251817519994,
        -0.08823127365928235,
        0.1608670173814978,
        -0.11911918563455275,
        0.18777326343982917,
        0.18642151857268763,
        0.11223593184779147,
        0.19758974787005246,
        0.09912038332982175,
        0.025618242962162956,
        0.09805745909113944,
        0.1166409384888171,
        0.16853783603730182,
        0.013442133550523925,
        -0.11319806604444577,
        0.11640111083417957
      ],
      [
        0.06257878238695161,
        0.02011204744176923,
        0.0029241141513615472,
        0.13603082941272826,
        -0.09494435990821583,
        -0.23876830933800128,
        -0.32615910966054507,
        -0.07437387313873199,
        -0.07929074278308951,
        0.09511862386935147,
        -0.1689846271698662,
        -0.20427187681530895,
        -0.2574112876239431,
        -0.10021397665223418,
        -0.14764398600830525,
        -0.3312526242074258,
        -0.2023398729360069,
        0.17237504964224434,
        -0.20083986662607556,
        -0.1023974106403685,
        0.05118574816176433,
        0.04064359282010813,
        0.29428737173243763,
        -0.27931294186965233,
        -0.2420760056652135,
        -0.10077735575155522,
        0.07930927590010955,
        0.04131189013150572,
        -0.11391164886455106,
        0.04782035927215183,
        0.15455688338129153,
        -0.0946631070539421
      ],
      [
        -0.07869449928711558,
        -0.021453095543191757,
        0.14584884246675625,
        -0.163357757743106,
        0.24278843841401287,
        -0.10894172780542614,
        -0.2116475130901368,
        0.013996088385527006,
        -0.13978909443441112,
        0.016324715078818067,
        -0.11601315310134967,
        -0.12887592960862557,
        0.005346970421595812,
        0.1861444960994405,
        0.09823134563251369,
        -0.19850949011539204,
        -0.024866715253970616,
        -0.13655285975697873,
        -0.17030744651230875,
        0.08768884577950545,
        0.006295173761606393,
        0.17966652689177373,
        0.02842425924944993,
        -0.09904685992313252,
        0.0253297836372574,
        -0.08157859006621694,
        0.04937809986220657,
        -0.18901261800970837,
        0.17154560906689595,
        -0.12195098589018942,
        0.1538510330077087,
        -0.16561835870179856
      ],
      [
        0.23408982616284837,
        -0.06172787379350132,
        0.08715288680635305,
        -0.11748077151379517,
        -0.01801769218393414,
        -0.016368970853867047,
        0.044092835708560804,
        0.008992166692125781,
        0.003485188608928143,
        0.04328947125298242,
        0.051794473470127014,
        -0.16328678353111759,
        -0.09087140835295826,
        0.11089071563518298,
        -0.06416166512035573,
        -0.11192625895609984,
        -0.13924476926709256,
        0.11768463040858407,
        -0.13128319152455964,
        0.1769474989497091,
        0.2248761271398558,
        -0.06832580180521006,
        0.02134941519953788,
        -0.03389102382962151,
        -0.12972382696271784,
        -0.21143439058608823,
        0.10839420914201177,
        0.14164416579447836,
        0.07217546370196515,
        0.06312671178124553,
        0.16335124350791136,
        0.11787778656658364
      ],
      [
        0.2809051893858008,
        0.08788077101878422,
        -0.17006188235302538,
        0.1953606918412333,
        0.16859150663928396,
        -0.15536407583110923,
        0.033778102031279685,
        -0.1005779309527008,
        0.019067214449614338,
        0.1378163784508981,
        -0.12083645655548143,
        -0.17038575198804076,
        -0.034954371290256275,
        0.24956023514823095,
        0.020849055909829942,
        -0.038254545164471195,
        -0.10164576403370927,
        -0.11825565759401369,
        0.019627959647470865,
        -0.109333452462296,
        0.20467861451074473,
        0.1655813613769349,
        0.29695292114485594,
        -0.11288971262429341,
        -0.20918376521542714,
        -0.059157341362343414,
        0.10985754781959961,
        0.03558719150916181,
        -0.2449274271568009,
        0.17168505757095523,
        -0.18332927007714245,
        0.034149411179929014
      ],
      [
        0.09343719324756676,
        -0.13045692042721965,
        -0.05932799279299397,
        0.04790038028413447,
        -0.2299728481001582,
        0.07145245322930623,
        0.17216077339826402,
        0.15112067551629674,
        -0.06538734756484606,
        -0.4278951463636475,
        -0.009865397433127632,
        -0.14924444627701702,
        0.16295270753505817,
        -0.13401633108452712,
        0.07585152109679809,
        0.08082132236059426,
        0.10545600337159432,
        -0.09767497917195926,
        -0.056412097146971533,
        0.023142177493767464,
        -0.12389810870444638,
        -0.10329566589758536,
        -0.10607128677187627,
        -0.17879528512175302,
        0.08065740271765713,
        0.15681615676700067,
        -0.16485592661137544,
        0.2081461429471446,
        0.09722622963765674,
        0.2142580223406133,
        -0.025001765138955148,
        0.15757885518537315
      ],
      [
        -0.15547758934250602,
        -0.0894133385493972,
        0.060129186624098815,
        -0.14374951181784618,
        0.11673681637114817,
        0.19740324013903168,
        0.26791872754463364,
        0.45251394928767763,
        0.13641398245250966,
        0.03418875137096851,
        0.16895196263449855,
        -0.02601381809131353,
        0.24061561669902873,
        -0.007885034390085434,
        -0.07001892249976448,
        0.06337666714744922,
        0.4622685953040075,
        -0.19961937282194003,
        0.19260774975258527,
        -0.0073922326050005595,
        -0.31458496176222345,
        -0.11077939001580664,
        -0.33192440465387096,
        0.38003295143947685,
        0.1974887027763212,
        0.33779718707701356,
        -0.288782927600735,
        0.1367215689409958,
        0.1781024080559142,
        0.05117582245324112,
        0.018344039327268354,
        0.24059558890778113
      ],
      [
        -0.0006738930247119226,
        -0.08021217417147343,
        0.14188920880438963,
        -0.1529047224535782,
        0.10303941135301069,
        -0.11728985892685588,
        -0.04123996334793947,
        -0.07556827795662649,
        0.0944157591486446,
        -0.05814817758671396,
        -0.11913201515690308,
        -0.018071792204780446,
        -0.034040150975952574,
        -0.12726870282186073,
        0.1183044115515494,
        0.03665059766459219,
        0.13282249533963633,
        0.04257425225240233,
        -0.09647469159599015,
        -0.04019534072637986,
        -0.18688088895451066,
        0.17766094659541876,
        0.06139848139668087,
        0.03539233048926792,
        -0.026152801841379157,
        0.197284012743604,
        0.03569426357542247,
        -0.10418863962977563,
        0.08739186107389925,
        -0.10628377695255888,
        0.0387035434719079,
        0.11095026958639738
      ],
      [
        -0.16664870437908327,
        0.15669527072067016,
        -0.10257544322971462,
        -0.08394958919191488,
        0.042845228745167024,
        0.1942318797614129,
        0.2755050763103943,
        0.1522622294476568,
        0.10851873032964271,
        -0.1872284401915057,
        0.09408198915183603,
        -0.023512096322716707,
        0.040221709902859545,
        0.0702445644123961,
        -0.17142333738217796,
        0.16138875435042416,
        0.1851224407932346,
        -0.06879629155314033,
        0.16602533686061116,
        0.17106111539175536,
        -0.2822343188557943,
        0.09155204129460968,
        -0.29638291264417316,
        0.18554739238429102,
        0.20557883964801454,
        0.1885885667425584,
        -0.18793515648255885,
        -0.06443128673646745,
        0.14168157242346538,
        0.10786901137278247,
        0.021784731427290736,
        0.1327280727329356
      ]
    ],
    "bias": [
      0.1987580661489226,
      0.22095975755788777,
      -0.08449489984588383,
      -0.02997241454040807,
      -0.06984840786306855,
      -0.053592871324500184,
      0.07853797926886755,
      -0.05907436802504924,
      -0.17493337790402785,
      -0.009676243628046829,
      -0.0567398546532561,
      0.17293708492346008,
      0.19854863463465694,
      -0.12119349579654286,
      0.1378541458276806,
      -0.06928125128574356,
      -0.11396631601309873,
      -0.14628312282882422,
      0.20471465450132,
      -0.1112975949118187,
      -0.18948581016733534,
      0.11453025397732591,
      -0.11842746440332388,
      -0.08735008604262968,
      -0.006747348466758246,
      -0.08367195770625845,
      -0.1109110735005536,
      -0.06862228740207267,
      0.1358721981376931,
      0.020834134304005183,
      -0.1301911791000476,
      0.04738639107232652
    ]
  },
  "fc3": {
    "weight": [
      [
        0.24981663679696336,
        -0.24283754605505836,
        0.14867507994069135,
        0.03798333264360136,
        -0.11813158576384478,
        0.008136788704638924,
        0.06864907156035598,
        -0.12955246762872713,
        0.10421194822863881,
        0.08599146356915255,
        -0.16357709618860417,
        0.03233215648745596,
        0.1346886854917447,
        -0.03480815314674704,
        0.06199053692736862,
        -0.03738776870881876,
        -0.016230087928039497,
        0.04506320244394337,
        -0.1815192066573551,
        -0.13012863783097614,
        -0.11647105727006216,
        0.12342767873603758,
        -0.21049018940855405,
        0.19737598998997197,
        0.024965818947326274,
        0.07750380760454269,
        -0.007772210746925118,
        0.16182003768813463,
        -0.1604325979513771,
        0.14656899150370117,
        -0.11707969686191294,
        0.05841151161018408
      ],
      [
        -0.2416882637500122,
        0.1285214637844016,
        -0.15404137522993672,
        0.24233857137650586,
        0.05751871214544471,
        -0.16944723497506847,
        -0.06424081848233931,
        0.09606505347747551,
        0.06230490793296014,
        -0.02841037911385519,
        0.08944065063988262,
        -0.06220766315610352,
        -0.2217990449671143,
        0.051121539866390724,
        -0.049371200038550674,
        -0.05300296803849146,
        0.1267248352052066,
        0.13644755126945424,
        -0.06331064086371803,
        0.18050278990029578,
        0.21712642231503113,
        0.1914921335667382,
        0.08077053493875058,
        -0.08398022482480726,
        0.2772336408007872,
        -0.11234334677921197,
        -0.17411598164406272,
        -0.09018462498181158,
        -0.21329069334292405,
        -0.23544038576900717,
        -0.09787750004276537,
        -0.29312140347667287
      ],
      [
        0.06569316963385488,
        0.10477230614950578,
        0.029880741639444194,
        -0.238244151416951,
        0.11916571607340819,
        0.22527732548308338,
        -0.03461929873516929,
        0.010183297179880086,
        0.21496922907391428,
        -0.02005362096997921,
        0.1184921819435372,
        0.1403871132292122,
        -0.19972848232733917,
        0.10015430688022998,
        0.15445952138803537,
        -0.08520137097324115,
        -0.12424500579822917,
        0.010458755099747348,
        -0.15691899787371402,
        0.033343298711341625,
        -0.030116905944681912,
        0.23026097255706865,
        0.12286606528740207,
        0.07059245281508668,
        -0.22405577845234254,
        -0.07357672554304627,
        -0.18467252049781213,
        0.07123365651066384,
        -0.21894382070376922,
        0.04012984545617145,
        0.09703530336792986,
        0.01441874189652806
      ],
      [
        -0.09880084227471006,
        0.0005824931438100579,
        -0.19128164725908334,
        0.24119873261745425,
        -0.20594221911972999,
        -0.09462783280945597,
        0.13057700953600676,
        -0.1427508172420745,
        0.026715137177648396,
        0.08001680347281373,
        0.22837419110196128,
        0.13118954736821267,
        -0.07748877765908335,
        -0.15134822193589645,
        0.11076724588202651,
        0.08127262398674076,
        0.1941606991659484,
        0.004454537265398169,
        0.02402032545890117,
        0.18272329539163412,
        -0.06263423285854211,
        -0.12782057520165085,
        -0.061707171196754326,
        -0.2505658493384612,
        -0.08728870095455306,
        -0.008566714619136086,
        0.10472952483058594,
        -0.12956432726448522,
        0.14871524852240917,
        0.07714872446630963,
        -0.04304518348783397,
        -0.00010337500068980143
      ],
      [
        -0.0730386658559796,
        -0.07402892938530839,
        0.06777303900905993,
        -0.08158887171833318,
        0.26700860378912405,
        0.1781317692238364,
        -0.1962442698010237,
        -0.01647820821799413,
        -8.168020361331718e-05,
        -0.2392187144056226,
        0.057184353293771,
        0.061493359401203984,
        -0.09400206205617327,
        0.1101712277628589,
        -0.3614330290563936,
        0.11506055820357051,
        -0.14490261348150338,
        0.30890785026226436,
        -0.09221280367891657,
        -0.22318242582513692,
        -0.17613620956882906,
        0.055164553036032515,
        0.36093333811498424,
        0.28978468954263276,
        -0.00040272974217444213,
        0.18396645940201745,
        0.1351658931967569,
        0.3615690907862775,
        -0.3193819278753487,
        0.05116273761274579,
        -0.16520407632772774,
        -0.02354845273560697
      ],
      [
        -0.12196944517777701,
        -0.07606471721756318,
        0.08014053263795799,
        -0.02332206785293881,
        0.1450079287621292,
        -0.09545995734885497,
        0.04825011245698104,
        0.04582232557117732,
        0.26443975826617483,
        0.1278940229270961,
        0.2131689042652422,
        -0.04879483478506973,
        -0.14157104890754374,
        -0.03852039394173876,
        0.19660249235606767,
        -0.08312918585656806,
        -0.08992817155438859,
        0.1508984436747613,
        0.10652268947479848,
        0.17514441140913747,
        0.04379647127662106,
        -0.027911798223214886,
        0.21695738293631706,
        -0.17081912173598798,
        0.0489013317322978,
        0.0353052694286749,
        0.010746825578111241,
        -0.17846634732180658,
        -0.23379397988382147,
        0.002702955939832403,
        0.10803243727244295,
        -0.0037163576486569125
      ],
      [
        0.1954431482730522,
        0.03274496871905625,
        0.10557130394170951,
        0.03732953664726685,
        -0.09819830691824957,
        0.15949917105423908,
        -0.012071914346721696,
        -0.012674311604702207,
        0.18390728012039778,
        0.0012802040646709826,
        0.18499410646148706,
        0.07708941549151643,
        -0.13620776557470973,
        0.09865672704518773,
        0.14535007509008238,
        0.006680814189074419,
        -0.2382554492348262,
        0.07676748242487692,
        -0.04655343338548308,
        -0.05883444609669114,
        -0.26210341593455644,
        -0.04841774803228132,
        0.07056583389216237,
        -0.1438859005973714,
        -0.034336018466008464,
        0.0533086083351644,
        -0.040353406629877846,
        -0.07476340041416878,
        -0.003989228736098857,
        0.15107849070036017,
        0.08307048671307882,
        0.21828961880281314
      ],
      [
        0.06609645596656707,
        -0.017052357413822987,
        0.09787277077853362,
        -0.11132745528967537,
        -0.08613575908063516,
        -0.03985236232991076,
        0.047951360862285075,
        0.17699862109230288,
        -0.025247909124305346,
        -0.025153776263786648,
        -0.17497400829724855,
        -0.04542832314480085,
        0.16786693939280353,
        -0.09633723649501187,
        0.10263177843394591,
        0.2589507471181979,
        0.22592423192570535,
        -0.22503597300558142,
        -0.004510956402574306,
        0.20450532664275825,
        0.1289680002692693,
        0.018202615586415467,
        0.04073469960500161,
        -0.19073727510885996,
        0.24870747219970055,
        -0.05135949233872005,
        -0.04426277270180948,
        0.1616809186281332,
        -0.036531048013017695,
        -0.13447251319573084,
        0.030534820149598244,
        0.07232602299892936
      ],
      [
        -0.13980726773867092,
        -0.3331260417742505,
        0.04060875032420271,
        -0.39517424268513557,
        0.04849480315947954,
        0.09222921504845683,
        -0.013985033570666942,
        0.1835039025626613,
        -0.04780938660038198,
        0.009871138731775001,
        -0.026760808391045096,
        -0.17839631199847195,
        -0.002640689858255883,
        -0.13302379587037474,
        -0.007431262612369607,
        -0.08795170646335784,
        -0.17953277994270037,
        -0.09750721534068837,
        -0.2581685303381313,
        -0.161619173269361,
        -0.4738976010202918,
        0.12668952429641656,
        0.05472582336098655,
        -0.029973596387725683,
        -0.11370791104295815,
        -0.06328661466096464,
        -0.04263666354967194,
        -0.013418215166644525,
        -0.03265170302632025,
        -0.04703133594297346,
        0.07987027113615001,
        0.1476827283969913
      ],
      [
        -0.2512906225529455,
        -0.09754640725759073,
        -0.14310061304947205,
        0.14452624414589785,
        -0.09994607152359972,
        0.1283763255604745,
        0.025071763341684997,
        0.06489027884085548,
        0.04955253135930288,
        0.1755205442552625,
        0.1287866710255041,
        0.09160888137891932,
        -0.07857444419074536,
        -0.1134202218887834,
        0.11022205854059401,
        0.13288333735570484,
        -0.0023997671497082177,
        0.19439806574397944,
        0.1988986321663865,
        0.11187315503877562,
        0.23293090721091797,
        0.028656183669721506,
        0.14014363992975248,
        -0.2274279673881104,
        0.21722309441116072,
        0.05175544577523769,
        0.06585146194178292,
        0.0371116546505379,
        -0.08080515619993933,
        0.03156019567788597,
        0.2150108036781098,
        -0.2085257574199683
      ],
      [
        -0.1338595376636961,
        0.1317191231931511,
        0.003165773976814311,
        -0.03478208679782756,
        -0.011641053439056647,
        -0.2293311037224094,
        -0.10452747462332877,
        0.09075957029661776,
        0.08126651066627551,
        0.16084831465766622,
        0.006682434688747431,
        0.07605454254769375,
        -0.1205618920782395,
        -0.005438624014748014,
        0.21799169424897688,
        0.12623501052411795,
        0.0756082155969206,
        -0.0376151570312263,
        0.07244137160424183,
        0.15000172941450057,
        0.20294449198943726,
        -0.15569197551244424,
        0.03847230420934538,
        -0.25320672384742327,
        0.014112848504790445,
        -0.017403508793511015,
        -0.1320908880701274,
        -0.11473478236183113,
        -0.10569107745878846,
        -0.0032430101565585944,
        0.09724513790026643,
        -0.05295300764124847
      ],
      [
        0.09161448674313885,
        0.33388477589556614,
        -0.13947299381750392,
        0.16622853031045845,
        -0.16635029013970065,
        -0.14302604923687945,
        -0.08323307455418527,
        -0.05449939576301226,
        -0.20305837081310393,
        0.08001317807991953,
        0.04305660929377683,
        0.06139798271122212,
        0.12705373581471224,
        -0.01572878926274572,
        0.2547193795725112,
        0.1018628385435509,
        -0.24408957785980634,
        -0.018967165791912613,
        0.30931415165259113,
        0.0775991191989191,
        0.21289381881550304,
        0.09070282248274503,
        0.11495085271074931,
        -0.24986809351605477,
        -0.12859332150436104,
        0.1021701134661496,
        -0.2905519798872695,
        -0.23622030483070655,
        0.040392489648383885,
        0.1447879751084942,
        0.038751402947418384,
        0.1959594120327503
      ],
      [
        0.03256608464017573,
        -0.1820408418054218,
        0.008704325913465571,
        -0.12090555087050633,
        0.05259001155856764,
        -0.11909734267734254,
        -0.13058683426160392,
        0.033529062528681805,
        0.13207428570792135,
        0.10770507116319428,
        -0.19187815206850425,
        -0.2526303016182401,
        0.18282030838417482,
        -0.11044603812074644,
        -0.19462109164650399,
        0.013304888589299667,
        0.17555736248114026,
        -0.07892512901961288,
        -0.011809676682515886,
        -0.21330714591808594,
        0.10522064507611359,
        0.0731130720860955,
        0.06089905527639035,
        0.12565894814148923,
        -0.05120612218228728,
        -0.18578692601832678,
        0.06322585176364752,
        0.13606165840850779,
        -0.0352018157777127,
        -0.011939793438437976,
        -0.06597114368028223,
        -0.059500847358038116
      ],
      [
        -0.012459706536533846,
        0.2528594599440657,
        -0.010090318397740676,
        0.11192836743511099,
        0.08175071114364256,
        0.028608499811551176,
        -0.0006437773895265771,
        -0.0805046808529205,
        0.009964956715853878,
        -0.09883983056546279,
        0.05826379101535781,
        -0.06288399324595466,
        -0.2559883211289998,
        0.03531205000238396,
        0.10128295346584051,
        0.01319687676896875,
        0.06623935428850708,
        0.06165644115538824,
        0.05532300118311832,
        0.06886651455698352,
        0.03666052700334352,
        0.08436739320357652,
        0.2445329262812879,
        -0.06562660658373987,
        0.016079336307728207,
        0.18669234532187087,
        -0.024506715727646695,
        -0.0547814552459696,
        -0.30460809365254793,
        -0.26044495762198344,
        0.08579547995790204,
        -0.2576343146461795
      ],
      [
        -0.07425223133807936,
        -0.09792578414616623,
        -0.020369440824914622,
        -0.08446957231884619,
        0.10318997732758013,
        0.28111223759060594,
        0.17762905688418515,
        -0.05396842200358511,
        -0.1275321074939293,
        0.05714869704268199,
        0.184450290201918,
        0.21939440746448285,
        0.1598917559859556,
        0.17016732491653302,
        -0.09558902857058758,
        -0.16821101505873645,
        -0.201505622516171,
        -0.006763775703864878,
        -0.03732801586323429,
        -0.13669778813084582,
        -0.04663883176813246,
        0.0710467690345217,
        -0.1511730375633065,
        0.10051325931090792,
        0.10570424797698189,
        0.15621276344761378,
        -0.04377765166411218,
        -0.07324943115388029,
        -0.11501091508328062,
        0.12915542255304727,
        -0.1512550146520079,
        0.2360468769765284
      ],
      [
        -0.04514106948055933,
        -0.05072887413384922,
        -0.15822408440010108,
        -0.016922866163006364,
        -0.207570292438242,
        -0.2162966262009824,
        -0.1640739572210037,
        0.02715970373720492,
        -0.10424775513711428,
        0.10091067165344886,
        -0.10814752700230136,
        -0.1070891804175897,
        -0.06840416679573215,
        -0.05443561040569489,
        -0.009210245300439263,
        -0.12223148487077454,
        0.0820685284951084,
        -0.24503813946254166,
        0.2304044650777805,
        0.18036481557817985,
        0.17281605174141573,
        0.09171142752382441,
        -0.227060700487149,
        -0.037458076517792815,
        0.08533388964847063,
        0.10252574808725476,
        -0.15480205897430913,
        -0.052776262951277325,
        0.16810845212893344,
        0.04259506132345188,
        -0.14797682282851538,
        0.11769386469000673
      ],
      [
        0.1872975265472428,
        0.3501394333060423,
        -0.14000530477179104,
        -0.13133531722230377,
        0.08536703256295769,
        0.13627664561112568,
        0.21827405105610953,
        -0.19776776463810689,
        0.1506190650452335,
        -0.011509882948772815,
        -0.033546095473459416,
        0.31205975279063264,
        0.04252319781297207,
        0.09662992943912319,
        -0.014296246356677875,
        0.10243032610194142,
        -0.15431874602665024,
        0.07377481672395637,
        0.09852355833703388,
        -0.10253161847865536,
        -0.0965558800938572,
        0.08891387546786783,
        0.06405083295671073,
        -0.10398565226613185,
        0.02768804333653226,
        0.004138210893039956,
        -0.2862377891441006,
        -0.14501198285119601,
        -0.08847320679320816,
        0.23208477583542414,
        0.1986259830130041,
        0.15420701953703023
      ],
      [
        0.13280814534405846,
        0.3188587262506734,
        -0.015367861436419366,
        0.21454178706458385,
        0.11985277426646279,
        -0.004568719120774424,
        0.22436935250333678,
        -0.10837165385118304,
        -0.15045783892041023,
        -0.11128201198273646,
        0.17613338325696523,
        0.016852757143623897,
        -0.015562045649154439,
        0.03009700681290626,
        -0.08238240017090287,
        -0.08356614533962817,
        0.11633870931824927,
        0.08436199563340734,
        0.15980319036512575,
        0.006598013531946847,
        0.03288040778786513,
        0.04060903369576084,
        -0.04058023709517183,
        -0.1228434271696113,
        -0.018001497013517526,
        0.16086281740204797,
        -0.25462921222956875,
        0.04991424731366803,
        -0.09514597187058715,
        -0.14983311528448184,
        0.04236268466434625,
        0.0890533161384745
      ],
      [
        -0.05084396459520595,
        -0.05724834888176345,
        -0.15927145354315855,
        0.06290256487789457,
        -0.0343125991738226,
        -0.28479461464432476,
        -0.25585152577012177,
        0.1745761048399168,
        -0.027274402124290813,
        -0.019204783073911925,
        -0.15608258170028091,
        0.055001537188957866,
        -0.057216910430600246,
        0.01430969728686321,
        -0.12035727441459551,
        0.17552192924720583,
        0.06236734607010524,
        -0.0580768922610892,
        0.14402222650480637,
        -0.08120756402322976,
        -0.06614955722471097,
        -0.14544344497545944,
        -0.0797064066435087,
        -0.03173696831245342,
        0.13546279617510382,
        0.103070457067032,
        -0.02578252217641666,
        0.11864104661486433,
        0.147167779473963,
        0.027474091974885498,
        -0.16112830341074633,
        -0.23632050309646221
      ],
      [
        -0.19816999773505098,
        0.0615357994114875,
        -0.20176391303802893,
        0.21404735844099107,
        0.2110722220283629,
        0.07911810029860693,
        -0.09443397837294218,
        -0.2024472865624428,
        0.0809507456358694,
        -0.09163266877795763,
        0.09993493198414956,
        0.09599559950091882,
        -0.18665528538833193,
        0.07819952779825441,
        0.022849942645567684,
        0.049032931895671254,
        0.1612851201815348,
        0.08453193328578994,
        0.059826397549244376,
        0.017864429741917112,
        0.17892521980316378,
        0.07855373285154464,
        0.34871216015626444,
        0.12297388731378142,
        0.18722290725861687,
        0.324118497670403,
        -0.15753040892432382,
        -0.10381473854046469,
        -0.3096656767332774,
        -0.17355533467409423,
        0.20862625954520903,
        -0.26852357548019506
      ],
      [
        0.16102957884818928,
        -0.12186949566843953,
        0.07032879931232462,
        -0.17648168936555342,
        -0.03364141893828688,
        0.1927986766240835,
        0.019337793487952382,
        -0.13169621224066538,
        0.04378834544155093,
        -0.12909968406417927,
        -0.09638636765284729,
        -0.0962617175681858,
        0.1311366719051452,
        0.08239774721582031,
        -0.04187338518534651,
        0.09581614990090877,
        0.00821542244315266,
        0.04332833183539904,
        0.029423251424431716,
        -0.030847177634553417,
        0.04586490303798799,
        0.11169994223418118,
        0.08853297780339861,
        0.19257973710956833,
        -0.23521394246493424,
        0.13879607327946497,
        0.09751025139209644,
        -0.03425389491544376,
        -0.22001185588142155,
        0.17827566502834677,
        -0.04779161559992757,
        0.006776563101271249
      ],
      [
        -0.07483093814605637,
        0.1759202490421739,
        -0.10496781200878458,
        0.21740500507410193,
        0.0633669702160782,
        -0.046032954032593526,
        0.02610808892977492,
        -0.08564391802197518,
        -0.19559091870148182,
        0.18481490359430475,
        0.06421263642833473,
        -0.19020832461558854,
        -0.029637530880006008,
        0.0025539174103522922,
        0.011807791195492065,
        0.17120070691964817,
        -0.07345501979524843,
        -0.019057003211082165,
        0.06737009356323664,
        -0.11895969826808406,
        0.23659345925650205,
        -0.09595257019694568,
        -0.19726827785874101,
        -0.14705384596931934,
        -0.007058051242623973,
        -0.1399650645182163,
        0.030293262659988936,
        -0.08046321280887003,
        -0.08645691986998277,
        -0.2199685573091049,
        -0.1404315559840113,
        -0.11129716685470585
      ],
      [
        0.08666176869842944,
        0.11760111496867102,
        0.0640113932884652,
        -0.07623679256071547,
        0.14543963671017138,
        0.1238900144718529,
        -0.09916521602369016,
        -0.16538280495742777,
        -0.10999796032729287,
        0.019839702805056977,
        -0.12330519353241792,
        0.11830786590555557,
        0.02103568222667313,
        0.13470125172704805,
        0.15370873979467067,
        -0.11812389247540526,
        -0.11501831904410598,
        0.17174567026922585,
        0.04240013888745347,
        -0.056891436715240565,
        0.14633794614299644,
        0.1299220311348973,
        0.16956972220955122,
        -0.11983779059618632,
        -0.10435903089550909,
        0.14682425957194156,
        -0.27060839628375843,
        -0.21568271428103866,
        -0.15669422528065724,
        0.1471006625434193,
        -0.11217864978633675,
        0.14134761003387494
      ],
      [
        -0.15649501017015693,
        -0.045594748574992135,
        -0.04094405140420328,
        0.14947684126291813,
        0.10506535375460227,
        0.07031995780630652,
        -0.18084640577282604,
        0.06413735447728393,
        0.02254260565417193,
        0.1452789833879162,
        -0.12244406623135479,
        0.013735962692441255,
        0.036164527696031436,
        -0.20213620672976618,
        0.036560426500725864,
        0.06421020567237037,
        0.13511661903077232,
        0.05029313183326087,
        0.1041878685873,
        0.0005942826511216579,
        0.062634789492176,
        -0.11165965283977662,
        -0.18971286157128517,
        -0.09624947693857853,
        0.22725024408661995,
        -0.07313194241923453,
        0.1379233274722446,
        0.01359900377470886,
        0.1754100607392586,
        -0.10151956115738023,
        -0.17784320800180636,
        0.08181856719156023
      ],
      [
        -0.09245625992914658,
        0.15855559796639404,
        -0.08463615678016082,
        0.23153824877357448,
        0.07053884607118252,
        -0.04454351382656991,
        0.11225220624900305,
        0.07862802592288902,
        -0.13370696181708364,
        0.14679609959700324,
        0.23232652467230844,
        0.07936480841885392,
        -0.12653720506428584,
        -0.0027513511161167932,
        0.09593845741902327,
        -0.11594789104564586,
        -0.12252722324415671,
        0.1358252191747947,
        0.10559789547428343,
        -0.02787468513290133,
        0.1467792428046356,
        0.1620539761749653,
        0.12980143871234517,
        -0.07042013017876482,
        0.07158056936795885,
        -0.08574889218526749,
        -0.3493243705218654,
        -0.011669770489487748,
        -0.17528412804430993,
        0.1278013590208953,
        0.027305694172384064,
        -0.1658028119337583
      ],
      [
        -0.03826411258021541,
        -0.04130656386801313,
        -0.006946769948674374,
        0.03414234163403306,
        0.09375980137670097,
        -0.07323030312167418,
        0.11585786953740089,
        0.007207859306349947,
        0.11021418932909574,
        -0.2578322845585098,
        0.13339893430854072,
        -0.09005739885171926,
        -0.15070556108095814,
        0.17925161961878144,
        -0.12252232356059617,
        -0.022004002406890842,
        0.031619662194406574,
        0.2750423087543032,
        0.0075018083701264785,
        0.03497242605422303,
        0.012994425397275933,
        0.0016467322370992494,
        0.10530820684938848,
        -0.13314655515309978,
        -0.12650463468374118,
        -0.07486165917379209,
        -0.15183120017206023,
        -0.07351596189644143,
        -0.06595482775877062,
        -0.038810905012236066,
        0.27211879613085876,
        0.17103371774498555
      ],
      [
        0.08566191436450736,
        0.02746101144761617,
        -0.08966425755733957,
        -0.06501704862118589,
        -0.12207113895275798,
        -0.18933788258340184,
        0.01074754791320584,
        -0.04094747275314608,
        0.08193577827405675,
        0.16371645996975748,
        0.08511528665640127,
        0.008839789796846697,
        -0.13356335874576603,
        0.08990613100920701,
        0.0010037053565357266,
        0.22413186528013102,
        0.21991310097114458,
        -0.0710729228625408,
        0.137870452387187,
        -0.05123577827544024,
        0.2397627627922424,
        -0.2030237616765573,
        0.047596990385847686,
        -0.09446777372010023,
        0.23205770850966972,
        -0.04752172185559288,
        -0.059098074530980114,
        0.12496216851361612,
        0.0875009637637198,
        0.033459930042676216,
        -0.12351901649406964,
        -0.13336567963521445
      ],
      [
        0.03445126508408124,
        -0.07881400038280893,
        0.14104084740525702,
        0.03818197413128323,
        0.016859226881623796,
        0.1490817755199114,
        0.22814658329756185,
        -0.15081473815445984,
        0.2158118754850851,
        -0.17084706482622183,
        -0.07539579848378988,
        -0.10982114667619705,
        -0.04080654571938763,
        0.21678176263162555,
        -0.1416711238289793,
        -0.18731484440848636,
        0.06286782014369495,
        0.0009051645564279293,
        0.02577745449539908,
        0.011663975067507708,
        0.10542164063046462,
        0.09396885012344153,
        0.2561576935219583,
        -0.09091722958595669,
        -0.10829719878603372,
        -0.006923097082590478,
        0.09853358635184228,
        -0.02102185198025237,
        -0.22094357029794984,
        0.140904026875415,
        0.18799964169773856,
        -0.07033679606891294
      ],
      [
        0.05049794191408498,
        -0.017402131044713918,
        -0.028399240054800223,
        0.13738987172598835,
        0.21018214564993173,
        -0.031267382909826585,
        0.1302660244994028,
        -0.13084855896513198,
        -0.017792158739381267,
        -0.14291364331135814,
        0.09854407565742611,
        0.2696461705447642,
        -0.17669587951237223,
        0.15536399266548934,
        0.04005936701624176,
        -0.17798785791422872,
        -0.05045933293978685,
        -0.07967279344257074,
        0.17857682300488878,
        0.02249636989249164,
        0.25271209422009716,
        0.07205645721762567,
        -0.059134789598551334,
        0.0784256182417015,
        -0.09931926040010886,
        -0.045307652805848364,
        0.053323708386675515,
        -0.0458076757306996,
        -0.039288739471735175,
        -0.09222294727044328,
        0.026110468930947508,
        0.19449298316941224
      ],
      [
        -0.17958357776016473,
        -0.07353264939334803,
        0.07040804670647492,
        0.02936876912069163,
        -0.12017802178357408,
        -0.08740862813112196,
        0.05662065173468833,
        -0.11289672586391497,
        -0.09665986819726465,
        0.18094398075428336,
        -0.08998744254841613,
        0.09841686650788345,
        0.10828852312456166,
        0.03578530831463359,
        0.17151834299181684,
        -0.032276526395819904,
        -0.038797565530548965,
        -0.2882908072596339,
        0.0920712553757502,
        0.2106662945635834,
        0.15395641018667344,
        -0.01064620447306776,
        -0.3364709911268776,
        -0.05987695374435914,
        0.019923408283425387,
        -0.040873378869071025,
        -0.0976057317368705,
        0.020141604207311675,
        0.13815089584795698,
        -0.10752359425407594,
        -0.04480798100996085,
        -0.003449188612261675
      ],
      [
        0.0973623953216713,
        0.2526980646050144,
        -0.2153940544574213,
        0.0035978260046336716,
        -0.13679878851554161,
        -0.08177570742706163,
        0.021471084677857362,
        -0.23135969036906237,
        0.18462713025783023,
        -0.01705400421007489,
        0.04661266348451354,
        0.2215541945514566,
        -0.008138133584248027,
        0.21430865077554667,
        0.20560322263805123,
        -0.004640912415207597,
        -0.30439823976549724,
        0.12364027593930291,
        0.11952337352115766,
        0.05755159618799511,
        -0.010869318272483663,
        -0.027854724339187172,
        0.022926642007578754,
        -0.18514208050686734,
        -0.026820411960589288,
        -0.021682267157077172,
        -0.18074052303118926,
        -0.06250246001533032,
        -0.01983613436385525,
        0.13887327354769782,
        0.21335747637206792,
        0.22362146576622968
      ],
      [
        0.11255925158591372,
        -0.14994429714029403,
        -0.06037110282322332,
        0.10246048884837118,
        0.09918094534398693,
        0.1300201971160355,
        -0.22929635283880143,
        0.061930231954942926,
        0.06444435142619526,
        -0.05057855335553388,
        -0.1944034711429575,
        -0.07400686984715389,
        0.25699520340402815,
        -0.20281236438738967,
        -0.1573530827749235,
        -0.014237555009747278,
        -0.05246571887734218,
        -0.09984753592785892,
        -0.17638565761905498,
        -0.006448495809546158,
        -0.2416065424591151,
        -0.1542058829498402,
        -0.31896964738341005,
        -0.09993463284346112,
        0.09572677225608782,
        -0.08992631063729518,
        -0.06847074173032994,
        0.0639065049825624,
        0.15917260465983565,
        0.09289758082306293,
        -0.03305050279718919,
        -0.2004453522355376
      ]
    ],
    "bias": [
      0.005265307381738352,
      -0.12030314584125745,
      0.051027569396791164,
      0.14609797721275652,
      -0.1462708962240108,
      -0.04554567388402282,
      0.09259377380270262,
      0.04107683838511279,
      -0.15485987889562033,
      0.15725575137908157,
      -0.04299857047184018,
      0.0890303754523843,
      0.10124852753050695,
      -0.1568225350667297,
      -0.03872071705795933,
      0.012767780478525103,
      0.18409117728198074,
      -0.0950458896909623,
      -0.036532312389353165,
      -0.17324736768576107,
      -0.0026133649396250865,
      0.14749837947723554,
      -0.10860933310685394,
      -0.13568491271185082,
      -0.13051952396008162,
      0.01663056515642204,
      0.08014638700938882,
      0.01571328477815563,
      0.06592859519314599,
      0.0949457733893379,
      0.14509326454689647,
      0.043208552105036976
    ]
  },
  "fc4": {
    "weight": [
      [
        0.02997062242200469,
        -0.031912933382662295,
        -0.2593383657871155,
        0.028047686417954344,
        -0.20363896474291582,
        -0.22997793490551308,
        -0.1794668476492092,
        0.27889936271598575,
        0.035588495701820794,
        -0.03990051253340085,
        0.01795790253852495,
        -0.13864926759563997,
        0.20873161992647943,
        -0.2663535413341545,
        -0.1954231729514439,
        0.21908559540270559,
        -0.26360823228275426,
        -0.18654358236457882,
        0.21001268592850944,
        -0.26494819041776774,
        -0.1794643292037274,
        0.24785955789501687,
        -0.12587162456652864,
        0.2719928713330937,
        -0.16784179533798257,
        -0.22789477330378158,
        0.2607000348534612,
        -0.2594842636137914,
        -0.27247096030894846,
        0.24040976796719885,
        -0.23422713611924725,
        0.1998795037761877
      ],
      [
        -0.29850392603848336,
        0.2926692117267256,
        -0.10704324894089212,
        0.3237064620689413,
        -0.3556348001657355,
        0.14867286696844143,
        -0.09272647327180047,
        0.10510130272432655,
        -0.31884522243439817,
        0.278965975386638,
        0.2663257402576506,
        0.24406841240342683,
        -0.20254798896699297,
        0.2914754194992752,
        -0.25959582484373966,
        0.25198132857557887,
        0.02370971895605877,
        0.22275459369804407,
        0.05813535539703438,
        0.23114359420224978,
        -0.2764071796478,
        0.21365156567443178,
        0.013681582570505325,
        0.08744399813588351,
        0.18174704170072623,
        0.028834793954727888,
        0.2703173822886189,
        -0.07544001442597985,
        0.16976261335330226,
        0.2501379783956012,
        0.17283104672198427,
        -0.1561818518748801
      ]
    ],
    "bias": [
      0.06343491721976866,
      -0.09621769580249476
    ]
  }
}