{
  "fc1": {
    "weight": [
      [
        -0.3319806973681035,
        0.007509142697971959
      ],
      [
        -0.3036187388940898,
        0.20884054463737264
      ],
      [
        -0.4324417085216183,
        0.512139117444366
      ],
      [
        -0.4673852943681439,
        -0.5028891683014096
      ],
      [
        -0.4636904917374802,
        0.3324443272264302
      ],
      [
        -0.3323380873165806,
        0.24447459430698598
      ],
      [
        -0.5911876032050102,
        -0.32130719628135407
      ],
      [
        -0.3549444843994577,
        -0.12975276519705242
      ],
      [
        -0.5423882497870286,
        0.46026970213013085
      ],
      [
        -0.2683034027144198,
        0.2086789758230797
      ],
      [
        0.4828843071070192,
        0.11846755418846797
      ],
      [
        0.1889931539345548,
        0.6586950273097435
      ],
      [
        -0.37055521527863855,
        0.22360850953820485
      ],
      [
        -0.3323616135404273,
        0.5040621769816561
      ],
      [
        0.5294994841669144,
        -0.5856902747940917
      ],
      [
        0.5971008345870066,
        0.3296252819101242
      ],
      [
        0.21575558224652203,
        0.38603851599478256
      ],
      [
        0.5721075545158193,
        -0.057468395016184726
      ],
      [
        -0.5931949882548269,
        -0.12069352271465056
      ],
      [
        -0.4778354485777951,
        0.015871274732731363
      ],
      [
        -0.07609366202386332,
        -0.48977253256348147
      ],
      [
        -0.07850013187586137,
        0.6221952948833589
      ],
      [
        0.012401737648817598,
        -0.07376785820017448
      ],
      [
        -0.07915611541617264,
        0.1779197707859173
      ],
      [
        0.4562111127883507,
        0.43572035545010734
      ],
      [
        0.23600915546529697,
        0.22551917111600436
      ],
      [
        0.1443708416003982,
        0.2875423581954695
      ],
      [
        -0.14497775287506967,
        -0.656295181502852
      ],
      [
        -0.4166891503450979,
        0.5112743267369769
      ],
      [
        -0.035201602847436717,
        -0.5850734473424891
      ],
      [
        0.12669184624607974,
        0.5861964879738609
      ],
      [
        -0.6712661756663033,
        -0.29338319114065076
      ]
    ],
    "bias": [
      -0.32855313292554755,
      0.0572702527540007,
      -0.020288487827739444,
      -0.1407737539592894,
      -0.6643443092630217,
      0.475678232196997,
      0.6832130341641708,
      0.45978153735433347,
      -0.4677431579547743,
      -0.6821284580616361,
      0.36782764000868867,
      0.14502218902860312,
      0.4620127554509628,
      -0.675864860118677,
      -0.09433166347550133,
      0.5762676944746918,
      0.5359327505086746,
      -0.06844714492625571,
      0.30805894898873093,
      0.19459509166428324,
      -0.46568290829526493,
      -0.31248160728784724,
      -0.5408663174524605,
      0.8146015670318708,
      0.5462705220335476,
      0.365665664109753,
      -0.5710316003027012,
      0.5284655088888606,
      0.4526129464371302,
      0.4636643392437774,
      -0.21351186979605483,
      0.4895662241037457
    ]
  },
  "fc2": {
    "weight": [
      [
        0.17236047779012836,
        0.17105209792861167,
        0.15217579029014974,
        -0.03920298484143729,
        0.09521528841013678,
        -0.06397583904730049,
        0.10640374764883605,
        -0.009330949485041717,
        -0.06425286005087621,
        -0.11210077910861153,
        0.015677780865749696,
        0.18803625832162424,
        0.16118101446488567,
        -0.055621429603953616,
        0.124262008157365,
        -0.06517074318653007,
        0.1209057536265559,
        -0.04627562844780223,
        0.023175229706729018,
        0.06384482769386625,
        -0.19256103008296663,
        -0.014831003945459975,
        -0.006382357540084489,
        0.2252909743559032,
        -0.03663984272315833,
        0.08014682156002842,
        0.0749821388383101,
        0.019466707659117042,
        0.20970342726895383,
        -0.005682327590862554,
        0.05593053644753146,
        0.11868884048978601
      ],
      [
        -0.04589407002199795,
        0.1323362322674055,
        -0.0632875078723289,
        0.00848652439547277,
        -0.14002987929453092,
        -0.1125151272867548,
        -0.0855878557808377,
        -0.17196887089091417,
        0.03420620066670357,
        -0.05106563349096036,
        0.0868060282163242,
        -0.016326376065488812,
        0.005767811443976319,
        -0.04962111209140481,
        0.03446331374981489,
        0.2329695216081359,
        0.0847282222563905,
        -0.0007942835946268408,
        -0.15282055822037907,
        -0.05947613042953032,
        -0.1834170430989854,
        -0.09842747029433134,
        -0.165857491642818,
        -0.0201366159702569,
        0.06492939174700264,
        0.18575690151290739,
        0.111462828464109,
        0.09744544943938144,
        -0.0812067220176311,
        -0.02233301989927944,
        -0.11868870746776146,
        0.06849972062110535
      ],
      [
        0.13768951576845762,
        0.19686891154741706,
        -0.10927975638937416,
        0.157904832777027,
        0.2883327752211413,
        0.14280456349882428,
        0.010017061326165621,
        0.15135772206663053,
        0.179097634708293,
        0.27238628229229306,
        -0.08311403962024212,
        -0.15008672662161354,
        0.0005741728621421339,
        0.16361495977978818,
        -0.13356004997344423,
        -0.20499048418169943,
        -0.30525493100045775,
        -0.08371231781080768,
        0.15770907909965146,
        0.04968833475912035,
        0.07289263993648976,
        0.07310888458241467,
        0.19115143153594638,
        -0.19770782555206498,
        -0.21335977969654984,
        -0.17923875678075568,
        -0.07166799856181533,
        0.03040049586833132,
        0.12694480039861408,
        -0.25669156265513277,
        -0.114213051008588,
        -0.18557206811131796
      ],
      [
        0.034909977479674205,
        0.09491970597766192,
        -0.159404889394294,
        -0.10487577623449189,
        0.04180590228291802,
        -0.1620784107824142,
        0.09303560511799237,
        -0.019050942963709856,
        -0.06374307342745013,
        0.008075435651159679,
        0.08426885186604138,
        -0.04134059740436336,
        -0.19088812562667373,
        0.008117662492325031,
        0.021903783893498903,
        0.026100468182022805,
        -0.0005149960392667461,
        0.14922321504101838,
        -0.08995353652449008,
        -0.05828677051454797,
        0.05483953499224204,
        -0.061692068777475996,
        0.0479844520989538,
        -0.059214893652946195,
        0.10755952909599467,
        -0.06638882453669959,
        0.05978940938887659,
        -0.040720449465060336,
        -0.16229612135402416,
        -0.19338381496325716,
        0.10665147097765865,
        -0.0864108653540921
      ],
      [
        0.17057901239704523,
        -0.1286005077285061,
        -0.06081406630525862,
        -0.12478460060743769,
        0.18759779175768299,
        -0.018234179266746194,
        -0.13395254288269753,
        -0.11734641132986065,
        -0.05708442890375688,
        0.19424609954816408,
        -0.0434743882989199,
        -0.12611475640803554,
        0.05642284859978714,
        0.15379779692406176,
        -0.16885921655048866,
        0.03972063329520584,
        0.060779932682231856,
        -0.05657473600878879,
        -0.12862335997614027,
        0.022832643306884823,
        0.1526163386900811,
        0.2024407695660359,
        -0.06649589473730119,
        -0.13369840418371856,
        0.09134490959612954,
        0.054375297501888444,
        0.2797172891492794,
        -0.1908782489687906,
        0.14099829289586313,
        -0.24805657103611306,
        0.031115634904562605,
        -0.005244420161745797
      ],
      [
        0.11579644358322734,
        -0.082054523813733,
        0.18746385011207206,
        0.2024226468478978,
        -0.04410268248480289,
        0.04133810155022448,
        -0.07572608810442744,
        0.21410184545451533,
        0.15223996026225012,
        0.2126779521364963,
        -0.010712834982271583,
        -0.014064366507420843,
        0.1416675878437506,
        0.06865657183550723,
        -0.08458139840476683,
        0.03312072633720487,
        0.02714531259630673,
        -0.1075863119004644,
        0.006686704384374931,
        -0.08802421597765843,
        -0.05033176236159877,
        -0.06250248597773557,
        -0.050548885278158935,
        -0.1755642031220996,
        0.0927388408038424,
        -0.20049713677235473,
        0.24379614244414446,
        -0.09924067767797003,
        0.007956058450011665,
        0.1282402361465942,
        0.06438159130604472,
        -0.011094808347732167
      ],
      [
        -0.10337900011880398,
        -0.0185791039178403,
        0.17399320066763174,
        -0.09567465275337793,
        0.17124558250088756,
        0.04546232876918998,
        -0.054878316082607875,
        0.048897227505586296,
        -0.00418919136470729,
        0.03517045478720109,
        0.10258381656292072,
        0.10846397355375281,
        0.06806045939574669,
        0.09250971061674221,
        0.11909091898904495,
        0.05200196093880637,
        0.004524643665969421,
        0.010080514725394453,
        0.0396059309996186,
        -0.08383908546330009,
        -0.1453861167358564,
        0.11713342033865881,
        0.015384674507757469,
        0.14166419861209475,
        -0.08743739193502906,
        0.20500704434076655,
        -0.02866804741191902,
        0.002688635124263705,
        -0.0275869014203234,
        -0.12135814368406418,
        0.12216222663023603,
        -0.047019536285455986
      ],
      [
        -0.09486653712376472,
        -0.12702321649175025,
        0.08789327603279032,
        0.11969797431313203,
        0.10911269350422173,
        -0.23543559836922576,
        0.08072975250279384,
        0.03921214232759025,
        -0.1321797717073888,
        -0.009075027940121355,
        0.008642927065155168,
        -0.14121081874604766,
        -0.1563549286795766,
        0.1271860602382332,
        0.029917660872083963,
        -0.04489813853903204,
        -0.18567489497761092,
        -0.07143701468231954,
        0.13042190362487813,
        0.031212850642114483,
        0.06553559055703742,
        0.06816223386964905,
        -0.012360049320711292,
        -0.2464733024301738,
        -0.2098374592992045,
        0.010133402087066064,
        -0.10362272685240319,
        0.1370015172762028,
        0.07598112131877387,
        0.09181233017460964,
        0.1125230494099222,
        -0.05919970800235383
      ],
      [
        0.13870846977232112,
        -0.10880409067422678,
        -0.045932768453906814,
        0.09561598768782083,
        -0.10292538912184448,
        0.10038977623133588,
        0.005152645096140339,
        -0.04334688175327503,
        0.13515635490412273,
        0.12576046842471061,
        -0.05535853775988817,
        0.027001207915008412,
        -0.010948657726303013,
        0.13518679235010395,
        0.12420565677675377,
        0.15806846124834056,
        0.12008826973072112,
        -0.1305503614219991,
        0.09106771762942856,
        -0.06940797908885124,
        0.14534315758879351,
        0.09647111810169313,
        -0.10386705460443446,
        -0.05014172361498267,
        0.044001828429008155,
        0.06431037578836517,
        -0.12706445573921676,
        0.0007318156095412754,
        0.06118384631018492,
        0.10619707796622371,
        0.09053888020667311,
        0.0007328210021677529
      ],
      [
        -0.1859331833235681,
        0.08254057030044461,
        -0.16029839524389464,
        -0.06956921431290738,
        -0.0316137633404863,
        0.01797323403471435,
        0.1513310143710087,
        0.004278591135836303,
        -0.1164410505645259,
        -0.06021486494983171,
        0.025218420704104263,
        -0.13608837105506646,
        -0.1875474724000451,
        0.05211802954902781,
        -0.09362167202465552,
        -0.13031707783531601,
        0.10981434169889225,
        -0.09622680292753893,
        -0.11678652943206094,
        0.11076168080808547,
        -0.043516637389135034,
        -0.01980671050970668,
        0.20108839851844892,
        -0.10203788937017282,
        0.13357418511533958,
        0.103236891303457,
        0.08634315617046565,
        0.08677119224772793,
        -0.10824846477537207,
        0.14542094415383405,
        -0.15680604571851836,
        -0.06752214472122986
      ],
      [
        -0.10119661503422336,
        0.10995719896884175,
        0.01602226442719132,
        0.0977461104395225,
        0.09765967973459487,
        0.04368289770691846,
        0.06430294143454142,
        -0.15723654235864973,
        -0.195885263165025,
        -0.1459692815428894,
        0.11384910751611262,
        0.1835965851707272,
        -0.013667680836094308,
        0.08843893554134516,
        -0.13219064749269588,
        0.00852494470863456,
        0.02062162028809512,
        -0.03421036227064826,
        -0.10366650410491594,
        0.06485555404811706,
        -0.04273657277293592,
        -0.014602207270307399,
        0.11052360223924765,
        -0.11598386328134104,
        0.12713459613671582,
        0.17909918154528512,
        -0.07718777799624547,
        -0.1926995624676123,
        0.052116169076187144,
        -0.1585261322375327,
        0.09747819765937568,
        -0.15634755839875283
      ],
      [
        -0.17174309358504913,
        0.017969605326003727,
        -0.07618002460778288,
        -0.1860740225716964,
        0.03928115630083666,
        0.03514501063658513,
        -0.012814894634782394,
        0.08244606560610508,
        -0.10318557487778643,
        0.13782755172646283,
        -0.10001720340200088,
        0.2075396661155563,
        0.1010379101154712,
        -0.1831663232367199,
        0.017552457345287507,
        -0.059828478489943084,
        0.21391653314000725,
        0.026147939628470583,
        0.0730536718677736,
        0.1202084479428855,
        -0.1890358079795011,
        0.09229044583044937,
        -0.17413682429925864,
        -0.03696135176742212,
        -0.037414899181163586,
        -0.12752155430685835,
        -0.15437416757164146,
        -0.16593983003941404,
        -0.16123403076228265,
        -0.08646011271276229,
        -0.04340155623496938,
        0.0712160901136089
      ],
      [
        -0.008753978837604239,
        -0.14386157008439726,
        -0.10044211112209234,
        0.14790439928408325,
        -0.1666489666147583,
        -0.0033471496115273,
        -0.08869669128086265,
        0.16871148997762075,
        0.13215429865949258,
        0.008372596317782852,
        -0.10886717230041947,
        -0.06935807849883624,
        0.07715905708551499,
        0.06403726925850099,
        -0.03697037131294198,
        -0.09484697349828866,
        -0.01340539871628551,
        -0.022315197444777734,
        0.036864839044915027,
        0.10816234202852618,
        -0.043904525907747766,
        -0.04732960400099614,
        -0.002669949535920258,
        0.09688974397396859,
        -0.123005882354932,
        -0.16304903870827983,
        -0.22460995997577113,
        0.14099780365672837,
        0.20674577845100525,
        0.24011486788565362,
        0.014675007999786277,
        -0.005948966133446116
      ],
      [
        0.001905081355456953,
        -0.1329990042393022,
        0.02465570881007708,
        -0.09126666701125606,
        -0.038735827366695036,
        0.16788794373640564,
        -0.09394801515842682,
        -0.15975835391848786,
        -0.005347980470969076,
        -0.06649329589869427,
        -0.04867649645826886,
        -0.00882176646463943,
        -0.031292195322758946,
        0.15580195401909033,
        -0.009865770508562861,
        -0.05870774243523382,
        0.1595536074136905,
        0.051850821380821754,
        0.080769187249329,
        0.11836442588947459,
        0.11706766895211264,
        -0.010271720570826561,
        -0.03937273953311254,
        -0.0481105168175936,
        0.1959524970827913,
        0.10083589003269716,
        0.007939167401652293,
        0.008497567926821345,
        0.22394359056832747,
        0.034649896461697756,
        0.12794315418673438,
        0.13923976598289284
      ],
      [
        -0.09126615716358794,
        -0.05258933033731333,
        0.006579473533806976,
        -0.17965904466441115,
        -0.05436044656913818,
        -0.03042470119329003,
        -0.03153221049760379,
        -0.020205578219047067,
        0.07326485527046518,
        -0.03530902753076775,
        -0.0878062487257413,
        0.1601531281575448,
        0.07315169499901075,
        0.009002690707018788,
        0.10285795968764073,
        0.09050095818805003,
        -0.0182561540035018,
        0.15629215835215682,
        -0.16058704613890668,
        -0.15353566639288305,
        -0.06805901953401881,
        -0.1599508321399948,
        0.10067928969009697,
        0.18704741515378487,
        0.14149827651287017,
        0.18996604108736598,
        -0.16731172741941036,
        0.16501121697052676,
        0.024168729739008795,
        -0.08984357100023112,
        -0.13121777947270172,
        0.02993206169495035
      ],
      [
        0.06690572576497479,
        -0.0903879777047494,
        -0.07261594910304053,
        -0.05065657052459712,
        -0.20155885011070396,
        0.07805644171945167,
        -0.02877597067467379,
        -0.18389377184551234,
        -0.16480835616844947,
        0.010946899611039895,
        -0.13591220274472504,
        0.09261341321331945,
        -0.19203190521900076,
        -0.042805076085170514,
        0.08436437733845419,
        -0.04985748933156443,
        -0.09279676819193121,
        0.014376728161466462,
        0.0011851848324293545,
        -0.06595657632750306,
        0.09231525135895224,
        0.04291140910451589,
        0.041688638228744156,
        0.16192621768746143,
        -0.07771863781152497,
        -0.11447273477026591,
        0.00913665379299585,
        0.09147344208393637,
        0.12875634818239384,
        0.2231892620643105,
        0.016662195084889836,
        0.08212363327465763
      ],
      [
        0.07136723584842394,
        -0.06049456922828995,
        -0.1910295635262364,
        -0.021492773681787616,
        -0.14840754712262813,
        0.05482382359738405,
        -0.16394442110432836,
        -0.2366308506519795,
        -0.0320546045836513,
        0.12552885143575335,
        0.04125545023586406,
        0.011063601750268727,
        -0.07918191437613373,
        -0.1661773538889324,
        -0.0755336481837336,
        -0.27733750461625867,
        -0.14553201873623253,
        0.15950652656589184,
        -0.19279860565384474,
        -0.09321628364262204,
        0.2544322625959494,
        0.09281054182482251,
        0.18767504428424175,
        0.016961746955506972,
        -0.12484079351323356,
        -0.20413473380044334,
        0.10636040649891916,
        0.06681810779544167,
        -0.10671738161936524,
        0.15823799387283216,
        -0.1627664614899688,
        -0.027703043709888946
      ],
      [
        0.15462044937179298,
        0.11136316364482612,
        -0.11440759352255188,
        0.012855377613538298,
        0.14042490465307297,
        0.09294646087152184,
        0.0011379416463597539,
        -0.2168999912103981,
        0.0368728044846281,
        0.3042306052467156,
        -0.12158860429076926,
        -0.008191021058516306,
        -0.06909786920468221,
        0.07953821870388829,
        -0.04876052069987799,
        0.0976694211705576,
        0.13384834952393238,
        -0.03509346408419606,
        -0.022667815122064394,
        -0.1982287363641571,
        -0.1020510557537917,
        0.04871676834107249,
        0.04686116477328891,
        -0.009998463842786657,
        0.012395491514724981,
        -0.02546314870743507,
        0.23622198058340804,
        -0.14247052959461662,
        0.16775703814478304,
        0.016865651730061052,
        0.05567576572053633,
        -0.09960112912652774
      ],
      [
        0.03229059872964611,
        -0.05029067206895423,
        -0.1341321284979287,
        0.05782010823688787,
        -0.05715501370857029,
        0.12219271477479972,
        -0.20632852293664472,
        -0.00015107674367294252,
        -0.21101834186384513,
        -0.1469338899850999,
        0.04962551315969904,
        0.17218084878019982,
        -0.12274347808025296,
        -0.15818074050281014,
        0.02974894058063137,
        0.05286246818952577,
        -0.0686434660057504,
        0.05278240165572874,
        0.05453217245292192,
        -0.12763649171014163,
        -0.19657275644948005,
        -0.12421706549782628,
        0.05923052024773783,
        -0.014699075820449116,
        0.1887887853182681,
        0.0581287658264119,
        0.02825332890936889,
        0.12928711614305252,
        0.01790967631409758,
        -0.12598888882265274,
        0.06358860232879819,
        -0.03119451062050853
      ],
      [
        -0.15479820914806036,
        0.10015157915996499,
        0.03590305005849245,
        -0.08281579180110911,
        -0.19325318450984494,
        0.0036534601643330566,
        -0.19905043749555296,
        -0.012897583981422796,
        -0.14879318654447388,
        -0.001537758503363652,
        0.06658750884072966,
        0.053050737432094014,
        -0.11614879204657959,
        -0.03838283591437444,
        -0.0430585761622701,
        0.036309289924184585,
        0.03142255137158921,
        0.19231579401306637,
        0.13429700949435638,
        -0.0728042485142793,
        -0.06709714088368582,
        -0.08213187851651878,
        -0.12470337672151958,
        -0.11364994627728522,
        -0.09726740379700151,
        -0.08697989194386879,
        0.15673057376618965,
        0.0711439565336998,
        -0.13214889140521574,
        -0.13657405894797958,
        0.037260895308671195,
        -0.13290975778941871
      ],
      [
        -0.21162596049742713,
        -0.22244069119929596,
        0.027677488311119876,
        0.014976350792638995,
        -0.01996290910202614,
        -0.24751214551575115,
        -0.01155010147057383,
        -0.22564421369000845,
        0.00175248830225088,
        0.0015121050632905977,
        -0.08932467617600895,
        -0.007820678861159476,
        -0.20988777799469593,
        0.13140781822763287,
        -0.03950510986185535,
        0.10300095556651954,
        -0.13061675000730144,
        0.09730347495181513,
        -0.21781571857959853,
        -0.06940259279011107,
        0.04431616440004315,
        -0.025947773971678963,
        0.10454083031382579,
        0.10178935136184923,
        -0.10288810384965565,
        0.1562850940286985,
        -0.06973645520897108,
        -0.16743798528246787,
        -0.08643126957141874,
        0.15241292804223777,
        0.1628075952597726,
        -0.05735103903021472
      ],
      [
        -0.06117624553194115,
        -0.02739050736497337,
        -0.04245718397806808,
        0.11718693314819605,
        0.03503098609711116,
        0.008133090736151597,
        -0.13376256950772786,
        0.03680635878863439,
        0.1421113669793991,
        0.14850337815202222,
        -0.01761050680064776,
        0.1947212051771778,
        0.0005783488416007881,
        0.17355033224357813,
        0.0689519885311829,
        0.12325540001987927,
        0.07574784144158495,
        -0.18937307638659193,
        0.11403379886139017,
        -0.09586414274379126,
        -0.13813668442161775,
        -0.07453656502071826,
        -0.06824270219517846,
        -0.14563479360602968,
        0.1230194372451851,
        -0.09570565634066619,
        0.1349970547352557,
        0.09832198514820453,
        0.14894070357440267,
        0.08152095754129433,
        0.07135237825065079,
        -0.15323362200804624
      ],
      [
        0.1517897696011315,
        -0.1060949158276874,
        0.07121746577343734,
        -0.08146764065066602,
        0.18671782784610194,
        0.16112916225321436,
        -0.13757291759588752,
        -0.13342614597217367,
        0.19435263829612345,
        0.014377166820608644,
        -0.1704688579096992,
        -0.07059144707271446,
        -0.13431922785505557,
        0.21479033968253966,
        0.10606343740240545,
        -0.0844308969195499,
        0.09066221580369103,
        0.0774279650693648,
        -0.07149194293135584,
        0.05221244480218686,
        -0.08704212778355537,
        -0.01646077457956086,
        -0.09402590721624568,
        -0.06399242150014656,
        -0.042168169635949194,
        -0.01767322545773372,
        -0.019716828583152293,
        -0.2693443069079592,
        0.0012320266500085743,
        -0.026902362555843145,
        0.13799308741453456,
        -0.142436528381328
      ],
      [
        0.14406871214749303,
        -0.08155703711121016,
        -0.050811090517561955,
        0.17170134452972777,
        0.09005293564091206,
        0.10295044859381083,
        -0.1330232474594614,
        -0.11274443929504169,
        0.010248117419078785,
        0.20038551211847874,
        -0.21841027680382458,
        0.0757414750369729,
        -0.043674681760892134,
        -0.08633648403230335,
        0.10196184098597859,
        -0.17705425791936946,
        0.017791748677944495,
        -0.08290042757598026,
        0.1609999213193465,
        -0.12819981596869107,
        0.14400769957150042,
        0.1346465669517447,
        0.06312492686297067,
        0.15837228534445902,
        0.11008929507328012,
        0.04937820201928056,
        0.10413757648948731,
        0.15140954353751518,
        0.16363184427980051,
        0.07315650297681106,
        -0.12758830972406363,
        0.12271443428598376
      ],
      [
        0.017110983493070143,
        0.03364314708816236,
        -0.009229088915419556,
        0.14478765508481087,
        -0.11725080159418891,
        -0.1773044184072567,
        -0.13275562090599577,
        0.08509085958124805,
        -0.10422552580323091,
        0.06434721780848787,
        -0.09634050915755907,
        -0.22777154244580983,
        -0.21437341635869747,
        -0.11343643798273491,
        -0.1348723737333105,
        -0.21562917049089272,
        -0.09844133962847283,
        0.18174097726122804,
        -0.1382327947878619,
        -0.08934588939562332,
        0.0010472966500194869,
        0.022320133499932678,
        0.16503450495255026,
        -0.1465517228082183,
        -0.14699204989884498,
        -0.006740900619539502,
        -0.09620487116721883,
        0.09316843617316586,
        -0.10783426918984236,
        0.07771092873189399,
        0.10493774596764494,
        -0.00877678127312204
      ],
      [
        -0.12362740269498446,
        -0.033410233071658746,
        0.13516818679744594,
        -0.1325767601741153,
        0.13069220394552297,
        -0.10516653489856781,
        0.047025973838374445,
        0.18898474606746357,
        -0.1842319515526712,
        -0.19409625017603474,
        -0.08515922130403329,
        -0.13215198964905195,
        0.016283990025557405,
        0.08779759827636734,
        0.10336306173062226,
        -0.17429834244260464,
        -0.040967022325078525,
        -0.1513362475155953,
        -0.045779719454037,
        0.12146702489556925,
        0.01749767825023388,
        0.14976665783053586,
        0.03491435731007568,
        -0.09859407925641003,
        0.032277787024664335,
        -0.12429553604769987,
        -0.23177995249057717,
        -0.10405495318250897,
        0.16961004324688073,
        -0.052673815267604146,
        0.11579095291844584,
        -0.00503104837276117
      ],
      [
        0.20176287911847934,
        -0.07032476707760461,
        0.08342976181346624,
        -0.12916079012393072,
        -0.035549474549254514,
        -0.01713685578475641,
        0.023039206333247818,
        -0.041660555398756426,
        -0.004645061435873235,
        0.01797327234231162,
        0.07947132672895924,
        -0.1518933918283192,
        -0.09654786451410605,
        0.09838110504757105,
        -0.060735197684816854,
        -0.08652172686752861,
        -0.06616783783633536,
        0.1233355827568183,
        -0.13087062103483948,
        0.16827748074600413,
        0.1171693413602795,
        -0.07634222886753653,
        -0.00677564499612779,
        -0.05725601601680241,
        -0.10546075640775307,
        -0.15863142315742956,
        0.15308965712373007,
        0.14291786155192707,
        0.06970757580988102,
        0.06797244718602728,
        0.1632107805600596,
        0.12404735264573934
      ],
      [
        0.19932509281751534,
        0.03164853295933232,
        -0.19992164787049088,
        0.1962621476974353,
        0.037695490268066116,
        -0.1692764457022138,
        0.042071549564821106,
        -0.10492259421072833,
        -0.05848183671452405,
        0.033469101738788205,
        -0.08398863741144606,
        -0.17932457322445933,
        -0.0643024016407734,
        0.1698700962675933,
        0.04399065024193352,
        -0.01795421026674095,
        -0.06658923905890933,
        -0.10794581514471456,
        0.02220289013107746,
        -0.13079832125619714,
        0.18470125025909973,
        0.12999424446993318,
        0.2072120672451958,
        -0.07850504961275778,
        -0.1933548379190963,
        -0.022408637935827584,
        0.11368867722820898,
        0.053414535592495975,
        -0.3079940822442517,
        0.19078610994053274,
        -0.2005877949882694,
        0.03876636901574664
      ],
      [
        0.17063728015010543,
        -0.13575707183326927,
        -0.06881008140746035,
        0.06621550428739523,
        -0.1313374050588764,
        0.05707917447901915,
        0.1527203145127704,
        0.09087220807398722,
        -0.05551744520897026,
        -0.1416175344398007,
        -0.04281127431717129,
        -0.16568700185793395,
        0.14589745642784546,
        -0.1153962839787971,
        0.08913649849799656,
        0.050994706927535105,
        0.08605988145620053,
        -0.06929061723480871,
        -0.087753215197349,
        0.009416081494492991,
        -0.11114657817903818,
        -0.1076374787029212,
        -0.07809188465675324,
        -0.1943779375195913,
        0.05437935257913758,
        0.14193075098177352,
        -0.12115011290889906,
        0.21474532254759596,
        0.08543456857559134,
        0.2182126897452964,
        -0.03453779067581295,
        0.16144643955554372
      ],
      [
        -0.16026138690271297,
        -0.11143444047846376,
        0.07830700918935635,
        -0.17600867339517642,
        0.11342180513298364,
        0.12209868794265756,
        0.07000959757400703,
        0.2592734608050184,
        0.14617286252711445,
        0.0179353927438236,
        0.1637837399873308,
        0.038935779214444896,
        0.1890569664102136,
        0.006502543200758194,
        -0.09296159465802573,
        0.061850554703094765,
        0.3319687182861381,
        -0.19112855759609496,
        0.12044336957702705,
        -0.035276839881588765,
        -0.27389781982375117,
        -0.05722385455688981,
        -0.1851382389178522,
        0.20382060122659154,
        0.15924909775464566,
        0.32082047949192,
        -0.08676641591038399,
        0.018164396957494767,
        0.18396864105816885,
        -0.023084043895242518,
        0.13936270397224698,
        0.1697572934857287
      ],
      [
        0.02381205234523847,
        -0.08202209788444806,
        0.1531015216358737,
        -0.15365130897705642,
        0.10966319953320093,
        -0.1286196689600757,
        -0.037614489966974717,
        -0.05078344046898311,
        0.09754948091456342,
        -0.05118984340862001,
        -0.12579352645304048,
        -0.018602793313648745,
        -0.040119161750838725,
        -0.12724120586933962,
        0.10037723964399077,
        0.03751135658648929,
        0.11842453232333354,
        0.043860397517861555,
        -0.09082039587109372,
        -0.02885375735323467,
        -0.17444397172922638,
        0.18132630354566973,
        0.11308237298396687,
        -0.014699496824701118,
        -0.027142822780589982,
        0.18108433660963516,
        0.014535000843508452,
        -0.10297340948575416,
        0.09057210351463071,
        -0.10636488323012912,
        0.03926974308659013,
        0.11217253576204604
      ],
      [
        -0.12584316616292363,
        0.1546029261483719,
        -0.08554392250866265,
        -0.033558669035058705,
        0.06330142814747423,
        0.12792827882177987,
        0.2660191634393874,
        0.10238846623982904,
        0.1289877906009079,
        -0.1617162920121615,
        0.047883242063593214,
        -0.05529249231172767,
        0.015978668435045376,
        0.08725610147233293,
        -0.19148778253681464,
        0.11495748979465721,
        0.09309949618197084,
        -0.09066774802420992,
        0.17074605070281917,
        0.18875451531383752,
        -0.18341198132816036,
        0.10855034152137202,
        -0.18727945695599155,
        0.013438181516419068,
        0.15046526528165485,
        0.1241850091906569,
        -0.1590080253035688,
        -0.08974483456687332,
        0.14660624828131927,
        0.10262547099419865,
        0.030547913108044087,
        0.17241456764486804
      ]
    ],
    "bias": [
      0.14853243498218457,
      0.18555313295431558,
      -0.025644297058727606,
      -0.025488180173420097,
      -0.03697555869671894,
      -0.07321762913293393,
      0.12463881708775533,
      -0.09646447528661878,
      -0.1154338772474276,
      -0.021655817919129842,
      -0.056607737279430984,
      0.1638285731103321,
      0.17653784122956842,
      -0.12464575167453709,
      0.12427719589321916,
      -0.08762761013554933,
      -0.06424175683663788,
      -0.21286827125893043,
      0.16564346003462035,
      -0.14703231392822272,
      -0.14109239057416192,
      0.10017083049185418,
      -0.012054382639259047,
      -0.04424438831079589,
      0.06537858197636481,
      -0.05100086863788042,
      -0.10618370920829484,
      -0.061064662137166104,
      0.10738826010939628,
      -0.048520589324405373,
      -0.07382960606813062,
      -0.01143491435996153
    ]
  },
  "fc3": {
    "weight": [
      [
        0.20781236209511578,
        -0.19992208943970075,
        0.13911551519067986,
        0.06093605311719144,
        -0.12974234904064982,
        -0.011210396374211088,
        0.07711710741008194,
        -0.13008152138684406,
        0.09475608968310041,
        0.10466333941264809,
        -0.1451713651084052,
        0.028624966122867038,
        0.1103734398170528,
        -0.04347067948313018,
        0.09692970493434593,
        -0.025608024207874922,
        0.007050444840174162,
        0.0404852212527507,
        -0.15817520947622438,
        -0.10788939475484798,
        -0.06811834040174311,
        0.1266949832335887,
        -0.1581919309018168,
        0.15259867158415677,
        0.09462530396922747,
        0.09326560255025805,
        -0.07264511653576354,
        0.14127218181943108,
        -0.14115815168167853,
        0.09121020889723032,
        -0.09819187053942702,
        0.03116801236214683
      ],
      [
        -0.197468890712638,
        0.09277323562622752,
        -0.14474499411936742,
        0.22814181603395828,
        0.06735945658112907,
        -0.15313797880176783,
        -0.05758584705801981,
        0.08530632912793663,
        0.0791039329830484,
        -0.041477942991849946,
        0.08775889736703882,
        0.06851354637485683,
        -0.2091187695597496,
        0.061652056906319044,
        -0.07219303998297741,
        -0.06502810500209495,
        0.07815475986249973,
        0.16094663826123248,
        -0.08019260825208388,
        0.17350666512442345,
        0.16211556098832605,
        0.19565125852913257,
        0.04064316283393165,
        -0.05830707710156638,
        0.162635549408632,
        -0.1976217955773193,
        -0.14091827304073298,
        -0.08563740347153954,
        -0.19639836920590212,
        -0.14584767837420237,
        -0.09886359967801507,
        -0.24961576865341226
      ],
      [
        0.030179464698839684,
        0.1111764711673261,
        0.01633250376701352,
        -0.19107119326678393,
        0.10204090626195604,
        0.18747036168256498,
        -0.07122030128321459,
        0.059756047952809956,
        0.0909866110628026,
        0.019580183262353282,
        0.10686620794802983,
        0.028087123960571808,
        -0.1941118348576016,
        0.023707790798039422,
        0.14060253018701568,
        -0.032971111295455484,
        -0.06511578507157494,
        -0.02767257720348556,
        -0.139488382040654,
        0.04511511317708495,
        0.017025260335335867,
        0.18074532377159408,
        0.11421637467222394,
        0.04529434986761415,
        -0.17769770415578093,
        -0.1290200052937952,
        -0.13744175317226195,
        0.08543067519942836,
        -0.16554159938723806,
        -0.01634305787466299,
        0.07599885987197183,
        -0.036694171653936854
      ],
      [
        -0.07302601915232011,
        -0.04270934204080496,
        -0.17074806317639973,
        0.2204498500330226,
        -0.14796935216340193,
        -0.0858001033483162,
        0.11234699984997995,
        -0.13536456311249964,
        0.03839122272695618,
        0.061972457191238596,
        0.16493393386351674,
        0.12165764940458207,
        -0.043098483658884044,
        -0.14206476982096528,
        0.04882816429742146,
        0.08381855485499203,
        0.18216063310350913,
        0.035152861852609504,
        -0.011142101816113302,
        0.15009022955499216,
        -0.0989083685179102,
        -0.12943415220951868,
        -0.06655406302147339,
        -0.20856998275917596,
        -0.10552442596271627,
        0.011061525356654656,
        0.15828679503124407,
        -0.06156051104479286,
        0.06960084436713476,
        0.10337889502909259,
        -0.07186448888104825,
        0.013802550611133219
      ],
      [
        -0.08932809212462069,
        -0.03804553722168223,
        0.043044099649385215,
        -0.07175404130688708,
        0.15561128494674842,
        0.1331417463271534,
        -0.1869882503814999,
        -0.02231407218242337,
        -0.019163188523309536,
        -0.21594059185358414,
        0.099410866396762,
        0.06681603051939333,
        -0.08697444031871751,
        0.08432667562414047,
        -0.26034121395327986,
        0.13383968703597618,
        -0.13400753609462546,
        0.14234440805839704,
        -0.047572942840458425,
        -0.19061483446182692,
        -0.15843745790181424,
        0.03326246703759919,
        0.1630106180696312,
        0.2041666069782432,
        0.012078853976237905,
        0.12835196823504522,
        0.10959991213054564,
        0.17227227137081644,
        -0.19286655164171923,
        0.034179138000231216,
        -0.16301432205521735,
        -0.03464373672243257
      ],
      [
        -0.13210068106687303,
        -0.17722573949739792,
        0.08758397164113917,
        -0.03323109220943582,
        0.14468364241218243,
        -0.09180637007215997,
        0.024501947058316983,
        0.08587847189833855,
        0.1175058039886791,
        0.13722027595110367,
        0.19801930424275216,
        -0.1261913832914916,
        -0.1165402354418389,
        -0.10144692052219693,
        0.1623885718363777,
        -0.06115394939662471,
        -0.06974942771548827,
        0.14402378985564454,
        0.06876190956422693,
        0.17216772126881744,
        -0.030338138420730475,
        -0.05620959271026074,
        0.20480214810742098,
        -0.1586466056109186,
        0.06269622066028678,
        0.0001534512194767278,
        0.060652233994872365,
        -0.161288151642857,
        -0.20337264541349895,
        -0.00840106730380472,
        0.07911645909004879,
        -0.020465434523149417
      ],
      [
        0.17259794058218023,
        0.031068891267789642,
        0.08877679579700246,
        0.062268793554604865,
        -0.11439150837452872,
        0.12523969249298583,
        -0.03713701016197682,
        0.051342174703077344,
        0.14567461662361614,
        0.020922814371356162,
        0.18429171826788857,
        0.03633737042593208,
        -0.15718102048015067,
        0.07203002773381476,
        0.12439382666918622,
        0.056539165395387725,
        -0.20530733488741035,
        0.0531186934670564,
        -0.0207653443767111,
        -0.029426766625908856,
        -0.20222742453263298,
        -0.07520146081716568,
        0.05246205143053725,
        -0.16244783403573418,
        0.0031622752102872394,
        0.035520313570728476,
        -0.02178500612438865,
        -0.06696166953463466,
        0.01448133992217201,
        0.10598275522890513,
        0.08173053606254374,
        0.18179339533003078
      ],
      [
        0.08398579587035375,
        -0.01834494932406216,
        0.1037237190199203,
        -0.12892209533049231,
        -0.05704770859569474,
        0.06674130291869258,
        0.11163843860843066,
        0.09643334358688671,
        0.006678626357854333,
        -0.05055786460964049,
        -0.16293524865243433,
        -0.013061598345788114,
        0.16292397038160744,
        -0.0557925526407179,
        0.16329093103306985,
        0.18992757347360348,
        0.19953084582125127,
        -0.19791329266205762,
        -0.01345851281587049,
        0.1579294875362827,
        0.09924373253304891,
        0.10439490052451704,
        0.07013701468048202,
        -0.16156454948610208,
        0.22102200484669018,
        -0.020713669028118567,
        -0.05724154592420778,
        0.14742167913283977,
        -0.06812984114683675,
        -0.10269659451952513,
        0.06094503922362742,
        0.09826189278644569
      ],
      [
        -0.17015340228508097,
        -0.2726057000372911,
        0.012871026026674837,
        -0.18565707862425432,
        0.04508760742294841,
        0.03261862641028695,
        -9.556485062232066e-05,
        0.17460447969830797,
        -0.03975812415307755,
        0.05273120644666005,
        -0.00902345242006927,
        -0.1649407542557785,
        -0.03798772028515858,
        -0.10841811498054256,
        0.04344541961996196,
        -0.08233282045850313,
        -0.1509749678070838,
        -0.09991386447171902,
        -0.18525776385726087,
        -0.12701219079120185,
        -0.22815522521673057,
        0.13194212242818862,
        0.10796629903048745,
        -0.08601653795527153,
        -0.08889806574089232,
        -0.0014437167693218372,
        -0.09096058673157871,
        -0.0334475163191877,
        -0.058526339870322235,
        -0.09602224324416772,
        0.1121570936634499,
        0.13083760680448162
      ],
      [
        -0.22614099948887198,
        -0.13653019760799373,
        -0.13438978361172998,
        0.13686184674844362,
        -0.09340457777531042,
        0.15329728683699495,
        0.02231386385175298,
        0.06119176033743089,
        0.05612275675294828,
        0.16641417481535492,
        0.11987343246094727,
        0.104394505453211,
        -0.07069861752905263,
        -0.1159905076078629,
        0.08523930830291532,
        0.12887167222558896,
        -0.0058132376433316655,
        0.2071248125546729,
        0.17756377603849777,
        0.1025898938337896,
        0.20257211727890487,
        0.026973495186451195,
        0.12611636738004137,
        -0.19443203037201814,
        0.12094927581462997,
        0.036351346548740476,
        0.09062749228932451,
        0.04821941299583627,
        -0.08836159832930987,
        0.0689274878178522,
        0.20836669065368268,
        -0.19521385719899031
      ],
      [
        -0.11160565483478027,
        0.10279598627790226,
        0.01119912408464713,
        -0.0529663766189328,
        0.008643699757039911,
        -0.1974993542077413,
        -0.10894670645338886,
        0.08858863816422236,
        0.09292365686427238,
        0.14511776791950065,
        -0.013311805004819105,
        0.08074004842675353,
        -0.0996903999147226,
        0.014871724984351704,
        0.18631762026121176,
        0.10385064766175832,
        0.05992568132306201,
        -0.008421623131359034,
        0.05187142853273747,
        0.12748088556004616,
        0.1720632658889597,
        -0.15129565168163356,
        0.0011380903802810044,
        -0.2225259556774459,
        -0.012199325256623891,
        -0.00453757882701757,
        -0.10742915233558228,
        -0.09069965377083386,
        -0.14593249877218004,
        0.023235915959065944,
        0.08471117691455288,
        -0.03601139172244965
      ],
      [
        0.09438340865215386,
        0.23638433611717305,
        -0.10962798619275813,
        0.16615860299123822,
        -0.14020365879895008,
        -0.15330938914750095,
        -0.09304072713437579,
        -0.0349761237133817,
        -0.18208858942780468,
        0.04863562608963022,
        0.03507031193255756,
        -0.1111459304366331,
        0.1309847113020055,
        -0.03363668627727207,
        0.18970928340254642,
        0.12384485015657432,
        -0.10369510537314046,
        -0.003975691332656945,
        0.25213545933499687,
        0.06699759416098439,
        0.19175662372068647,
        0.08504324137353551,
        0.1200285600790093,
        -0.207358814683022,
        -0.08676109258787829,
        0.10553613134763622,
        -0.08162903151367301,
        -0.19892782674156276,
        -0.003014421592429646,
        0.09585651441100522,
        0.03213436250789798,
        0.1348190893497337
      ],
      [
        0.021992758413506543,
        -0.12413703535074395,
        -0.0006745718049251892,
        -0.09325078154447237,
        0.04969454279020312,
        -0.12867327020485725,
        -0.12381831017077452,
        0.024015738427819906,
        0.13836685958458667,
        0.12171963901849715,
        -0.18459248273783943,
        -0.2127605942159986,
        0.16556571666561654,
        -0.09208639704720062,
        -0.1877570018229185,
        0.011868364219594656,
        0.1721744002702492,
        -0.06841013394701227,
        0.0025082968123444605,
        -0.2063609379816266,
        0.16200929904278966,
        0.08066968353866756,
        0.09386438883647588,
        0.11425801732137422,
        -0.05003336439124081,
        -0.16833679969207854,
        0.0383818595967679,
        0.1279760013710125,
        -0.05283372178397695,
        -0.020864245712536804,
        -0.05351689831712761,
        -0.059110009143717154
      ],
      [
        0.05519767975812512,
        0.203645415922755,
        -0.004420732287316103,
        0.07468569205358719,
        0.07535398870736268,
        0.04029559128520268,
        -0.013741612897058166,
        -0.061797607034592,
        0.011449036338583175,
        -0.11256547324808384,
        0.04396381984135104,
        -0.10866315527169468,
        -0.21907881391982317,
        0.0015189948386528395,
        0.07119785981937553,
        0.007428086815352764,
        -0.026151723488685174,
        0.050250967071617116,
        0.03313903920810804,
        0.04811167779681806,
        -0.053578519539786616,
        0.07365128704788877,
        0.1466332955294037,
        -0.04482363294745175,
        -0.05056950969068892,
        0.07402907127301,
        0.059784334617035376,
        -0.04003055722710347,
        -0.18846936028929834,
        -0.10868309526248565,
        0.06021487018222362,
        -0.1891712300748904
      ],
      [
        -0.09057952050429537,
        -0.07930004832954736,
        -0.0344832636313894,
        -0.0653923944246435,
        0.07710089801381564,
        0.16155204106572899,
        0.17327452291779671,
        -0.050836537436522965,
        -0.1401373525025739,
        0.07809099709152381,
        0.1925655453074041,
        0.2171104858202002,
        0.07012932928606926,
        0.14720486076466266,
        -0.062465138623563905,
        -0.12807819477326562,
        -0.18484680473836848,
        -0.058059727546764486,
        -0.008442070539813011,
        -0.079016330604955,
        -0.020594731495726493,
        0.05539738068585992,
        -0.13748220612992268,
        0.017913361673298735,
        0.1274327779586429,
        0.146193414442763,
        -0.05507250729201095,
        -0.10085392643058019,
        -0.09082348746615694,
        0.10267393339875765,
        -0.12704424109903603,
        0.21603220158245692
      ],
      [
        -0.03470049385876186,
        -0.06902236495456025,
        -0.13512883348203827,
        -0.029263750277591177,
        -0.1879383137657504,
        -0.12260444308531522,
        -0.18527289630668492,
        0.03102834159259885,
        -0.09140533055219965,
        0.08662871416853589,
        -0.12435980493500284,
        -0.11235927645598025,
        -0.055024827291366186,
        -0.048128150399655345,
        -0.03790998155621958,
        -0.13480563264002127,
        0.07317353545529706,
        -0.24544840511973964,
        0.20193447630565625,
        0.13290818765182405,
        0.15515996218297093,
        0.10839613858476072,
        -0.20770615908050036,
        0.029296330129033134,
        0.07595603838053487,
        0.11492590285166367,
        -0.13786149084910387,
        -0.015846329247367244,
        0.1426124273658535,
        0.057827647396863566,
        -0.19572010448788887,
        0.12822968168273202
      ],
      [
        0.1878877263881081,
        0.18794274698416663,
        -0.11947604641342315,
        -0.1522826492370992,
        0.0909420080932005,
        0.16411428006410247,
        0.2094781373336312,
        -0.17348055258224368,
        0.1135602216031396,
        -0.04586688272036117,
        -0.033411473741775354,
        0.19497541571678761,
        0.042073547193510565,
        0.09431560500736691,
        -0.05747411543786065,
        0.11888874436421076,
        -0.13609017800278292,
        0.07270700879355864,
        0.022170488980198005,
        -0.10817313788243851,
        -0.09465917999585353,
        0.0883181548638626,
        0.04926023123225107,
        -0.08212899831944273,
        0.04751477592140061,
        0.002593515949906484,
        -0.2012743536676938,
        -0.1346177475774474,
        -0.07924852616196072,
        0.2137920805414024,
        0.19983333568510755,
        0.13490391493575787
      ],
      [
        0.19739010534720244,
        0.25350062889234304,
        -0.005074218255161826,
        0.17792913451947992,
        0.11978769877423169,
        0.03198134632736447,
        0.2024182971191133,
        -0.08595559446857454,
        -0.1695833394031205,
        -0.1254308524619966,
        0.15077697249873476,
        -0.07720137379130258,
        0.02414352169912696,
        -0.009452560091474497,
        -0.11844212538952027,
        -0.08131775037094596,
        0.08094870192756438,
        0.06372969459132474,
        0.12836558076365578,
        -0.014207676032141283,
        -0.034386302533727764,
        0.024753247378413286,
        -0.09699008204886668,
        -0.0830146994398897,
        -0.03557129144788614,
        0.05041607375422151,
        -0.11625932983362584,
        0.07055657910417107,
        -0.043642476436483425,
        0.04183076505905403,
        0.0077659443422821075,
        0.13033924845954714
      ],
      [
        -0.03586147766439932,
        -0.05789863898588616,
        -0.15042092085609643,
        0.04335760086700766,
        -0.012021665306681318,
        -0.1755364356484959,
        -0.2101408238089245,
        0.08114765829905128,
        0.015049012618520874,
        -0.0445916789456632,
        -0.14288928772219103,
        0.09248659602714333,
        -0.06940153822611685,
        0.05678854726864894,
        -0.1040422625118623,
        0.11145222433193794,
        0.03958249925623894,
        -0.027554571546066928,
        0.13029838088164675,
        -0.11283722552033426,
        -0.09099003129209977,
        -0.06335381515767255,
        -0.05706317279348657,
        -0.005333293338816801,
        0.11370793682083945,
        0.1373694873622048,
        -0.04122994714299588,
        0.11096700291174198,
        0.11918310473298262,
        0.05140980845469455,
        -0.1304922006971249,
        -0.21350759311676304
      ],
      [
        -0.16818338968367727,
        0.05394211916303239,
        -0.20751529983358866,
        0.2038824620639745,
        0.1797382541006891,
        0.03721132351045181,
        -0.10104200333940752,
        -0.1957703936903317,
        0.07175022275108306,
        -0.0805602564430357,
        0.08383899218995775,
        0.11360267894909395,
        -0.1475415566429846,
        0.03912717176483579,
        0.025051701901398556,
        0.0559859779550702,
        0.14486698646255824,
        0.0372189858301681,
        0.06742816375810752,
        0.011335983435636313,
        0.11592850151236232,
        0.0642083604825155,
        0.18902573864770825,
        0.11595022285078369,
        0.12383979652222118,
        0.10288910907224763,
        -0.17437330336211068,
        -0.0937326567089452,
        -0.17532749763137,
        -0.1323613436376833,
        0.18145648916228313,
        -0.23474114324872716
      ],
      [
        0.14236841531302963,
        -0.10354857681935987,
        0.057294618632435665,
        -0.1563830580784523,
        -0.056054490180152884,
        0.08007694873537714,
        0.017017965839304726,
        -0.12171113760853508,
        0.032714156560055364,
        -0.11043995035138245,
        -0.08495610290481241,
        -0.10374281332279227,
        0.07156739642584167,
        0.05972694194659175,
        -0.060362928897593766,
        0.12253827486709004,
        0.025091460426099527,
        0.010602948300841209,
        0.051946199322907255,
        0.014146078781942061,
        0.07212074898439769,
        0.09109623670875601,
        0.06893229215783163,
        0.10113432669288513,
        -0.21554263913286958,
        0.1266563328449461,
        0.08957909269152534,
        -0.06774877125855958,
        -0.18601845713958012,
        0.1523925732011543,
        -0.008183168748712416,
        -0.0128156715431631
      ],
      [
        -0.06209386979686613,
        0.1719596201059379,
        -0.0959388821662452,
        0.20660675310049942,
        0.09332683336540673,
        0.03991998498852451,
        0.08087223505170862,
        -0.13623030464228925,
        -0.17796768652595152,
        0.16463690766134212,
        0.08057456830078115,
        -0.17492248618291442,
        -0.08937541934080555,
        0.04152566762240618,
        0.04577313958062119,
        0.12371174780351284,
        -0.08868906360071695,
        0.02537191945732166,
        0.051432881428504613,
        -0.1379152268648807,
        0.22333728107835538,
        -0.02785063516447793,
        -0.09179008421359058,
        -0.1293991284191733,
        -0.02352110956061555,
        -0.11105560266952196,
        0.02430813507172384,
        -0.09327864056033955,
        -0.1289762544396029,
        -0.20243577766355425,
        -0.09569100037980266,
        -0.09636988802284546
      ],
      [
        0.0545265107302664,
        0.09906173237691894,
        0.06842604158499699,
        -0.07515909083499718,
        0.14755651444794307,
        0.10912078608753001,
        -0.10964046063349946,
        -0.15462649188833605,
        -0.12108758094715008,
        0.018999713569632478,
        -0.13047215558652128,
        0.08448782449699266,
        0.03161171721530271,
        0.11642613155100995,
        0.15140300720452374,
        -0.1096041567019948,
        -0.10777861789966807,
        0.1563607920319402,
        0.03548702690689828,
        -0.05721061186523893,
        0.12749112688592895,
        0.12103448614106053,
        0.13199673198565756,
        -0.11802504183867756,
        -0.057586621509313055,
        0.08281313803346452,
        -0.25329518424666003,
        -0.20923743423638191,
        -0.1357395196475826,
        0.11494574203923842,
        -0.12289947609326306,
        0.07899620812527229
      ],
      [
        -0.15387531996884155,
        -0.049251589616626144,
        0.0032395009809296654,
        0.1399498987678714,
        0.11769430556805786,
        0.09978888032918773,
        -0.16946592709232122,
        0.056435315077739905,
        0.05839343413662554,
        0.1274767579678877,
        -0.12006845526841588,
        0.027819899081688595,
        0.03141811482218964,
        -0.1677837223869007,
        0.027063333351986095,
        0.03514432093743632,
        0.12798771997993874,
        0.07525213169234747,
        0.019091133807833296,
        -0.006403480912027055,
        0.04966606453028277,
        -0.09073919702167871,
        -0.12114136541437047,
        -0.08798172864666876,
        0.2183604888523251,
        -0.046146364060751725,
        0.13335337473171877,
        0.0181686510989632,
        0.1515891634098836,
        -0.09226035927232962,
        -0.16640332878615616,
        0.09254096320355067
      ],
      [
        -0.13460664950447487,
        0.10341263371773853,
        -0.07372144631107737,
        0.2264051213258936,
        0.06759620321374468,
        -0.04589797165062448,
        0.08086465013320475,
        0.10636388269960353,
        -0.15274365606900073,
        0.14839798604969676,
        0.1995914232114051,
        -0.09251649472278266,
        -0.09040621391831968,
        -0.05776344036743757,
        0.05348368680339291,
        -0.10116958306981154,
        -0.09491512205467759,
        0.10829467295327619,
        0.07730789048670039,
        -0.041192375876037086,
        0.11465412922766126,
        0.13645034749439847,
        0.06487457582100531,
        -0.02905314254126075,
        0.13612827072535183,
        -0.19556488316670007,
        -0.1518745090878334,
        0.019057724590656303,
        -0.11593517126099191,
        0.10264566255767016,
        -0.017237237057020384,
        -0.2117685281745901
      ],
      [
        -0.04738372862137861,
        -0.0546005339007165,
        -0.014317999560441509,
        0.034094424805669536,
        0.07351425457166681,
        -0.0655151061270623,
        0.08127025306562484,
        0.0806465311755081,
        0.047872268241376977,
        -0.2280745854641575,
        0.11431899724420629,
        -0.13603775801105153,
        -0.10756591482087967,
        0.12934698212475174,
        -0.14808397391926081,
        0.009520930779451696,
        0.049650121733074884,
        0.23899242316882668,
        0.0004113640148802864,
        0.026516394728939574,
        0.013822175449882417,
        -0.04861361230656603,
        0.06837571014921705,
        -0.134668213103029,
        -0.10893555798648427,
        -0.12483595147374413,
        -0.1264886964407056,
        -0.05820053391319864,
        -0.03469980684219785,
        -0.05646677267120088,
        0.22311583427174533,
        0.15379721943089253
      ],
      [
        0.10399690365912266,
        0.024384315931663864,
        -0.08468732858634373,
        -0.08207494884200522,
        -0.10232809228005581,
        -0.08124845248545971,
        0.056990654283684127,
        -0.08647317659602816,
        0.09752793538093332,
        0.14446399572094942,
        0.09505869775339561,
        0.03201873540327067,
        -0.13525804000545005,
        0.1212385703701984,
        0.0918989920572397,
        0.1847095415210288,
        0.19982952074199758,
        -0.04569990550474096,
        0.1295703968743616,
        -0.09140072968961188,
        0.21363144393648076,
        -0.15476987964177866,
        0.060938997780146616,
        -0.06084131977729863,
        0.2086829099485056,
        -0.03103471086963125,
        -0.06835044384218818,
        0.1122531276977128,
        0.06338755278917696,
        0.06120801473506269,
        -0.1104677373912377,
        -0.11189096383609745
      ],
      [
        0.029272733270682725,
        -0.08601955061762928,
        0.13948954413479014,
        0.03601027261917606,
        0.008384812033956097,
        0.1496504116191903,
        0.21436223669469912,
        -0.1261340108466523,
        0.1560907007200445,
        -0.14930433425942072,
        -0.08013325491123023,
        -0.13046558804168457,
        -0.023958381532846774,
        0.18137950847739642,
        -0.15056429124964005,
        -0.16931896232187463,
        0.07167125976823306,
        -0.00694562517277092,
        0.025512491734514864,
        0.011816424306432734,
        0.0936189054912112,
        0.07142891003060986,
        0.2614534454386894,
        -0.0993380144517224,
        -0.09964901987768965,
        -0.03664331040228163,
        0.1086518168757881,
        -0.019435667850608143,
        -0.20277024774721278,
        0.13200954406818755,
        0.16835634100905883,
        -0.07969142065397358
      ],
      [
        0.052712305346065275,
        -0.09817583024343611,
        -0.020032091375275125,
        0.09224105924413005,
        0.20270336809508732,
        -0.025958947813709828,
        0.10798812101142734,
        -0.101176206831414,
        -0.07987538702482991,
        -0.1470851386938842,
        0.07997046866027403,
        0.16595848186306386,
        -0.14665567943533897,
        0.09664169272033568,
        0.014031242766072287,
        -0.15939580745480988,
        -0.02993518659781866,
        -0.10456200654349863,
        0.14963100035206078,
        0.009015673565881,
        0.18345776175303002,
        0.049273148497007674,
        -0.1109038281502764,
        0.09787867508067884,
        -0.09007290325443275,
        -0.10107209630020311,
        0.1194780674168666,
        -0.026917044066732364,
        0.009636108153228582,
        -0.08923640303931725,
        -0.0036100767457085798,
        0.18324939361943005
      ],
      [
        -0.16281343931036812,
        -0.09617121457024451,
        0.0919201646093812,
        0.012836668674549776,
        -0.07811922898702438,
        0.03806897406454846,
        0.05687466470372013,
        -0.11811107505713515,
        -0.07848877313296976,
        0.1605645344725396,
        -0.10238408957759695,
        0.10423349190376602,
        0.15234826234972051,
        0.061084712986922376,
        0.0948153475126556,
        -0.06192415334372433,
        -0.05507620398417957,
        -0.2390282962537371,
        0.05902080494996732,
        0.15794733575246195,
        0.13112430399233546,
        0.01421286412151188,
        -0.24408211291425655,
        0.0564123167768361,
        0.0033077388310745843,
        -0.012508449252275754,
        -0.08328390713380482,
        0.06869381570969597,
        0.08894489347316123,
        -0.08645745812828985,
        -0.06655315294603101,
        0.013689911315984843
      ],
      [
        0.08260440960792113,
        0.14104159125525853,
        -0.1819403157852266,
        0.07892948359755436,
        -0.13225266427135068,
        -0.09842647156264962,
        0.007073494064682514,
        -0.1950833176340839,
        0.1378074832256895,
        -0.04095154941830592,
        0.041296701659603786,
        0.1133044599223128,
        -0.003152479026509311,
        0.18605686300547575,
        0.16670795307121877,
        0.01923564099962049,
        -0.26044054880082884,
        0.10955218260213066,
        0.027975645155991134,
        0.05676151949784109,
        0.05947672572222174,
        -0.041062407698171925,
        -0.005154505493251184,
        -0.1736204434423616,
        0.00488894132508643,
        -0.01782039515426377,
        -0.11577719810520022,
        -0.03919122405243602,
        -0.009748707564357513,
        0.1115175281971643,
        0.20421577623103246,
        0.19447994363747978
      ],
      [
        0.10363483231001326,
        -0.0399574539810633,
        -0.2829828344669598,
        0.17592251724851563,
        0.10614223381197531,
        0.023368860815500755,
        -0.17950288663617273,
        -0.03971654861133879,
        0.11561659170721363,
        -0.028904532391652145,
        -0.1616835284850344,
        -0.0026609863837827896,
        0.17632610487515601,
        -0.1356130968566515,
        -0.035224641053263984,
        -0.00992364648381597,
        -0.04606878231695228,
        -0.08869945113432796,
        0.11221728011418133,
        0.05861512382558578,
        -0.059319411935436876,
        -0.10562978677349397,
        -0.3030623613852281,
        -0.17146033097432392,
        0.09319452071048905,
        -0.07090624509972643,
        -0.1417924932110985,
        0.03116618859617939,
        0.12496861926803443,
        0.08652343533245042,
        0.049191939866490696,
        -0.20761484651849563
      ]
    ],
    "bias": [
      0.02288666536735357,
      -0.14711151496437558,
      0.10781029929964733,
      0.13880379621914227,
      -0.16849914001673683,
      -0.014806744606238023,
      0.07660126910395633,
      0.0302019198566565,
      -0.17766471809673437,
      0.16585035602675735,
      -0.06702864863638963,
      0.06908013448316891,
      0.10025513212932181,
      -0.14561068681551426,
      -0.05405203313207636,
      -0.04630457018944473,
      0.18215531227101878,
      -0.06586754932546404,
      -0.11381892193078318,
      -0.14515138271968678,
      -0.02598930901836995,
      0.15581542812138335,
      -0.1223255912723189,
      -0.15445325963313528,
      -0.1401796803278457,
      0.13094267408093593,
      0.1092012294898354,
      0.0635594456266046,
      0.13651062039193398,
      0.0805700516652244,
      0.13489726746153577,
      -0.010337060940933104
    ]
  },
  "fc4": {
    "weight": [
      [
        0.07252434321823238,
        -0.0588444172366334,
        -0.11264977935370742,
        -0.0002768689845460226,
        -0.10557749833645738,
        -0.16670455901935838,
        -0.12099378392414321,
        0.13445334725035948,
        0.04231068718555317,
        -0.043429784339520605,
        -0.008220229822403998,
        -0.09526485106882905,
        0.1748910371257482,
        -0.14860358196191642,
        -0.15336368759532018,
        0.1708890164680976,
        -0.20925684322361215,
        -0.12756627479737656,
        0.13651146577555898,
        -0.0749409923256679,
        -0.13348524242668397,
        0.16024896823220144,
        -0.08605567316426616,
        0.2283699674779468,
        -0.053613293028252865,
        -0.1457567027536062,
        0.18748034938502983,
        -0.1771568514914443,
        -0.18123833416009838,
        0.1750466121861819,
        -0.17333359406950385,
        0.0897545725557606
      ],
      [
        -0.2013652303285006,
        0.2332470849203145,
        0.002522093066676091,
        0.22954413228748677,
        -0.24614961234595853,
        0.09629957533672888,
        -0.05506589280738922,
        0.05878880284153416,
        -0.1660952949164916,
        0.240353311459721,
        0.18799531670137343,
        0.17986569624025556,
        -0.12372759425536409,
        0.16012995437011868,
        -0.18136157337874886,
        0.12253663610397483,
        0.07024118572569704,
        0.11499135011410815,
        0.03394952032669306,
        0.2020833928113432,
        -0.16836819115464544,
        0.18213279907392085,
        0.033917195903835,
        0.04937975262137965,
        0.13502419090628404,
        0.02294424645389198,
        0.2113789233405041,
        -0.011269877234117851,
        0.1341294059481416,
        0.14382178880237567,
        0.13882262115752408,
        0.09740066831405265
      ]
    ],
    "bias": [
      0.006861815243500317,
      -0.11950347530343326
    ]
  }
}