// fc1 (Q16.16)
#ifndef FC1_Q16_H
#define FC1_Q16_H

#include <stdint.h>

#define FC1_OUT_DIM 32
#define FC1_IN_DIM 2

static const int32_t fc1_weights[32][2] = {
    { 52322, 29596 },
    { 11315, -46021 },
    { -41047, 5823 },
    { -32486, 55530 },
    { -40516, 25441 },
    { -8191, -34626 },
    { -36495, -51313 },
    { -26152, -30632 },
    { -10441, 4092 },
    { 13241, 42933 },
    { -3596, -21686 },
    { 8895, 31379 },
    { -28731, 53871 },
    { 11365, 1303 },
    { 28410, -54061 },
    { 26228, 19463 },
    { -4121, 18272 },
    { -9399, 8759 },
    { -25449, -18729 },
    { 2712, -22759 },
    { -52543, -7336 },
    { -40549, -29422 },
    { -20546, -38070 },
    { -17974, 45995 },
    { 9525, -22313 },
    { 46568, 11514 },
    { -40123, -19870 },
    { 39946, 1944 },
    { -37139, 34004 },
    { -34383, -39077 },
    { 33350, 16713 },
    { -49363, 20947 }
};

static const int32_t fc1_biases[32] = { -13164, 43986, 34753, -13574, 56557, -23006, 41928, -22630, -10555, -6405, -26183, -43643, 4526, 6873, -6513, 22449, 20408, -23773, 35123, -28096, 18327, -376, -33177, 33652, 39634, 1839, -20847, -13687, 36222, -48406, -45865, 16276 };

#endif // FC1_Q16_H
