// fc1 (Q16.16)
#ifndef FC1_Q16_H
#define FC1_Q16_H

#include <stdint.h>

#define FC1_OUT_DIM 32
#define FC1_IN_DIM 2

static const int32_t fc1_weights[32][2] = {
    { -21757, 492 },
    { -19898, 13687 },
    { -28340, 33564 },
    { -30631, -32957 },
    { -30388, 21787 },
    { -21780, 16022 },
    { -38744, -21057 },
    { -23262, -8503 },
    { -35546, 30164 },
    { -17584, 13676 },
    { 31646, 7764 },
    { 12386, 43168 },
    { -24285, 14654 },
    { -21782, 33034 },
    { 34701, -38384 },
    { 39132, 21602 },
    { 14140, 25299 },
    { 37494, -3766 },
    { -38876, -7910 },
    { -31315, 1040 },
    { -4987, -32098 },
    { -5145, 40776 },
    { 813, -4834 },
    { -5188, 11660 },
    { 29898, 28555 },
    { 15467, 14780 },
    { 9461, 18844 },
    { -9501, -43011 },
    { -27308, 33507 },
    { -2307, -38343 },
    { 8303, 38417 },
    { -43992, -19227 }
};

static const int32_t fc1_biases[32] = { -21532, 3753, -1330, -9226, -43538, 31174, 44775, 30132, -30654, -44704, 24106, 9504, 30278, -44293, -6182, 37766, 35123, -4486, 20189, 12753, -30519, -20479, -35446, 53386, 35800, 23964, -37423, 34634, 29662, 30387, -13993, 32084 };

#endif // FC1_Q16_H
