// fc2 (Q16.16)
#ifndef FC2_Q16_H
#define FC2_Q16_H

#include <stdint.h>

#define FC2_OUT_DIM 32
#define FC2_IN_DIM 32

static const int32_t fc2_weights[32][32] = {
    { 11296, 11210, 9973, -2569, 6240, -4193, 6973, -612, -4211, -7347, 1027, 12323, 10563, -3645, 8144, -4271, 7924, -3033, 1519, 4184, -12620, -972, -418, 14765, -2401, 5253, 4914, 1276, 13743, -372, 3665, 7778 },
    { -3008, 8673, -4148, 556, -9177, -7374, -5609, -11270, 2242, -3347, 5689, -1070, 378, -3252, 2259, 15268, 5553, -52, -10015, -3898, -12020, -6451, -10870, -1320, 4255, 12174, 7305, 6386, -5322, -1464, -7778, 4489 },
    { 9024, 12902, -7162, 10348, 18896, 9359, 656, 9919, 11737, 17851, -5447, -9836, 38, 10723, -8753, -13434, -20005, -5486, 10336, 3256, 4777, 4791, 12527, -12957, -13983, -11747, -4697, 1992, 8319, -16823, -7485, -12162 },
    { 2288, 6221, -10447, -6873, 2740, -10622, 6097, -1249, -4177, 529, 5523, -2709, -12510, 532, 1435, 1711, -34, 9779, -5895, -3820, 3594, -4043, 3145, -3881, 7049, -4351, 3918, -2669, -10636, -12674, 6990, -5663 },
    { 11179, -8428, -3986, -8178, 12294, -1195, -8779, -7690, -3741, 12730, -2849, -8265, 3698, 10079, -11066, 2603, 3983, -3708, -8429, 1496, 10002, 13267, -4358, -8762, 5986, 3564, 18332, -12509, 9240, -16257, 2039, -344 },
    { 7589, -5378, 12286, 13266, -2890, 2709, -4963, 14031, 9977, 13938, -702, -922, 9284, 4499, -5543, 2171, 1779, -7051, 438, -5769, -3299, -4096, -3313, -11506, 6078, -13140, 15977, -6504, 521, 8404, 4219, -727 },
    { -6775, -1218, 11403, -6270, 11223, 2979, -3597, 3205, -275, 2305, 6723, 7108, 4460, 6063, 7805, 3408, 297, 661, 2596, -5494, -9528, 7676, 1008, 9284, -5730, 13435, -1879, 176, -1808, -7953, 8006, -3081 },
    { -6217, -8325, 5760, 7845, 7151, -15430, 5291, 2570, -8663, -595, 566, -9254, -10247, 8335, 1961, -2942, -12168, -4682, 8547, 2046, 4295, 4467, -810, -16153, -13752, 664, -6791, 8979, 4979, 6017, 7374, -3880 },
    { 9090, -7131, -3010, 6266, -6745, 6579, 338, -2841, 8858, 8242, -3628, 1770, -718, 8860, 8140, 10359, 7870, -8556, 5968, -4549, 9525, 6322, -6807, -3286, 2884, 4215, -8327, 48, 4010, 6960, 5934, 48 },
    { -12185, 5409, -10505, -4559, -2072, 1178, 9918, 280, -7631, -3946, 1653, -8919, -12291, 3416, -6136, -8540, 7197, -6306, -7654, 7259, -2852, -1298, 13179, -6687, 8754, 6766, 5659, 5687, -7094, 9530, -10276, -4425 },
    { -6632, 7206, 1050, 6406, 6400, 2863, 4214, -10305, -12838, -9566, 7461, 12032, -896, 5796, -8663, 559, 1351, -2242, -6794, 4250, -2801, -957, 7243, -7601, 8332, 11737, -5059, -12629, 3415, -10389, 6388, -10246 },
    { -11255, 1178, -4993, -12195, 2574, 2303, -840, 5403, -6762, 9033, -6555, 13601, 6622, -12004, 1150, -3921, 14019, 1714, 4788, 7878, -12389, 6048, -11412, -2422, -2452, -8357, -10117, -10875, -10567, -5666, -2844, 4667 },
    { -574, -9428, -6583, 9693, -10922, -219, -5813, 11057, 8661, 549, -7135, -4545, 5057, 4197, -2423, -6216, -879, -1462, 2416, 7089, -2877, -3102, -175, 6350, -8061, -10686, -14720, 9240, 13549, 15736, 962, -390 },
    { 125, -8716, 1616, -5981, -2539, 11003, -6157, -10470, -350, -4358, -3190, -578, -2051, 10211, -647, -3847, 10457, 3398, 5293, 7757, 7672, -673, -2580, -3153, 12842, 6608, 520, 557, 14676, 2271, 8385, 9125 },
    { -5981, -3446, 431, -11774, -3563, -1994, -2066, -1324, 4801, -2314, -5754, 10496, 4794, 590, 6741, 5931, -1196, 10243, -10524, -10062, -4460, -10483, 6598, 12258, 9273, 12450, -10965, 10814, 1584, -5888, -8599, 1962 },
    { 4385, -5924, -4759, -3320, -13209, 5116, -1886, -12052, -10801, 717, -8907, 6070, -12585, -2805, 5529, -3267, -6082, 942, 78, -4323, 6050, 2812, 2732, 10612, -5093, -7502, 599, 5995, 8438, 14627, 1092, 5382 },
    { 4677, -3965, -12519, -1409, -9726, 3593, -10744, -15508, -2101, 8227, 2704, 725, -5189, -10891, -4950, -18176, -9538, 10453, -12635, -6109, 16674, 6082, 12299, 1112, -8182, -13378, 6970, 4379, -6994, 10370, -10667, -1816 },
    { 10133, 7298, -7498, 842, 9203, 6091, 75, -14215, 2416, 19938, -7968, -537, -4528, 5213, -3196, 6401, 8772, -2300, -1486, -12991, -6688, 3193, 3071, -655, 812, -1669, 15481, -9337, 10994, 1105, 3649, -6527 },
    { 2116, -3296, -8790, 3789, -3746, 8008, -13522, -10, -13829, -9629, 3252, 11284, -8044, -10367, 1950, 3464, -4499, 3459, 3574, -8365, -12883, -8141, 3882, -963, 12372, 3810, 1852, 8473, 1174, -8257, 4167, -2044 },
    { -10145, 6564, 2353, -5427, -12665, 239, -13045, -845, -9751, -101, 4364, 3477, -7612, -2515, -2822, 2380, 2059, 12604, 8801, -4771, -4397, -5383, -8173, -7448, -6375, -5700, 10271, 4662, -8661, -8951, 2442, -8710 },
    { -13869, -14578, 1814, 981, -1308, -16221, -757, -14788, 115, 99, -5854, -513, -13755, 8612, -2589, 6750, -8560, 6377, -14275, -4548, 2904, -1701, 6851, 6671, -6743, 10242, -4570, -10973, -5664, 9989, 10670, -3759 },
    { -4009, -1795, -2782, 7680, 2296, 533, -8766, 2412, 9313, 9732, -1154, 12761, 38, 11374, 4519, 8078, 4964, -12411, 7473, -6283, -9053, -4885, -4472, -9544, 8062, -6272, 8847, 6444, 9761, 5343, 4676, -10042 },
    { 9948, -6953, 4667, -5339, 12237, 10560, -9016, -8744, 12737, 942, -11172, -4626, -8803, 14076, 6951, -5533, 5942, 5074, -4685, 3422, -5704, -1079, -6162, -4194, -2764, -1158, -1292, -17652, 81, -1763, 9044, -9335 },
    { 9442, -5345, -3330, 11253, 5902, 6747, -8718, -7389, 672, 13132, -14314, 4964, -2862, -5658, 6682, -11603, 1166, -5433, 10551, -8402, 9438, 8824, 4137, 10379, 7215, 3236, 6825, 9923, 10724, 4794, -8362, 8042 },
    { 1121, 2205, -605, 9489, -7684, -11620, -8700, 5577, -6831, 4217, -6314, -14927, -14049, -7434, -8839, -14131, -6451, 11911, -9059, -5855, 69, 1463, 10816, -9604, -9633, -442, -6305, 6106, -7067, 5093, 6877, -575 },
    { -8102, -2190, 8858, -8689, 8565, -6892, 3082, 12385, -12074, -12720, -5581, -8661, 1067, 5754, 6774, -11423, -2685, -9918, -3000, 7960, 1147, 9815, 2288, -6461, 2115, -8146, -15190, -6819, 11116, -3452, 7588, -330 },
    { 13223, -4609, 5468, -8465, -2330, -1123, 1510, -2730, -304, 1178, 5208, -9954, -6327, 6448, -3980, -5670, -4336, 8083, -8577, 11028, 7679, -5003, -444, -3752, -6911, -10396, 10033, 9366, 4568, 4455, 10696, 8130 },
    { 13063, 2074, -13102, 12862, 2470, -11094, 2757, -6876, -3833, 2193, -5504, -11752, -4214, 11133, 2883, -1177, -4364, -7074, 1455, -8572, 12105, 8519, 13580, -5145, -12672, -1469, 7451, 3501, -20185, 12503, -13146, 2541 },
    { 11183, -8897, -4510, 4339, -8607, 3741, 10009, 5955, -3638, -9281, -2806, -10858, 9562, -7563, 5842, 3342, 5640, -4541, -5751, 617, -7284, -7054, -5118, -12739, 3564, 9302, -7940, 14074, 5599, 14301, -2263, 10581 },
    { -10503, -7303, 5132, -11535, 7433, 8002, 4588, 16992, 9580, 1175, 10734, 2552, 12390, 426, -6092, 4053, 21756, -12526, 7893, -2312, -17950, -3750, -12133, 13358, 10437, 21025, -5686, 1190, 12057, -1513, 9133, 11125 },
    { 1561, -5375, 10034, -10070, 7187, -8429, -2465, -3328, 6393, -3355, -8244, -1219, -2629, -8339, 6578, 2458, 7761, 2874, -5952, -1891, -11432, 11883, 7411, -963, -1779, 11868, 953, -6748, 5936, -6971, 2574, 7351 },
    { -8247, 10132, -5606, -2199, 4149, 8384, 17434, 6710, 8453, -10598, 3138, -3624, 1047, 5718, -12549, 7534, 6101, -5942, 11190, 12370, -12020, 7114, -12274, 881, 9861, 8139, -10421, -5882, 9608, 6726, 2002, 11299 }
};

static const int32_t fc2_biases[32] = { 9734, 12160, -1681, -1670, -2423, -4798, 8168, -6322, -7565, -1419, -3710, 10737, 11570, -8169, 8145, -5743, -4210, -13951, 10856, -9636, -9247, 6565, -790, -2900, 4285, -3342, -6959, -4002, 7038, -3180, -4838, -749 };

#endif // FC2_Q16_H
