{
  "fc1": {
    "weight": [
      [
        -0.495064653109858,
        0.2262199175539914
      ],
      [
        -0.6559841733217702,
        0.5443978059493351
      ],
      [
        0.0017915915847772255,
        -0.36120442770381284
      ],
      [
        0.759818094644546,
        -0.06726132598806077
      ],
      [
        0.9523281830271849,
        0.6284887441258936
      ],
      [
        -0.7622315918539292,
        -0.5727644596595559
      ],
      [
        -0.3676512570366018,
        0.3431703191090117
      ],
      [
        0.5990105206956786,
        -0.64511714412285
      ],
      [
        0.15438699774845338,
        0.49623075412746087
      ],
      [
        0.1960221121878929,
        0.27920761244908315
      ],
      [
        -0.9125924579430111,
        0.2759942028846254
      ],
      [
        -0.21791125842248615,
        0.58502932022921
      ],
      [
        0.2694091506027983,
        0.6339599981531941
      ],
      [
        0.5762562541213827,
        0.5323246685154639
      ],
      [
        -0.6561460783403179,
        -0.6164950671132635
      ],
      [
        0.10330706911249415,
        -0.38708307591916846
      ]
    ],
    "bias": [
      -0.6667415202377325,
      0.47133520487976066,
      -0.43219354414954525,
      0.8436585652040479,
      0.20397728577550103,
      -0.20643298701321144,
      -0.6847153181024769,
      0.08754981852038762,
      0.6396836569640206,
      0.04333453944603986,
      0.5412180568251876,
      0.2747962216216022,
      0.47794154597014604,
      0.12494919930650589,
      -0.10296619423692219,
      0.31787542965703103
    ]
  },
  "fc2": {
    "weight": [
      [
        0.0005260896383054601,
        -0.23039751581350165,
        -0.14464674184978354,
        0.2653205156266457,
        -0.39074436062037354,
        0.21174932943314193,
        0.1490633960951095,
        0.2885382016228863,
        0.04308379167081684,
        0.002438030727025311,
        0.05965655186332383,
        -0.4266455743784261,
        -0.277964915342117,
        -0.1138391285020646,
        0.4220569902166314,
        0.25312179026118437
      ],
      [
        0.03907722573492854,
        -0.08193105948400002,
        -0.11630677901013353,
        0.21214645117687808,
        0.4047219271541209,
        -0.43158784369076975,
        0.20519385215181674,
        0.18965313407661288,
        -0.30127340462146385,
        0.08552082002892838,
        -0.220156515464951,
        -0.13732849701611585,
        -0.013732145061013572,
        0.3085816762624427,
        -0.30570028192967824,
        0.17382568628132805
      ]
    ],
    "bias": [
      0.02958970606401945,
      -0.002832860406168034
    ]
  }
}