{
  "fc1": {
    "weight": [
      [
        0.6672555011190333,
        -0.3181293725032391
      ],
      [
        0.37039081092954307,
        -0.8091349157445622
      ],
      [
        0.17153818532083726,
        -0.27181624316388775
      ],
      [
        -0.09488192438595888,
        0.18088582246821852
      ],
      [
        -0.40103732844525974,
        -0.24930519095147696
      ],
      [
        -0.32322258880435817,
        0.5477617953413711
      ],
      [
        -0.16359021219171038,
        0.6131440360858424
      ],
      [
        0.393496036529541,
        -0.23513270914554596
      ]
    ],
    "bias": [
      -0.32926744092107085,
      -0.4255797361941707,
      0.36777290158909276,
      0.568852431625076,
      0.6716107747821654,
      -0.0842624207949056,
      0.1658006379891228,
      -0.6671275496482849
    ]
  },
  "fc2": {
    "weight": [
      [
        -0.06113751400610583,
        0.07346005557007865,
        -0.030565434071327228,
        -0.05743647181999011,
        0.0028392364216705828,
        0.08101010136775545,
        -0.1374053234919661,
        0.00995677150785923
      ],
      [
        -0.03247350703926839,
        0.07827523054542405,
        -0.19933332917120278,
        -0.220684687518703,
        -0.1360762013024301,
        0.04426853182811165,
        -0.11823228828879953,
        -0.23582147061824799
      ]
    ],
    "bias": [
      0.01599299481788552,
      0.26171473518988314
    ]
  }
}