{
  "fc1": {
    "weight": [
      [
        0.7983689153741752,
        0.4515993931607111
      ],
      [
        0.17265940229845522,
        -0.7022233646643923
      ],
      [
        -0.6263297543933349,
        0.08885390584864146
      ],
      [
        -0.4956917189552198,
        0.8473235089094222
      ],
      [
        -0.618227376172737,
        0.38819228956579643
      ],
      [
        -0.12499137627650582,
        -0.5283470159083885
      ],
      [
        -0.556866042521035,
        -0.7829696146837469
      ],
      [
        -0.3990516457487484,
        -0.4674011564584536
      ],
      [
        -0.1593134572423609,
        0.062437625822798284
      ],
      [
        0.2020370973654098,
        0.655102994241184
      ],
      [
        -0.05487624510797501,
        -0.33090199424813393
      ],
      [
        0.13572205496943307,
        0.4787982728399248
      ],
      [
        -0.43839770834614483,
        0.8220108461651493
      ],
      [
        0.17341754002353574,
        0.019875266651772507
      ],
      [
        0.4335046115620243,
        -0.8249000422858724
      ],
      [
        0.40021096095659453,
        0.29697922232247964
      ],
      [
        -0.06287887636427687,
        0.27881236183564706
      ],
      [
        -0.14341147243976593,
        0.13365642726421356
      ],
      [
        -0.38831501605365726,
        -0.2857855080510543
      ],
      [
        0.04138941458423967,
        -0.34726768299670674
      ],
      [
        -0.8017472596150088,
        -0.11194366735046636
      ],
      [
        -0.6187289654879685,
        -0.44893689648769736
      ],
      [
        -0.31350761748756895,
        -0.5809055543033419
      ],
      [
        -0.27425822603110706,
        0.7018232865096079
      ],
      [
        0.14534597083514258,
        -0.3404735369181224
      ],
      [
        0.7105668700567667,
        0.17568643895880062
      ],
      [
        -0.6122322278890489,
        -0.3031975454621486
      ],
      [
        0.609527335665428,
        0.0296560557791735
      ],
      [
        -0.5666960116684672,
        0.5188583705025303
      ],
      [
        -0.5246404433748898,
        -0.5962644042511706
      ],
      [
        0.5088757074981154,
        0.2550131816004128
      ],
      [
        -0.753212693767973,
        0.3196257565859272
      ]
    ],
    "bias": [
      -0.20086114503979796,
      0.6711720277094231,
      0.5302865157579367,
      -0.20712803392109408,
      0.8629931050032391,
      -0.3510461973085447,
      0.639765740820181,
      -0.345306042794211,
      -0.16105943536850856,
      -0.09772931474453235,
      -0.39951966023415864,
      -0.6659444357525145,
      0.06906346493050237,
      0.10488003801232132,
      -0.09937309028532647,
      0.3425488489350659,
      0.31140859263245296,
      -0.36274611949920654,
      0.5359324845353571,
      -0.4287069689489447,
      0.27965413897766705,
      -0.00574383781270711,
      -0.5062379994290875,
      0.513492403923268,
      0.6047619096575598,
      0.028066769937897498,
      -0.3181066706677853,
      -0.2088532012487811,
      0.5527113064256425,
      -0.7386106779635598,
      -0.6998515181870192,
      0.24834538505628095
    ]
  },
  "fc2": {
    "weight": [
      [
        -0.17693536192671944,
        0.12469276568843615,
        -0.11813507338552856,
        -0.10426056443143936,
        -0.2315140305317163,
        0.05845586437650847,
        0.23686572285613458,
        -0.01724931816435785,
        0.030374470248173822,
        -0.12181944753582256,
        -0.0273160265412223,
        0.03159425666306395,
        -0.1785028949328712,
        0.05467421655461327,
        0.3539485184447104,
        0.02679912597368942,
        -0.28253480379554485,
        0.16442593932151794,
        0.18249874048049666,
        -0.10613602187443646,
        0.23646302535812744,
        0.11518146720895335,
        -0.006626013616310284,
        -0.24164160376841745,
        -0.003993056794360461,
        -0.09845213635894676,
        0.07190283148137791,
        -0.14620962000051946,
        -0.03244983510039598,
        -0.06009493469759843,
        0.0940932490772176,
        0.014072495248072745
      ],
      [
        0.17007581747871495,
        0.20692664456138293,
        -0.08291292222502374,
        -0.057007480348415004,
        0.037334350915940666,
        -0.005922496752784965,
        -0.19668278553249946,
        -0.0643193723230762,
        0.07675042345499812,
        0.09625297885560828,
        -0.055348672164598336,
        -0.11033994916381207,
        -0.08863269688292345,
        0.15885018737071266,
        0.2398815295743109,
        0.2824068451145368,
        -0.05086616738981561,
        -0.09045558422803879,
        -0.173723322945672,
        0.1800365109752773,
        -0.12893826189969615,
        -0.3077290623538341,
        -0.10654266998568628,
        -0.017554975486802318,
        0.0731611865805093,
        0.1944019248030687,
        -0.02428402098244219,
        0.2610054180739673,
        -0.16675983849314358,
        -0.04248253883363763,
        0.13029650408575572,
        -0.20805896867682816
      ]
    ],
    "bias": [
      0.09523383709851296,
      0.13418510424419045
    ]
  }
}